{"learner":{"attributes":{"best_iteration":"199","best_ntree_limit":"200","scikit_learn":"{\"n_estimators\": 200, \"objective\": \"reg:squarederror\", \"max_depth\": 5, \"max_leaves\": null, \"max_bin\": null, \"grow_policy\": null, \"learning_rate\": 0.05, \"verbosity\": null, \"booster\": null, \"tree_method\": null, \"gamma\": null, \"min_child_weight\": null, \"max_delta_step\": null, \"subsample\": null, \"sampling_method\": null, \"colsample_bytree\": null, \"colsample_bylevel\": null, \"colsample_bynode\": null, \"reg_alpha\": null, \"reg_lambda\": null, \"scale_pos_weight\": null, \"base_score\": null, \"missing\": NaN, \"num_parallel_tree\": null, \"random_state\": null, \"n_jobs\": null, \"monotone_constraints\": null, \"interaction_constraints\": null, \"importance_type\": null, \"gpu_id\": null, \"validate_parameters\": null, \"predictor\": null, \"enable_categorical\": false, \"feature_types\": null, \"max_cat_to_onehot\": null, \"max_cat_threshold\": null, \"eval_metric\": null, \"early_stopping_rounds\": null, \"callbacks\": null, \"_estimator_type\": \"regressor\"}"},"feature_names":[],"feature_types":[],"gradient_booster":{"model":{"gbtree_model_param":{"num_parallel_tree":"1","num_trees":"200","size_leaf_vector":"0"},"tree_info":[0,0,0,0,0,0,0,0,0,0,0,0,0,0,0,0,0,0,0,0,0,0,0,0,0,0,0,0,0,0,0,0,0,0,0,0,0,0,0,0,0,0,0,0,0,0,0,0,0,0,0,0,0,0,0,0,0,0,0,0,0,0,0,0,0,0,0,0,0,0,0,0,0,0,0,0,0,0,0,0,0,0,0,0,0,0,0,0,0,0,0,0,0,0,0,0,0,0,0,0,0,0,0,0,0,0,0,0,0,0,0,0,0,0,0,0,0,0,0,0,0,0,0,0,0,0,0,0,0,0,0,0,0,0,0,0,0,0,0,0,0,0,0,0,0,0,0,0,0,0,0,0,0,0,0,0,0,0,0,0,0,0,0,0,0,0,0,0,0,0,0,0,0,0,0,0,0,0,0,0,0,0,0,0,0,0,0,0,0,0,0,0,0,0,0,0,0,0,0,0],"trees":[{"base_weights":[-5.0211275E-1,-8.897123E-1,5.6951153E-1,-1.2360272E0,-6.1299485E-1,2.5834996E-1,1.1104759E0,-7.0921254E-1,-3.303948E-1,5.262545E-2,4.5655653E-1,4.6677172E-2,-7.4569285E-1,-6.0438615E-4,1.4154331E-1,4.0637653E-2,-3.138482E-2],"categories":[],"categories_nodes":[],"categories_segments":[],"categories_sizes":[],"default_left":[1,1,1,0,1,1,0,1,0,1,0,0,0,1,0,0,0],"id":0,"left_children":[1,3,5,-1,7,9,-1,11,-1,13,-1,-1,-1,15,-1,-1,-1],"loss_changes":[3.0828058E1,4.4172134E0,3.0796552E0,0E0,6.357956E-1,5.4683685E-1,0E0,6.69034E-1,0E0,3.795021E-2,0E0,0E0,0E0,8.892092E-3,0E0,0E0,0E0],"parents":[2147483647,0,0,1,1,2,2,4,4,5,5,7,7,9,9,13,13],"right_children":[2,4,6,-1,8,10,-1,12,-1,14,-1,-1,-1,16,-1,-1,-1],"split_conditions":[1.4541763E0,1.3580567E0,1.6304326E0,-6.1801363E-2,1.4069918E0,1.5084995E0,5.5523794E-2,1.359852E0,-1.651974E-2,1.4869269E0,2.2827826E-2,2.3338587E-3,-3.7284642E-2,1.4661101E0,7.077166E-3,2.0318828E-3,-1.5692409E-3],"split_indices":[0,0,0,0,0,0,0,0,0,0,0,0,0,0,0,0,0],"split_type":[0,0,0,0,0,0,0,0,0,0,0,0,0,0,0,0,0],"sum_hessian":[7.2E1,5.3E1,1.9E1,2.2E1,3.1E1,1.3E1,6E0,2.2E1,9E0,7E0,6E0,1E0,2.1E1,5E0,2E0,2E0,3E0],"tree_param":{"num_deleted":"0","num_feature":"1","num_nodes":"17","size_leaf_vector":"0"}},{"base_weights":[-4.773822E-1,-8.473243E-1,5.453305E-1,-1.1769129E0,-5.839536E-1,2.4760158E-1,1.0628841E0,-6.752715E-1,-3.1552705E-1,5.093666E-2,4.3698984E-1,4.5510232E-2,-7.10103E-1,-4.970531E-4,1.368252E-1,3.928308E-2,-3.0207887E-2],"categories":[],"categories_nodes":[],"categories_segments":[],"categories_sizes":[],"default_left":[1,1,1,0,1,1,0,1,0,1,0,0,0,1,0,0,0],"id":1,"left_children":[1,3,5,-1,7,9,-1,11,-1,13,-1,-1,-1,15,-1,-1,-1],"loss_changes":[2.8081219E1,4.0001526E0,2.8186421E0,0E0,5.7132244E-1,4.991855E-1,0E0,6.097517E-1,0E0,3.540855E-2,0E0,0E0,0E0,8.2780635E-3,0E0,0E0,0E0],"parents":[2147483647,0,0,1,1,2,2,4,4,5,5,7,7,9,9,13,13],"right_children":[2,4,6,-1,8,10,-1,12,-1,14,-1,-1,-1,16,-1,-1,-1],"split_conditions":[1.4541763E0,1.3580567E0,1.6304326E0,-5.8845647E-2,1.4069918E0,1.5084995E0,5.3144205E-2,1.359852E0,-1.5776353E-2,1.4869269E0,2.1849493E-2,2.2755116E-3,-3.550515E-2,1.4661101E0,6.8412605E-3,1.964154E-3,-1.5103944E-3],"split_indices":[0,0,0,0,0,0,0,0,0,0,0,0,0,0,0,0,0],"split_type":[0,0,0,0,0,0,0,0,0,0,0,0,0,0,0,0,0],"sum_hessian":[7.2E1,5.3E1,1.9E1,2.2E1,3.1E1,1.3E1,6E0,2.2E1,9E0,7E0,6E0,1E0,2.1E1,5E0,2E0,2E0,3E0],"tree_param":{"num_deleted":"0","num_feature":"1","num_nodes":"17","size_leaf_vector":"0"}},{"base_weights":[-4.5386326E-1,-8.0695534E-1,5.221784E-1,-1.1206257E0,-5.5628735E-1,2.3730326E-1,1.0173318E0,-6.429527E-1,-3.0132833E-1,4.9301706E-2,4.182617E-1,4.437247E-2,-6.7621166E-1,-3.965795E-4,1.3226438E-1,3.7973642E-2,-2.9075101E-2],"categories":[],"categories_nodes":[],"categories_segments":[],"categories_sizes":[],"default_left":[1,1,1,0,1,1,0,1,0,1,0,0,0,1,0,0,0],"id":2,"left_children":[1,3,5,-1,7,9,-1,11,-1,13,-1,-1,-1,15,-1,-1,-1],"loss_changes":[2.5579552E1,3.6224785E0,2.5797224E0,0E0,5.133352E-1,4.556656E-1,0E0,5.5577946E-1,0E0,3.303727E-2,0E0,0E0,0E0,7.706495E-3,0E0,0E0,0E0],"parents":[2147483647,0,0,1,1,2,2,4,4,5,5,7,7,9,9,13,13],"right_children":[2,4,6,-1,8,10,-1,12,-1,14,-1,-1,-1,16,-1,-1,-1],"split_conditions":[1.4541763E0,1.3580567E0,1.6304326E0,-5.6031287E-2,1.4069918E0,1.5084995E0,5.0866593E-2,1.359852E0,-1.5066417E-2,1.4869269E0,2.0913085E-2,2.2186234E-3,-3.3810582E-2,1.4661101E0,6.6132187E-3,1.8986821E-3,-1.4537551E-3],"split_indices":[0,0,0,0,0,0,0,0,0,0,0,0,0,0,0,0,0],"split_type":[0,0,0,0,0,0,0,0,0,0,0,0,0,0,0,0,0],"sum_hessian":[7.2E1,5.3E1,1.9E1,2.2E1,3.1E1,1.3E1,6E0,2.2E1,9E0,7E0,6E0,1E0,2.1E1,5E0,2E0,2E0,3E0],"tree_param":{"num_deleted":"0","num_feature":"1","num_nodes":"17","size_leaf_vector":"0"}},{"base_weights":[-4.3149686E-1,-7.685092E-1,5.000114E-1,-1.0670307E0,-5.2993107E-1,2.2743605E-1,9.7373194E-1,-5.982344E-1,-2.5024167E-1,4.771889E-2,4.003362E-1,4.3263167E-2,-6.267661E-1,-1.10240765E-1,-3.1219408E-1,-3.0260286E-4,1.2785558E-1,-1.2484946E-1,-3.3207342E-2,-3.912833E-1,-1.2904014E-1,3.6707837E-2,-2.7984783E-2],"categories":[],"categories_nodes":[],"categories_segments":[],"categories_sizes":[],"default_left":[1,1,1,0,1,1,0,1,1,1,0,0,0,1,1,1,0,0,0,0,0,0,0],"id":3,"left_children":[1,3,5,-1,7,9,-1,11,13,15,-1,-1,-1,17,19,21,-1,-1,-1,-1,-1,-1,-1],"loss_changes":[2.330114E1,3.280466E0,2.3610291E0,0E0,4.6161652E-1,4.159202E-1,0E0,4.8469067E-1,3.497064E-2,3.0824956E-2,0E0,0E0,0E0,3.555119E-4,2.1936297E-2,7.1744393E-3,0E0,0E0,0E0,0E0,0E0,0E0,0E0],"parents":[2147483647,0,0,1,1,2,2,4,4,5,5,7,7,8,8,9,9,13,13,14,14,15,15],"right_children":[2,4,6,-1,8,10,-1,12,14,16,-1,-1,-1,18,20,22,-1,-1,-1,-1,-1,-1,-1],"split_conditions":[1.4541763E0,1.3580567E0,1.6304326E0,-5.3351533E-2,1.4137553E0,1.5084995E0,4.8686597E-2,1.359852E0,1.423719E0,1.4869269E0,2.001681E-2,2.1631585E-3,-3.1338304E-2,1.4213866E0,1.4337653E0,1.4661101E0,6.3927793E-3,-6.242473E-3,-1.6603671E-3,-1.9564165E-2,-6.4520068E-3,1.8353919E-3,-1.3992392E-3],"split_indices":[0,0,0,0,0,0,0,0,0,0,0,0,0,0,0,0,0,0,0,0,0,0,0],"split_type":[0,0,0,0,0,0,0,0,0,0,0,0,0,0,0,0,0,0,0,0,0,0,0],"sum_hessian":[7.2E1,5.3E1,1.9E1,2.2E1,3.1E1,1.3E1,6E0,2.4E1,7E0,7E0,6E0,1E0,2.3E1,3E0,4E0,5E0,2E0,2E0,1E0,2E0,2E0,2E0,3E0],"tree_param":{"num_deleted":"0","num_feature":"1","num_nodes":"23","size_leaf_vector":"0"}},{"base_weights":[-4.1048247E-1,-7.3224014E-1,4.7878745E-1,-1.0159987E0,-5.054062E-1,6.701665E-2,7.477166E-1,-5.836594E-1,-2.7488312E-1,-2.1478038E-4,1.5110964E-1,4.0809923E-1,9.320005E-1,4.218158E-2,-6.140241E-1,3.5484236E-2,-2.6935346E-2,1.0414243E-2,4.281211E-2,-4.7410876E-2,1.724562E-2],"categories":[],"categories_nodes":[],"categories_segments":[],"categories_sizes":[],"default_left":[1,1,1,0,1,1,1,1,0,1,0,0,0,0,0,1,1,0,0,0,0],"id":4,"left_children":[1,3,5,-1,7,9,11,13,-1,15,-1,-1,-1,-1,-1,17,19,-1,-1,-1,-1],"loss_changes":[2.1238037E1,2.9622765E0,2.1646342E0,0E0,4.1681576E-1,5.091568E-2,3.7068367E-1,4.6297932E-1,0E0,6.679168E-3,0E0,0E0,0E0,0E0,0E0,1.05273444E-4,4.4361446E-3,0E0,0E0,0E0,0E0],"parents":[2147483647,0,0,1,1,2,2,4,4,5,5,6,6,7,7,9,9,15,15,16,16],"right_children":[2,4,6,-1,8,10,12,14,-1,16,-1,-1,-1,-1,-1,18,20,-1,-1,-1,-1],"split_conditions":[1.4541763E0,1.3580567E0,1.5234157E0,-5.0799936E-2,1.4069918E0,1.4869269E0,1.6304326E0,1.359852E0,-1.3744156E-2,1.4661101E0,7.555482E-3,2.0404963E-2,4.6600025E-2,2.1090792E-3,-3.0701205E-2,1.463904E0,1.4766735E0,5.207122E-4,2.1406056E-3,-2.3705438E-3,8.62281E-4],"split_indices":[0,0,0,0,0,0,0,0,0,0,0,0,0,0,0,0,0,0,0,0,0],"split_type":[0,0,0,0,0,0,0,0,0,0,0,0,0,0,0,0,0,0,0,0,0],"sum_hessian":[7.2E1,5.3E1,1.9E1,2.2E1,3.1E1,8E0,1.1E1,2.2E1,9E0,5E0,3E0,5E0,6E0,1E0,2.1E1,2E0,3E0,1E0,1E0,2E0,1E0],"tree_param":{"num_deleted":"0","num_feature":"1","num_nodes":"21","size_leaf_vector":"0"}},{"base_weights":[-3.90197E-1,-6.973529E-1,4.5863375E-1,-9.6740746E-1,-4.8145887E-1,6.463344E-2,7.159145E-1,-1.4691238E0,-8.496667E-1,-5.5571955E-1,-2.625134E-1,-1.1861324E-5,1.4544302E-1,3.9109513E-1,8.9205766E-1,-4.361923E-2,-8.877881E-1,4.1127056E-2,-5.847184E-1,3.459714E-2,-2.5965646E-2,1.015389E-2,4.174182E-2,-4.5830518E-2,1.6814485E-2],"categories":[],"categories_nodes":[],"categories_segments":[],"categories_sizes":[],"default_left":[1,1,1,1,1,1,1,0,1,1,0,1,0,0,0,0,0,0,0,1,1,0,0,0,0],"id":5,"left_children":[1,3,5,7,9,11,13,-1,15,17,-1,19,-1,-1,-1,-1,-1,-1,-1,21,23,-1,-1,-1,-1],"loss_changes":[1.9352634E1,2.6826038E0,1.981102E0,1.1040306E-1,3.7440538E-1,4.7017366E-2,3.3769703E-1,0E0,6.0655594E-1,4.2212772E-1,0E0,6.2877443E-3,0E0,0E0,0E0,0E0,0E0,0E0,0E0,1.00075966E-4,4.169904E-3,0E0,0E0,0E0,0E0],"parents":[2147483647,0,0,1,1,2,2,3,3,4,4,5,5,6,6,8,8,9,9,11,11,19,19,20,20],"right_children":[2,4,6,8,10,12,14,-1,16,18,-1,20,-1,-1,-1,-1,-1,-1,-1,22,24,-1,-1,-1,-1],"split_conditions":[1.4541763E0,1.3580567E0,1.5234157E0,1.331144E0,1.4069918E0,1.4869269E0,1.6304326E0,-7.345619E-2,1.3345252E0,1.359852E0,-1.312567E-2,1.4661101E0,7.2721513E-3,1.9554757E-2,4.4602882E-2,-2.1809617E-3,-4.4389408E-2,2.0563528E-3,-2.923592E-2,1.463904E0,1.4766735E0,5.076945E-4,2.0870909E-3,-2.291526E-3,8.407243E-4],"split_indices":[0,0,0,0,0,0,0,0,0,0,0,0,0,0,0,0,0,0,0,0,0,0,0,0,0],"split_type":[0,0,0,0,0,0,0,0,0,0,0,0,0,0,0,0,0,0,0,0,0,0,0,0,0],"sum_hessian":[7.2E1,5.3E1,1.9E1,2.2E1,3.1E1,8E0,1.1E1,2E0,2E1,2.2E1,9E0,5E0,3E0,5E0,6E0,1E0,1.9E1,1E0,2.1E1,2E0,3E0,1E0,1E0,2E0,1E0],"tree_param":{"num_deleted":"0","num_feature":"1","num_nodes":"25","size_leaf_vector":"0"}},{"base_weights":[-3.7188932E-1,-6.654543E-1,4.3933076E-1,-9.2425567E-1,-4.5864546E-1,6.2336896E-2,6.854653E-1,-1.420153E0,-8.0940104E-1,-5.171595E-1,-2.1845838E-1,1.7939012E-4,1.3998893E-1,3.7479952E-1,8.538266E-1,-4.252875E-2,-8.456182E-1,4.0098876E-2,-5.420494E-1,-8.6552076E-2,-2.8029177E-1,3.3732194E-2,-2.5030062E-2,-1.027746E-1,-1.8942252E-2,-3.6032733E-1,-1.068256E-1,9.9000335E-3,4.069826E-2,-4.4302832E-2,1.6394123E-2],"categories":[],"categories_nodes":[],"categories_segments":[],"categories_sizes":[],"default_left":[1,1,1,1,1,1,1,0,1,1,1,1,0,0,0,0,0,0,0,1,1,1,1,0,0,0,0,0,0,0,0],"id":6,"left_children":[1,3,5,7,9,11,13,-1,15,17,19,21,-1,-1,-1,-1,-1,-1,-1,23,25,27,29,-1,-1,-1,-1,-1,-1,-1,-1],"loss_changes":[1.7677002E1,2.4663048E0,1.8130939E0,1.6051674E-1,3.3676004E-1,4.34148E-2,3.076353E-1,0E0,5.4728985E-1,3.6848783E-1,4.0989876E-2,5.9194057E-3,0E0,0E0,0E0,0E0,0E0,0E0,0E0,2.4404265E-3,3.0925125E-2,9.5134834E-5,3.919741E-3,0E0,0E0,0E0,0E0,0E0,0E0,0E0,0E0],"parents":[2147483647,0,0,1,1,2,2,3,3,4,4,5,5,6,6,8,8,9,9,10,10,11,11,19,19,20,20,21,21,22,22],"right_children":[2,4,6,8,10,12,14,-1,16,18,20,22,-1,-1,-1,-1,-1,-1,-1,24,26,28,30,-1,-1,-1,-1,-1,-1,-1,-1],"split_conditions":[1.4541763E0,1.3580567E0,1.5234157E0,1.331144E0,1.4137553E0,1.4869269E0,1.6304326E0,-7.1007654E-2,1.3345252E0,1.359852E0,1.423719E0,1.4661101E0,6.9994465E-3,1.8739976E-2,4.269133E-2,-2.1264374E-3,-4.228091E-2,2.0049438E-3,-2.710247E-2,1.4213866E0,1.4337653E0,1.463904E0,1.4766735E0,-5.13873E-3,-9.471126E-4,-1.8016366E-2,-5.34128E-3,4.950017E-4,2.034913E-3,-2.2151417E-3,8.197062E-4],"split_indices":[0,0,0,0,0,0,0,0,0,0,0,0,0,0,0,0,0,0,0,0,0,0,0,0,0,0,0,0,0,0,0],"split_type":[0,0,0,0,0,0,0,0,0,0,0,0,0,0,0,0,0,0,0,0,0,0,0,0,0,0,0,0,0,0,0],"sum_hessian":[7.2E1,5.3E1,1.9E1,2.2E1,3.1E1,8E0,1.1E1,2E0,2E1,2.4E1,7E0,5E0,3E0,5E0,6E0,1E0,1.9E1,1E0,2.3E1,3E0,4E0,2E0,3E0,2E0,1E0,2E0,2E0,1E0,1E0,2E0,1E0],"tree_param":{"num_deleted":"0","num_feature":"1","num_nodes":"31","size_leaf_vector":"0"}},{"base_weights":[-3.5467008E-1,-6.3532895E-1,4.2084247E-1,-8.8306093E-1,-4.374176E-1,6.0123824E-2,6.563113E-1,-1.3728145E0,-7.710456E-1,-5.0445676E-1,-2.3948582E-1,3.5950044E-4,1.3473935E-1,3.9358222E-1,8.5344326E-1,-4.146553E-2,-8.0545133E-1,3.9096415E-2,-5.3094083E-1,-2.60633E-1,-1.0326474E-1,3.288889E-2,-2.4127416E-2,-7.2102144E-2,-2.7726567E-1,-1.3875797E-2,-1.4102131E-1,9.652525E-3,3.968081E-2,-4.2826068E-2,1.5984267E-2],"categories":[],"categories_nodes":[],"categories_segments":[],"categories_sizes":[],"default_left":[1,1,1,1,1,1,1,0,1,1,1,1,0,0,0,0,0,0,0,1,1,1,1,0,0,0,0,0,0,0,0],"id":7,"left_children":[1,3,5,7,9,11,13,-1,15,17,19,21,-1,-1,-1,-1,-1,-1,-1,23,25,27,29,-1,-1,-1,-1,-1,-1,-1,-1],"loss_changes":[1.615615E1,2.2612972E0,1.6592994E0,2.0327377E-1,3.0380297E-1,4.008568E-2,2.8560734E-1,0E0,4.9373913E-1,3.518548E-1,1.8926859E-3,5.5727907E-3,0E0,0E0,0E0,0E0,0E0,0E0,0E0,5.094707E-3,8.168276E-3,9.043864E-5,3.6846807E-3,0E0,0E0,0E0,0E0,0E0,0E0,0E0,0E0],"parents":[2147483647,0,0,1,1,2,2,3,3,4,4,5,5,6,6,8,8,9,9,10,10,11,11,19,19,20,20,21,21,22,22],"right_children":[2,4,6,8,10,12,14,-1,16,18,20,22,-1,-1,-1,-1,-1,-1,-1,24,26,28,30,-1,-1,-1,-1,-1,-1,-1,-1],"split_conditions":[1.4541763E0,1.3580567E0,1.5234157E0,1.331144E0,1.4069918E0,1.4869269E0,1.6862595E0,-6.864073E-2,1.3345252E0,1.359852E0,1.4337653E0,1.4661101E0,6.7369677E-3,1.9679112E-2,4.2672165E-2,-2.0732766E-3,-4.0272567E-2,1.9548207E-3,-2.6547043E-2,1.410374E0,1.4405292E0,1.463904E0,1.4766735E0,-3.6051073E-3,-1.3863283E-2,-6.9378986E-4,-7.0510656E-3,4.8262626E-4,1.9840405E-3,-2.1413034E-3,7.9921336E-4],"split_indices":[0,0,0,0,0,0,0,0,0,0,0,0,0,0,0,0,0,0,0,0,0,0,0,0,0,0,0,0,0,0,0],"split_type":[0,0,0,0,0,0,0,0,0,0,0,0,0,0,0,0,0,0,0,0,0,0,0,0,0,0,0,0,0,0,0],"sum_hessian":[7.2E1,5.3E1,1.9E1,2.2E1,3.1E1,8E0,1.1E1,2E0,2E1,2.2E1,9E0,5E0,3E0,6E0,5E0,1E0,1.9E1,1E0,2.1E1,7E0,2E0,2E0,3E0,1E0,6E0,1E0,1E0,1E0,1E0,2E0,1E0],"tree_param":{"num_deleted":"0","num_feature":"1","num_nodes":"31","size_leaf_vector":"0"}},{"base_weights":[-3.3817735E-1,-6.0654014E-1,4.0331098E-1,-8.437334E-1,-4.1710314E-1,1.8418725E-1,7.839426E-1,-1.327054E0,-7.3450977E-1,-4.8030314E-1,-2.3003285E-1,3.9603353E-2,3.2311353E-1,-4.042889E-2,-7.6719236E-1,3.8119018E-2,-5.0560045E-1,-2.4978489E-1,-1.0068312E-1,5.2895147E-4,1.0455104E-1,-1.635094E-1,-3.3907422E-1,-1.3528898E-2,-1.3749579E-1,3.2066662E-2,-2.325657E-2],"categories":[],"categories_nodes":[],"categories_segments":[],"categories_sizes":[],"default_left":[1,1,1,1,1,1,0,0,1,1,1,1,0,0,0,0,0,1,1,1,0,0,0,0,0,0,0],"id":8,"left_children":[1,3,5,7,9,11,-1,-1,13,15,17,19,-1,-1,-1,-1,-1,21,23,25,-1,-1,-1,-1,-1,-1,-1],"loss_changes":[1.477074E1,2.0744667E0,1.5237164E0,2.394371E-1,2.6784515E-1,2.684147E-1,0E0,0E0,4.4535542E-1,3.2091093E-1,4.0006638E-4,2.0247035E-2,0E0,0E0,0E0,0E0,0E0,6.1860085E-3,7.7649727E-3,5.246606E-3,0E0,0E0,0E0,0E0,0E0,0E0,0E0],"parents":[2147483647,0,0,1,1,2,2,3,3,4,4,5,5,8,8,9,9,10,10,11,11,17,17,18,18,19,19],"right_children":[2,4,6,8,10,12,-1,-1,14,16,18,20,-1,-1,-1,-1,-1,22,24,26,-1,-1,-1,-1,-1,-1,-1],"split_conditions":[1.4541763E0,1.3580567E0,1.6304326E0,1.331144E0,1.4069918E0,1.5084995E0,3.919713E-2,-6.63527E-2,1.3345252E0,1.359852E0,1.4337653E0,1.4869269E0,1.6155677E-2,-2.0214447E-3,-3.835962E-2,1.905951E-3,-2.5280023E-2,1.423719E0,1.4405292E0,1.4661101E0,5.2275523E-3,-8.17547E-3,-1.6953712E-2,-6.764449E-4,-6.8747895E-3,1.6033332E-3,-1.1628285E-3],"split_indices":[0,0,0,0,0,0,0,0,0,0,0,0,0,0,0,0,0,0,0,0,0,0,0,0,0,0,0],"split_type":[0,0,0,0,0,0,0,0,0,0,0,0,0,0,0,0,0,0,0,0,0,0,0,0,0,0,0],"sum_hessian":[7.2E1,5.3E1,1.9E1,2.2E1,3.1E1,1.3E1,6E0,2E0,2E1,2.2E1,9E0,7E0,6E0,1E0,1.9E1,1E0,2.1E1,7E0,2E0,5E0,2E0,5E0,2E0,1E0,1E0,2E0,3E0],"tree_param":{"num_deleted":"0","num_feature":"1","num_nodes":"27","size_leaf_vector":"0"}},{"base_weights":[-3.2266256E-1,-5.7922775E-1,3.861965E-1,-8.061873E-1,-3.9799967E-1,5.506569E-2,6.0236156E-1,-1.1104227E0,-6.5998733E-1,-4.4757235E-1,-1.9333512E-1,5.759299E-4,1.2303391E-1,3.5957506E-1,7.8521883E-1,1.415183E-1,-7.6902044E-1,3.716603E-2,-4.6931836E-1,-6.7216866E-2,-2.555627E-1,3.0997792E-2,-2.238445E-2,-8.4656276E-2,-7.449314E-3,-3.2777175E-1,-9.816604E-2,8.609563E-3,3.7887126E-2,-4.062332E-2,1.6166076E-2],"categories":[],"categories_nodes":[],"categories_segments":[],"categories_sizes":[],"default_left":[1,1,1,1,1,1,1,0,1,1,1,1,0,0,0,0,0,0,0,1,1,1,1,0,0,0,0,0,0,0,0],"id":9,"left_children":[1,3,5,7,9,11,13,-1,15,17,19,21,-1,-1,-1,-1,-1,-1,-1,23,25,27,29,-1,-1,-1,-1,-1,-1,-1,-1],"loss_changes":[1.3500099E1,1.9002342E0,1.3984084E0,2.9015732E-1,2.3813343E-1,3.326129E-2,2.5039864E-1,0E0,1.6818619E0,2.8097105E-1,4.5606136E-2,4.884854E-3,0E0,0E0,0E0,0E0,0E0,0E0,0E0,3.5386123E-3,2.465126E-2,1.3652816E-4,3.4691913E-3,0E0,0E0,0E0,0E0,0E0,0E0,0E0,0E0],"parents":[2147483647,0,0,1,1,2,2,3,3,4,4,5,5,6,6,8,8,9,9,10,10,11,11,19,19,20,20,21,21,22,22],"right_children":[2,4,6,8,10,12,14,-1,16,18,20,22,-1,-1,-1,-1,-1,-1,-1,24,26,28,30,-1,-1,-1,-1,-1,-1,-1,-1],"split_conditions":[1.4541763E0,1.3580567E0,1.5234157E0,1.3379041E0,1.4137553E0,1.4869269E0,1.6862595E0,-5.5521138E-2,1.3395625E0,1.359852E0,1.423719E0,1.4661101E0,6.1516957E-3,1.7978754E-2,3.9260942E-2,7.0759146E-3,-3.8451023E-2,1.8583015E-3,-2.3465918E-2,1.4213866E0,1.4337653E0,1.463904E0,1.4766735E0,-4.232814E-3,-3.724657E-4,-1.6388588E-2,-4.9083023E-3,4.3047816E-4,1.8943563E-3,-2.0311659E-3,8.083038E-4],"split_indices":[0,0,0,0,0,0,0,0,0,0,0,0,0,0,0,0,0,0,0,0,0,0,0,0,0,0,0,0,0,0,0],"split_type":[0,0,0,0,0,0,0,0,0,0,0,0,0,0,0,0,0,0,0,0,0,0,0,0,0,0,0,0,0,0,0],"sum_hessian":[7.2E1,5.3E1,1.9E1,2.2E1,3.1E1,8E0,1.1E1,5E0,1.7E1,2.4E1,7E0,5E0,3E0,6E0,5E0,2E0,1.5E1,1E0,2.3E1,3E0,4E0,2E0,3E0,2E0,1E0,2E0,2E0,1E0,1E0,2E0,1E0],"tree_param":{"num_deleted":"0","num_feature":"1","num_nodes":"31","size_leaf_vector":"0"}},{"base_weights":[-3.0748716E-1,-5.5275536E-1,3.7011135E-1,-8.4583575E-1,-4.1834405E-1,1.2758633E-1,6.5235454E-1,-1.2458048E0,-6.9971126E-1,2.3962082E-1,-4.4196472E-1,7.308026E-4,2.1809304E-1,2.7768627E-1,7.197331E-1,-1.1657596E-2,-7.517417E-1,-5.4977673E-1,-2.7644533E-1,3.0222854E-2,-2.1570936E-2,9.696487E-2,2.4715133E-1,-2.9432595E-1,-9.489384E-2,8.394331E-3,3.693995E-2,-3.9269198E-2,1.5761927E-2],"categories":[],"categories_nodes":[],"categories_segments":[],"categories_sizes":[],"default_left":[1,1,1,1,1,1,1,0,1,0,1,1,1,0,0,0,0,0,1,1,1,0,0,0,0,0,0,0,0],"id":10,"left_children":[1,3,5,7,9,11,13,-1,15,-1,17,19,21,-1,-1,-1,-1,-1,23,25,27,-1,-1,-1,-1,-1,-1,-1,-1],"loss_changes":[1.2336696E1,1.7733898E0,1.285789E0,6.342125E-2,7.1202564E-1,1.3761596E-1,2.7341366E-2,0E0,4.9243307E-1,0E0,5.261259E-1,4.598279E-3,6.734431E-4,0E0,0E0,0E0,0E0,0E0,2.7256489E-2,1.2978702E-4,3.2618651E-3,0E0,0E0,0E0,0E0,0E0,0E0,0E0,0E0],"parents":[2147483647,0,0,1,1,2,2,3,3,4,4,5,5,6,6,8,8,10,10,11,11,12,12,18,18,19,19,20,20],"right_children":[2,4,6,8,10,12,14,-1,16,-1,18,20,22,-1,-1,-1,-1,-1,24,26,28,-1,-1,-1,-1,-1,-1,-1,-1],"split_conditions":[1.4541763E0,1.3512932E0,1.5662225E0,1.331144E0,1.3530875E0,1.4869269E0,1.6304326E0,-6.229024E-2,1.3345252E0,1.1981041E-2,1.3934678E0,1.4661101E0,1.5084995E0,1.3884313E-2,3.598666E-2,-5.828798E-4,-3.7587088E-2,-2.7488837E-2,1.4337653E0,1.463904E0,1.4766735E0,4.8482437E-3,1.23575665E-2,-1.4716297E-2,-4.7446922E-3,4.1971655E-4,1.8469974E-3,-1.96346E-3,7.8809634E-4],"split_indices":[0,0,0,0,0,0,0,0,0,0,0,0,0,0,0,0,0,0,0,0,0,0,0,0,0,0,0,0,0],"split_type":[0,0,0,0,0,0,0,0,0,0,0,0,0,0,0,0,0,0,0,0,0,0,0,0,0,0,0,0,0],"sum_hessian":[7.2E1,5.3E1,1.9E1,1.5E1,3.8E1,1.1E1,8E0,2E0,1.3E1,1E0,3.7E1,5E0,6E0,2E0,6E0,1E0,1.2E1,2.1E1,1.6E1,2E0,3E0,2E0,4E0,1.4E1,2E0,1E0,1E0,2E0,1E0],"tree_param":{"num_deleted":"0","num_feature":"1","num_nodes":"29","size_leaf_vector":"0"}},{"base_weights":[-2.9303417E-1,-5.276255E-1,3.5501418E-1,-8.098227E-1,-3.9832345E-1,5.0764833E-2,5.536167E-1,-1.204278E0,-6.674521E-1,2.336303E-1,-4.21102E-1,8.761585E-4,1.12906635E-1,3.297607E-1,7.2251254E-1,-1.1366159E-2,-7.170459E-1,-5.235374E-1,-2.6376784E-1,2.9467285E-2,-2.0786226E-2,-4.1268986E-1,-8.0646086E-1,-2.8059074E-1,-9.173072E-2,8.184463E-3,3.6016464E-2,-3.796022E-2,1.536788E-2],"categories":[],"categories_nodes":[],"categories_segments":[],"categories_sizes":[],"default_left":[1,1,1,1,1,1,1,0,1,0,1,1,0,0,0,0,1,0,1,1,1,0,0,0,0,0,0,0,0],"id":11,"left_children":[1,3,5,7,9,11,13,-1,15,-1,17,19,-1,-1,-1,-1,21,-1,23,25,27,-1,-1,-1,-1,-1,-1,-1,-1],"loss_changes":[1.1285254E1,1.6478176E0,1.1803894E0,9.474373E-2,6.597862E-1,2.7802622E-2,2.1544385E-1,0E0,4.473791E-1,0E0,4.7433805E-1,4.3286253E-3,0E0,0E0,0E0,0E0,2.0963192E-2,0E0,2.3461819E-2,1.2337952E-4,3.06701E-3,0E0,0E0,0E0,0E0,0E0,0E0,0E0,0E0],"parents":[2147483647,0,0,1,1,2,2,3,3,4,4,5,5,6,6,8,8,10,10,11,11,16,16,18,18,19,19,20,20],"right_children":[2,4,6,8,10,12,14,-1,16,-1,18,20,-1,-1,-1,-1,22,-1,24,26,28,-1,-1,-1,-1,-1,-1,-1,-1],"split_conditions":[1.4541763E0,1.3512932E0,1.5234157E0,1.331144E0,1.3530875E0,1.4869269E0,1.6862595E0,-6.02139E-2,1.3345252E0,1.1681515E-2,1.3934678E0,1.4661101E0,5.645332E-3,1.6488036E-2,3.6125626E-2,-5.6830794E-4,1.3395625E0,-2.617687E-2,1.4337653E0,1.463904E0,1.4766735E0,-2.0634493E-2,-4.0323045E-2,-1.4029537E-2,-4.586536E-3,4.0922314E-4,1.8008233E-3,-1.8980111E-3,7.6839403E-4],"split_indices":[0,0,0,0,0,0,0,0,0,0,0,0,0,0,0,0,0,0,0,0,0,0,0,0,0,0,0,0,0],"split_type":[0,0,0,0,0,0,0,0,0,0,0,0,0,0,0,0,0,0,0,0,0,0,0,0,0,0,0,0,0],"sum_hessian":[7.2E1,5.3E1,1.9E1,1.5E1,3.8E1,8E0,1.1E1,2E0,1.3E1,1E0,3.7E1,5E0,3E0,6E0,5E0,1E0,1.2E1,2.1E1,1.6E1,2E0,3E0,4E0,8E0,1.4E1,2E0,1E0,1E0,2E0,1E0],"tree_param":{"num_deleted":"0","num_feature":"1","num_nodes":"29","size_leaf_vector":"0"}},{"base_weights":[-2.7969083E-1,-5.041118E-1,3.4023044E-1,-7.087578E-1,-3.4126908E-1,1.1726657E-1,5.997122E-1,-1.0037212E0,-5.7106125E-1,6.306973E-2,-3.5634676E-1,1.0124197E-3,2.0016062E-1,3.1074077E-1,6.924078E-1,1.7561541E-1,-6.7537177E-1,-4.157729E-1,-1.8997455E-1,2.8730592E-2,-2.0029314E-2,1.08672634E-1,2.4160846E-1,-4.0105984E-2,-2.0217039E-1,7.97984E-3,3.5116047E-2,-3.6694873E-2,1.4983684E-2],"categories":[],"categories_nodes":[],"categories_segments":[],"categories_sizes":[],"default_left":[1,1,1,1,1,1,1,0,1,0,1,1,1,0,0,0,0,0,1,1,1,0,0,0,0,0,0,0,0],"id":12,"left_children":[1,3,5,7,9,11,13,-1,15,-1,17,19,21,-1,-1,-1,-1,-1,23,25,27,-1,-1,-1,-1,-1,-1,-1,-1],"loss_changes":[1.0327521E1,1.5576782E0,1.0867751E0,3.609705E-1,2.1756268E-1,1.15438685E-1,2.5918007E-2,0E0,1.5205574E0,0E0,2.275064E-1,4.074884E-3,2.876222E-4,0E0,0E0,0E0,0E0,0E0,1.0169506E-2,1.1728867E-4,2.883869E-3,0E0,0E0,0E0,0E0,0E0,0E0,0E0,0E0],"parents":[2147483647,0,0,1,1,2,2,3,3,4,4,5,5,6,6,8,8,10,10,11,11,12,12,18,18,19,19,20,20],"right_children":[2,4,6,8,10,12,14,-1,16,-1,18,20,22,-1,-1,-1,-1,-1,24,26,28,-1,-1,-1,-1,-1,-1,-1,-1],"split_conditions":[1.4541763E0,1.3580567E0,1.5662225E0,1.3379041E0,1.359852E0,1.4869269E0,1.6862595E0,-5.0186064E-2,1.3395625E0,3.1534866E-3,1.4069918E0,1.4661101E0,1.5234157E0,1.5537038E-2,3.462039E-2,8.780771E-3,-3.376859E-2,-2.0788645E-2,1.410374E0,1.463904E0,1.4766735E0,5.4336316E-3,1.2080423E-2,-2.0052993E-3,-1.0108519E-2,3.98992E-4,1.7558023E-3,-1.8347437E-3,7.491842E-4],"split_indices":[0,0,0,0,0,0,0,0,0,0,0,0,0,0,0,0,0,0,0,0,0,0,0,0,0,0,0,0,0],"split_type":[0,0,0,0,0,0,0,0,0,0,0,0,0,0,0,0,0,0,0,0,0,0,0,0,0,0,0,0,0],"sum_hessian":[7.2E1,5.3E1,1.9E1,2.2E1,3.1E1,1.1E1,8E0,5E0,1.7E1,1E0,3E1,5E0,6E0,3E0,5E0,2E0,1.5E1,2.1E1,9E0,2E0,3E0,3E0,3E0,1E0,8E0,1E0,1E0,2E0,1E0],"tree_param":{"num_deleted":"0","num_feature":"1","num_nodes":"29","size_leaf_vector":"0"}},{"base_weights":[-2.6620194E-1,-4.808493E-1,3.2665595E-1,-7.4547046E-1,-3.5995728E-1,1.1295186E-1,5.752996E-1,-1.130678E0,-6.096781E-1,2.4467383E-1,-3.823074E-1,1.1400133E-3,1.926546E-1,2.99088E-1,6.6355747E-1,1.4011025E-2,-6.5873194E-1,-4.7625497E-1,-2.3823956E-1,2.8012335E-2,-1.9299231E-2,1.0459742E-1,2.3254813E-1,-3.7962013E-1,-7.4060166E-1,-2.5361803E-1,-8.1934005E-2,7.7803433E-3,3.423816E-2,-3.5471708E-2,1.4609098E-2],"categories":[],"categories_nodes":[],"categories_segments":[],"categories_sizes":[],"default_left":[1,1,1,1,1,1,1,0,1,0,1,1,1,0,0,0,1,0,1,1,1,0,0,0,0,0,0,0,0,0,0],"id":13,"left_children":[1,3,5,7,9,11,13,-1,15,-1,17,19,21,-1,-1,-1,23,-1,25,27,29,-1,-1,-1,-1,-1,-1,-1,-1,-1,-1],"loss_changes":[9.446713E0,1.4591551E0,9.977422E-1,1.4758205E-1,6.205702E-1,1.0672091E-1,2.0938635E-2,0E0,4.3755007E-1,0E0,4.008608E-1,3.8361163E-3,2.6646256E-4,0E0,0E0,0E0,1.5913486E-2,0E0,2.0083666E-2,1.1149794E-4,2.7117361E-3,0E0,0E0,0E0,0E0,0E0,0E0,0E0,0E0,0E0,0E0],"parents":[2147483647,0,0,1,1,2,2,3,3,4,4,5,5,6,6,8,8,10,10,11,11,12,12,16,16,18,18,19,19,20,20],"right_children":[2,4,6,8,10,12,14,-1,16,-1,18,20,22,-1,-1,-1,24,-1,26,28,30,-1,-1,-1,-1,-1,-1,-1,-1,-1,-1],"split_conditions":[1.4541763E0,1.3512932E0,1.5662225E0,1.331144E0,1.3530875E0,1.4869269E0,1.6862595E0,-5.6533903E-2,1.3345252E0,1.2233692E-2,1.3934678E0,1.4661101E0,1.5234157E0,1.49544E-2,3.3177875E-2,7.0055126E-4,1.3395625E0,-2.3812748E-2,1.4337653E0,1.463904E0,1.4766735E0,5.2298713E-3,1.1627407E-2,-1.8981008E-2,-3.7030082E-2,-1.2680902E-2,-4.0967003E-3,3.8901716E-4,1.711908E-3,-1.7735854E-3,7.304549E-4],"split_indices":[0,0,0,0,0,0,0,0,0,0,0,0,0,0,0,0,0,0,0,0,0,0,0,0,0,0,0,0,0,0,0],"split_type":[0,0,0,0,0,0,0,0,0,0,0,0,0,0,0,0,0,0,0,0,0,0,0,0,0,0,0,0,0,0,0],"sum_hessian":[7.2E1,5.3E1,1.9E1,1.5E1,3.8E1,1.1E1,8E0,2E0,1.3E1,1E0,3.7E1,5E0,6E0,3E0,5E0,1E0,1.2E1,2.1E1,1.6E1,2E0,3E0,3E0,3E0,4E0,8E0,1.4E1,2E0,1E0,1E0,2E0,1E0],"tree_param":{"num_deleted":"0","num_feature":"1","num_nodes":"31","size_leaf_vector":"0"}},{"base_weights":[-2.5390765E-1,-4.5940313E-1,3.136255E-1,-9.368447E-1,-3.9156532E-1,1.0879718E-1,5.518827E-1,1.8241556E-1,-4.1987124E-1,1.259312E-3,1.8543003E-1,2.878722E-1,6.3590926E-1,-5.78303E-1,-2.8109577E-1,2.731202E-2,-1.8595047E-2,1.00675E-1,2.2382756E-1,-8.5294247E-1,-4.8514405E-1,2.911658E-1,-3.143045E-1,7.5858235E-3,3.3382207E-2,-4.4081107E-2,4.594008E-3],"categories":[],"categories_nodes":[],"categories_segments":[],"categories_sizes":[],"default_left":[1,1,1,0,1,1,1,0,1,1,1,0,0,1,1,1,1,0,0,0,0,0,0,0,0,0,0],"id":14,"left_children":[1,3,5,-1,7,9,11,-1,13,15,17,-1,-1,19,21,23,25,-1,-1,-1,-1,-1,-1,-1,-1,-1,-1],"loss_changes":[8.657742E0,1.3821487E0,9.159932E-1,0E0,8.7269545E-1,9.86577E-2,1.6594648E-2,0E0,8.7080383E-1,3.6114275E-3,2.4683774E-4,0E0,0E0,1.2348795E-1,6.04625E-1,1.0599336E-4,2.5664996E-3,0E0,0E0,0E0,0E0,0E0,0E0,0E0,0E0,0E0,0E0],"parents":[2147483647,0,0,1,1,2,2,4,4,5,5,6,6,8,8,9,9,10,10,13,13,14,14,15,15,16,16],"right_children":[2,4,6,-1,8,10,12,-1,14,16,18,-1,-1,20,22,24,26,-1,-1,-1,-1,-1,-1,-1,-1,-1,-1],"split_conditions":[1.4541763E0,1.3379041E0,1.5662225E0,-4.6842236E-2,1.3395625E0,1.4869269E0,1.6862595E0,9.120778E-3,1.3648187E0,1.4661101E0,1.5234157E0,1.439361E-2,3.1795464E-2,1.34453E0,1.3672305E0,1.463904E0,1.4699086E0,5.03375E-3,1.1191378E-2,-4.2647123E-2,-2.4257204E-2,1.455829E-2,-1.5715225E-2,3.792912E-4,1.6691104E-3,-2.2040554E-3,2.297004E-4],"split_indices":[0,0,0,0,0,0,0,0,0,0,0,0,0,0,0,0,0,0,0,0,0,0,0,0,0,0,0],"split_type":[0,0,0,0,0,0,0,0,0,0,0,0,0,0,0,0,0,0,0,0,0,0,0,0,0,0,0],"sum_hessian":[7.2E1,5.3E1,1.9E1,5E0,4.8E1,1.1E1,8E0,2E0,4.6E1,5E0,6E0,3E0,5E0,2E1,2.6E1,2E0,3E0,3E0,3E0,3E0,1.7E1,1E0,2.5E1,1E0,1E0,1E0,2E0],"tree_param":{"num_deleted":"0","num_feature":"1","num_nodes":"27","size_leaf_vector":"0"}},{"base_weights":[-2.4180536E-1,-4.3839192E-1,3.0106866E-1,-6.861124E-1,-3.2552218E-1,4.387233E-2,4.6887684E-1,-1.0617605E0,-5.566083E-1,2.506856E-1,-3.4728256E-1,1.2086928E-3,9.68997E-2,2.8143486E-1,6.09413E-1,3.7081867E-2,-6.051293E-1,-4.356288E-1,-2.1252371E-1,2.662923E-2,-1.8158883E-2,-3.4934676E-1,-6.799941E-1,-2.27115E-1,-6.872607E-2,7.3961914E-3,3.2547653E-2,-3.3631187E-2,1.4129013E-2],"categories":[],"categories_nodes":[],"categories_segments":[],"categories_sizes":[],"default_left":[1,1,1,1,1,1,1,0,1,0,1,1,0,0,0,0,1,0,1,1,1,0,0,0,0,0,0,0,0],"id":15,"left_children":[1,3,5,7,9,11,13,-1,15,-1,17,19,-1,-1,-1,-1,21,-1,23,25,27,-1,-1,-1,-1,-1,-1,-1,-1],"loss_changes":[7.9226737E0,1.2865028E0,8.4262216E-1,1.873827E-1,5.760598E-1,2.0243943E-2,1.4459848E-1,0E0,4.257288E-1,0E0,3.5982513E-1,3.437562E-3,0E0,0E0,0E0,0E0,1.1384487E-2,0E0,2.006054E-2,1.00759324E-4,2.4734475E-3,0E0,0E0,0E0,0E0,0E0,0E0,0E0,0E0],"parents":[2147483647,0,0,1,1,2,2,3,3,4,4,5,5,6,6,8,8,10,10,11,11,16,16,18,18,19,19,20,20],"right_children":[2,4,6,8,10,12,14,-1,16,-1,18,20,-1,-1,-1,-1,22,-1,24,26,28,-1,-1,-1,-1,-1,-1,-1,-1],"split_conditions":[1.4541763E0,1.3512932E0,1.5234157E0,1.331144E0,1.3530875E0,1.4869269E0,1.6862595E0,-5.3088028E-2,1.3345252E0,1.253428E-2,1.3934678E0,1.4661101E0,4.8449854E-3,1.4071743E-2,3.0470653E-2,1.8540934E-3,1.3395625E0,-2.178144E-2,1.4337653E0,1.463904E0,1.4766735E0,-1.7467339E-2,-3.3999708E-2,-1.135575E-2,-3.4363035E-3,3.6980957E-4,1.6273827E-3,-1.6815594E-3,7.0645066E-4],"split_indices":[0,0,0,0,0,0,0,0,0,0,0,0,0,0,0,0,0,0,0,0,0,0,0,0,0,0,0,0,0],"split_type":[0,0,0,0,0,0,0,0,0,0,0,0,0,0,0,0,0,0,0,0,0,0,0,0,0,0,0,0,0],"sum_hessian":[7.2E1,5.3E1,1.9E1,1.5E1,3.8E1,8E0,1.1E1,2E0,1.3E1,1E0,3.7E1,5E0,3E0,6E0,5E0,1E0,1.2E1,2.1E1,1.6E1,2E0,3E0,4E0,8E0,1.4E1,2E0,1E0,1E0,2E0,1E0],"tree_param":{"num_deleted":"0","num_feature":"1","num_nodes":"29","size_leaf_vector":"0"}},{"base_weights":[-2.3076071E-1,-4.1881937E-1,2.885357E-1,-8.7460005E-1,-3.5446215E-1,1.0004137E-1,5.0780195E-1,1.8797994E-1,-3.8154438E-1,1.3186136E-3,1.7036925E-1,2.1813352E-1,5.5940247E-1,-5.28809E-1,-2.5287393E-1,2.5963506E-2,-1.7494708E-2,7.627436E-2,1.9275233E-1,-7.954573E-1,-4.4017556E-1,2.9477736E-1,-2.8527504E-1,7.2112978E-3,3.173396E-2,-4.2138293E-2,4.765918E-3],"categories":[],"categories_nodes":[],"categories_segments":[],"categories_sizes":[],"default_left":[1,1,1,0,1,1,1,0,1,1,1,0,0,1,1,1,1,0,0,0,0,0,0,0,0,0,0],"id":16,"left_children":[1,3,5,-1,7,9,11,-1,13,15,17,-1,-1,19,21,23,25,-1,-1,-1,-1,-1,-1,-1,-1,-1,-1],"loss_changes":[7.2498913E0,1.2739582E0,7.758076E-1,0E0,7.9155874E-1,8.309089E-2,1.2498856E-2,0E0,7.5686264E-1,3.2361376E-3,4.0888786E-5,0E0,0E0,1.4617205E-1,5.6319416E-1,9.578327E-5,2.395154E-3,0E0,0E0,0E0,0E0,0E0,0E0,0E0,0E0,0E0,0E0],"parents":[2147483647,0,0,1,1,2,2,4,4,5,5,6,6,8,8,9,9,10,10,13,13,14,14,15,15,16,16],"right_children":[2,4,6,-1,8,10,12,-1,14,16,18,-1,-1,20,22,24,26,-1,-1,-1,-1,-1,-1,-1,-1,-1,-1],"split_conditions":[1.4541763E0,1.3379041E0,1.5662225E0,-4.3730002E-2,1.3395625E0,1.4869269E0,1.6304326E0,9.398997E-3,1.3648187E0,1.4661101E0,1.5084995E0,1.0906677E-2,2.7970124E-2,1.34453E0,1.3672305E0,1.463904E0,1.4699086E0,3.813718E-3,9.637617E-3,-3.9772864E-2,-2.2008779E-2,1.4738868E-2,-1.4263752E-2,3.6056488E-4,1.586698E-3,-2.1069148E-3,2.382959E-4],"split_indices":[0,0,0,0,0,0,0,0,0,0,0,0,0,0,0,0,0,0,0,0,0,0,0,0,0,0,0],"split_type":[0,0,0,0,0,0,0,0,0,0,0,0,0,0,0,0,0,0,0,0,0,0,0,0,0,0,0],"sum_hessian":[7.2E1,5.3E1,1.9E1,5E0,4.8E1,1.1E1,8E0,2E0,4.6E1,5E0,6E0,2E0,6E0,2E1,2.6E1,2E0,3E0,2E0,4E0,3E0,1.7E1,1E0,2.5E1,1E0,1E0,1E0,2E0],"tree_param":{"num_deleted":"0","num_feature":"1","num_nodes":"27","size_leaf_vector":"0"}},{"base_weights":[-2.1981487E-1,-3.9964947E-1,2.767293E-1,-8.3815837E-1,-3.377984E-1,9.6166804E-2,4.8673153E-1,1.8171394E-1,-3.6377156E-1,1.265794E-3,1.6377242E-1,2.5407732E-1,5.6071246E-1,-5.424958E-1,-2.6304156E-1,2.531443E-2,-1.7087132E-2,8.894971E-2,1.9765201E-1,-7.656276E-1,-4.321094E-1,1.0742308E-1,-2.7845728E-1,7.0310235E-3,3.0940622E-2,-4.108484E-2,4.6070516E-3],"categories":[],"categories_nodes":[],"categories_segments":[],"categories_sizes":[],"default_left":[1,1,1,0,1,1,1,0,1,1,1,0,0,1,1,1,1,0,0,0,0,0,0,0,0,0,0],"id":17,"left_children":[1,3,5,-1,7,9,11,-1,13,15,17,-1,-1,19,21,23,25,-1,-1,-1,-1,-1,-1,-1,-1,-1,-1],"loss_changes":[6.629189E0,1.1814737E0,7.1156335E-1,0E0,7.272773E-1,7.67828E-2,1.2443304E-2,0E0,7.034373E-1,3.0807282E-3,1.6364455E-4,0E0,0E0,6.3256264E-2,2.1266413E-1,9.1053545E-5,2.271723E-3,0E0,0E0,0E0,0E0,0E0,0E0,0E0,0E0,0E0,0E0],"parents":[2147483647,0,0,1,1,2,2,4,4,5,5,6,6,8,8,9,9,10,10,13,13,14,14,15,15,16,16],"right_children":[2,4,6,-1,8,10,12,-1,14,16,18,-1,-1,20,22,24,26,-1,-1,-1,-1,-1,-1,-1,-1,-1,-1],"split_conditions":[1.4541763E0,1.3379041E0,1.5662225E0,-4.1907918E-2,1.3395625E0,1.4869269E0,1.6862595E0,9.085697E-3,1.3580567E0,1.4661101E0,1.5234157E0,1.2703866E-2,2.8035624E-2,1.34453E0,1.359852E0,1.463904E0,1.4699086E0,4.447486E-3,9.882601E-3,-3.828138E-2,-2.160547E-2,5.3711543E-3,-1.3922865E-2,3.515512E-4,1.5470311E-3,-2.0542422E-3,2.3035258E-4],"split_indices":[0,0,0,0,0,0,0,0,0,0,0,0,0,0,0,0,0,0,0,0,0,0,0,0,0,0,0],"split_type":[0,0,0,0,0,0,0,0,0,0,0,0,0,0,0,0,0,0,0,0,0,0,0,0,0,0,0],"sum_hessian":[7.2E1,5.3E1,1.9E1,5E0,4.8E1,1.1E1,8E0,2E0,4.6E1,5E0,6E0,3E0,5E0,1.5E1,3.1E1,2E0,3E0,3E0,3E0,3E0,1.2E1,1E0,3E1,1E0,1E0,1E0,2E0],"tree_param":{"num_deleted":"0","num_feature":"1","num_nodes":"27","size_leaf_vector":"0"}},{"base_weights":[-2.0945586E-1,-3.8154218E-1,2.6565E-1,-8.032351E-1,-3.2211974E-1,3.8860686E-2,4.136045E-1,1.756568E-1,-3.470391E-1,1.2149513E-3,8.5614115E-2,2.484511E-1,5.373494E-1,-4.8509958E-1,-2.2680543E-1,2.4681568E-2,-1.668875E-2,-7.369166E-1,-4.0219027E-1,2.9436937E-1,-2.581725E-1,6.8552494E-3,3.0167103E-2,-3.1279307E-2,1.354146E-2],"categories":[],"categories_nodes":[],"categories_segments":[],"categories_sizes":[],"default_left":[1,1,1,0,1,1,1,0,1,1,0,0,0,1,1,1,1,0,0,0,0,0,0,0,0],"id":18,"left_children":[1,3,5,-1,7,9,11,-1,13,15,-1,-1,-1,17,19,21,23,-1,-1,-1,-1,-1,-1,-1,-1],"loss_changes":[6.0697803E0,1.0943947E0,6.550169E-1,0E0,6.6876936E-1,1.573659E-2,1.1173773E-1,0E0,6.701541E-1,2.9327401E-3,0E0,0E0,0E0,1.4205694E-1,5.1738703E-1,8.6557586E-5,2.1878697E-3,0E0,0E0,0E0,0E0,0E0,0E0,0E0,0E0],"parents":[2147483647,0,0,1,1,2,2,4,4,5,5,6,6,8,8,9,9,13,13,14,14,15,15,16,16],"right_children":[2,4,6,-1,8,10,12,-1,14,16,-1,-1,-1,18,20,22,24,-1,-1,-1,-1,-1,-1,-1,-1],"split_conditions":[1.4541763E0,1.3379041E0,1.5234157E0,-4.0161755E-2,1.3395625E0,1.4869269E0,1.6862595E0,8.78284E-3,1.3648187E0,1.4661101E0,4.280706E-3,1.2422555E-2,2.686747E-2,1.34453E0,1.3672305E0,1.463904E0,1.4766735E0,-3.684583E-2,-2.0109514E-2,1.4718468E-2,-1.2908625E-2,3.4276248E-4,1.5083551E-3,-1.5639653E-3,6.77073E-4],"split_indices":[0,0,0,0,0,0,0,0,0,0,0,0,0,0,0,0,0,0,0,0,0,0,0,0,0],"split_type":[0,0,0,0,0,0,0,0,0,0,0,0,0,0,0,0,0,0,0,0,0,0,0,0,0],"sum_hessian":[7.2E1,5.3E1,1.9E1,5E0,4.8E1,8E0,1.1E1,2E0,4.6E1,5E0,3E0,6E0,5E0,2E1,2.6E1,2E0,3E0,3E0,1.7E1,1E0,2.5E1,1E0,1E0,2E0,1E0],"tree_param":{"num_deleted":"0","num_feature":"1","num_nodes":"25","size_leaf_vector":"0"}},{"base_weights":[-1.9955827E-1,-3.7581778E-1,2.2612591E-1,-7.6976705E-1,-3.1753024E-1,2.003534E-2,3.9619845E-1,1.6980158E-1,-3.429628E-1,-1.3653208E-2,8.24036E-2,2.3780319E-1,5.149598E-1,-5.7607E-1,-2.7699178E-1,3.115508E-2,-2.4505118E-2,2.7628034E-1,-3.000349E-1,-8.9712635E-2,1.3149083E-3],"categories":[],"categories_nodes":[],"categories_segments":[],"categories_sizes":[],"default_left":[1,1,1,0,1,1,1,0,1,1,0,0,0,0,1,0,1,0,0,0,0],"id":19,"left_children":[1,3,5,-1,7,9,11,-1,13,15,-1,-1,-1,-1,17,-1,19,-1,-1,-1,-1],"loss_changes":[5.562237E0,9.4961643E-1,7.631695E-1,0E0,6.4075804E-1,2.423713E-2,1.03275776E-1,0E0,5.324578E-1,4.6535027E-3,0E0,0E0,0E0,0E0,5.546107E-1,0E0,1.190358E-2,0E0,0E0,0E0,0E0],"parents":[2147483647,0,0,1,1,2,2,4,4,5,5,6,6,8,8,9,9,14,14,16,16],"right_children":[2,4,6,-1,8,10,12,-1,14,16,-1,-1,-1,-1,18,-1,20,-1,-1,-1,-1],"split_conditions":[1.4337653E0,1.3379041E0,1.5234157E0,-3.8488355E-2,1.3395625E0,1.4869269E0,1.6862595E0,8.490079E-3,1.3512932E0,1.4405292E0,4.12018E-3,1.189016E-2,2.574799E-2,-2.8803501E-2,1.3530875E0,1.557754E-3,1.4541763E0,1.3814017E-2,-1.5001746E-2,-4.485632E-3,6.5745415E-5],"split_indices":[0,0,0,0,0,0,0,0,0,0,0,0,0,0,0,0,0,0,0,0,0],"split_type":[0,0,0,0,0,0,0,0,0,0,0,0,0,0,0,0,0,0,0,0,0],"sum_hessian":[7.2E1,5.1E1,2.1E1,5E0,4.6E1,1E1,1.1E1,2E0,4.4E1,7E0,3E0,6E0,5E0,8E0,3.6E1,1E0,6E0,1E0,3.5E1,1E0,5E0],"tree_param":{"num_deleted":"0","num_feature":"1","num_nodes":"21","size_leaf_vector":"0"}},{"base_weights":[-1.8986931E-1,-3.5818052E-1,2.1658762E-1,-9.1684324E-1,-3.1749713E-1,1.9147944E-2,3.79525E-1,-4.0524095E-1,-2.1354368E-1,-1.3328314E-2,7.931347E-2,2.2761162E-1,4.9350312E-1,1.18298836E-1,-4.3091452E-1,2.94511E-1,-2.4698393E-1,3.0376196E-2,-2.3911271E-2,-3.4652275E-1,-1.641591E-1,-8.7469816E-2,1.2601217E-3],"categories":[],"categories_nodes":[],"categories_segments":[],"categories_sizes":[],"default_left":[1,1,1,0,1,1,1,1,1,1,0,0,0,0,0,0,1,0,1,0,0,0,0],"id":20,"left_children":[1,3,5,-1,7,9,11,13,15,17,-1,-1,-1,-1,-1,-1,19,-1,21,-1,-1,-1,-1],"loss_changes":[5.0716E0,8.907747E-1,7.004796E-1,0E0,3.6952734E-1,2.2550577E-2,9.545064E-2,4.0044594E-1,4.9747634E-1,4.426517E-3,0E0,0E0,0E0,0E0,0E0,0E0,1.4097786E-1,0E0,1.1309222E-2,0E0,0E0,0E0,0E0],"parents":[2147483647,0,0,1,1,2,2,4,4,5,5,6,6,7,7,8,8,9,9,16,16,18,18],"right_children":[2,4,6,-1,8,10,12,14,16,18,-1,-1,-1,-1,-1,-1,20,-1,22,-1,-1,-1,-1],"split_conditions":[1.4337653E0,1.331144E0,1.5234157E0,-4.5842163E-2,1.3648187E0,1.4869269E0,1.6862595E0,1.3345252E0,1.3672305E0,1.4405292E0,3.9656735E-3,1.1380581E-2,2.4675157E-2,5.914942E-3,-2.1545727E-2,1.472555E-2,1.3934678E0,1.5188098E-3,1.4541763E0,-1.7326137E-2,-8.207955E-3,-4.373491E-3,6.300609E-5],"split_indices":[0,0,0,0,0,0,0,0,0,0,0,0,0,0,0,0,0,0,0,0,0,0,0],"split_type":[0,0,0,0,0,0,0,0,0,0,0,0,0,0,0,0,0,0,0,0,0,0,0],"sum_hessian":[7.2E1,5.1E1,2.1E1,2E0,4.9E1,1E1,1.1E1,2.5E1,2.4E1,7E0,3E0,6E0,5E0,1E0,2.4E1,1E0,2.3E1,1E0,6E0,9E0,1.4E1,1E0,5E0],"tree_param":{"num_deleted":"0","num_feature":"1","num_nodes":"23","size_leaf_vector":"0"}},{"base_weights":[-1.80856E-1,-3.416615E-1,2.0745051E-1,-7.1621656E-1,-2.865766E-1,1.8297274E-2,3.6355343E-1,1.7850535E-1,-3.1121367E-1,-1.3010856E-2,7.6339215E-2,2.1785685E-1,4.7294053E-1,-6.7152035E-1,-2.6948893E-1,2.9616788E-2,-2.333149E-2,3.459224E-1,-2.929361E-1,-8.528307E-2,1.2076199E-3],"categories":[],"categories_nodes":[],"categories_segments":[],"categories_sizes":[],"default_left":[1,1,1,0,1,1,1,0,1,1,0,0,0,0,1,0,1,0,0,0,0],"id":21,"left_children":[1,3,5,-1,7,9,11,-1,13,15,-1,-1,-1,-1,17,-1,19,-1,-1,-1,-1],"loss_changes":[4.6291313E0,8.6763144E-1,6.429503E-1,0E0,5.9409165E-1,2.098227E-2,8.82144E-2,0E0,4.9554968E-1,4.210558E-3,0E0,0E0,0E0,0E0,7.073784E-1,0E0,1.0744646E-2,0E0,0E0,0E0,0E0],"parents":[2147483647,0,0,1,1,2,2,4,4,5,5,6,6,8,8,9,9,14,14,16,16],"right_children":[2,4,6,-1,8,10,12,-1,14,16,-1,-1,-1,-1,18,-1,20,-1,-1,-1,-1],"split_conditions":[1.4337653E0,1.3379041E0,1.5234157E0,-3.581083E-2,1.3395625E0,1.4869269E0,1.6862595E0,8.9252675E-3,1.34453E0,1.4405292E0,3.8169608E-3,1.0892843E-2,2.3647027E-2,-3.357602E-2,1.3463241E0,1.4808394E-3,1.4541763E0,1.729612E-2,-1.4646805E-2,-4.2641535E-3,6.0380997E-5],"split_indices":[0,0,0,0,0,0,0,0,0,0,0,0,0,0,0,0,0,0,0,0,0],"split_type":[0,0,0,0,0,0,0,0,0,0,0,0,0,0,0,0,0,0,0,0,0],"sum_hessian":[7.2E1,5.1E1,2.1E1,5E0,4.6E1,1E1,1.1E1,2E0,4.4E1,7E0,3E0,6E0,5E0,3E0,4.1E1,1E0,6E0,1E0,4E1,1E0,5E0],"tree_param":{"num_deleted":"0","num_feature":"1","num_nodes":"21","size_leaf_vector":"0"}},{"base_weights":[-1.7211702E-1,-3.256902E-1,1.9869769E-1,-8.624079E-1,-2.8697336E-1,1.7481865E-2,3.4825405E-1,-3.699123E-1,-1.8923792E-1,-1.2700681E-2,7.347649E-2,2.393721E-1,5.061749E-1,1.3324678E-1,-3.9536855E-1,2.9447162E-1,-2.2166213E-1,2.8876364E-2,-2.2765454E-2,-5.9917164E-1,-3.5159558E-1,-3.1774712E-1,-1.42828E-1,-8.3151E-2,1.1573037E-3],"categories":[],"categories_nodes":[],"categories_segments":[],"categories_sizes":[],"default_left":[1,1,1,0,1,1,1,1,1,1,0,0,0,0,1,0,1,0,1,0,0,0,0,0,0],"id":22,"left_children":[1,3,5,-1,7,9,11,13,15,17,-1,-1,-1,-1,19,-1,21,-1,23,-1,-1,-1,-1,-1,-1],"loss_changes":[4.22186E0,8.3307314E-1,5.9015536E-1,0E0,3.3530235E-1,1.9523866E-2,8.517265E-2,3.8570333E-1,4.5737076E-1,4.0050917E-3,0E0,0E0,0E0,0E0,1.2360573E-2,0E0,1.3641155E-1,0E0,1.02083525E-2,0E0,0E0,0E0,0E0,0E0,0E0],"parents":[2147483647,0,0,1,1,2,2,4,4,5,5,6,6,7,7,8,8,9,9,14,14,16,16,18,18],"right_children":[2,4,6,-1,8,10,12,14,16,18,-1,-1,-1,-1,20,-1,22,-1,24,-1,-1,-1,-1,-1,-1],"split_conditions":[1.4337653E0,1.331144E0,1.5234157E0,-4.3120395E-2,1.3648187E0,1.4869269E0,1.779006E0,1.3345252E0,1.3672305E0,1.4405292E0,3.6738247E-3,1.1968605E-2,2.5308747E-2,6.662339E-3,1.3379041E0,1.4723581E-2,1.3934678E0,1.4438182E-3,1.4541763E0,-2.9958582E-2,-1.7579779E-2,-1.5887355E-2,-7.1414E-3,-4.15755E-3,5.7865185E-5],"split_indices":[0,0,0,0,0,0,0,0,0,0,0,0,0,0,0,0,0,0,0,0,0,0,0,0,0],"split_type":[0,0,0,0,0,0,0,0,0,0,0,0,0,0,0,0,0,0,0,0,0,0,0,0,0],"sum_hessian":[7.2E1,5.1E1,2.1E1,2E0,4.9E1,1E1,1.1E1,2.5E1,2.4E1,7E0,3E0,8E0,3E0,1E0,2.4E1,1E0,2.3E1,1E0,6E0,2E0,2.2E1,9E0,1.4E1,1E0,5E0],"tree_param":{"num_deleted":"0","num_feature":"1","num_nodes":"25","size_leaf_vector":"0"}},{"base_weights":[-1.6425098E-1,-3.3604953E-1,1.4088912E-1,-8.33661E-1,-2.9540765E-1,-1.2710459E-2,3.3394778E-1,1.2991561E-1,-3.0802673E-1,-4.2700887E-2,6.1808657E-2,1.7922762E-1,4.1885826E-1,-4.0003452E-1,-2.2209944E-1,5.851719E-2,-8.294216E-2,1.3079435E-2,7.0721105E-2,1.4917928E-1,-2.4378519E-1,-2.0704646E-1,-1.7905712E-2],"categories":[],"categories_nodes":[],"categories_segments":[],"categories_sizes":[],"default_left":[1,1,1,0,1,1,1,0,1,1,1,0,0,0,1,0,1,0,0,0,0,0,0],"id":23,"left_children":[1,3,5,-1,7,9,11,-1,13,15,17,-1,-1,-1,19,-1,21,-1,-1,-1,-1,-1,-1],"loss_changes":[3.8741975E0,7.042513E-1,8.0489534E-1,0E0,2.8154063E-1,3.8397048E-2,8.257747E-2,0E0,2.5901556E-1,5.3731263E-2,1.2464914E-3,0E0,0E0,0E0,2.3765409E-1,0E0,6.8934426E-2,0E0,0E0,0E0,0E0,0E0,0E0],"parents":[2147483647,0,0,1,1,2,2,4,4,5,5,6,6,8,8,9,9,10,10,14,14,16,16],"right_children":[2,4,6,-1,8,10,12,-1,14,16,18,-1,-1,-1,20,-1,22,-1,-1,-1,-1,-1,-1],"split_conditions":[1.4137553E0,1.331144E0,1.5234157E0,-4.168305E-2,1.3345252E0,1.4766735E0,1.6304326E0,6.495781E-3,1.3580567E0,1.423719E0,1.4869269E0,8.961381E-3,2.0942913E-2,-2.0001726E-2,1.359852E0,2.9258595E-3,1.4337653E0,6.5397174E-4,3.5360553E-3,7.458964E-3,-1.218926E-2,-1.0352324E-2,-8.9528563E-4],"split_indices":[0,0,0,0,0,0,0,0,0,0,0,0,0,0,0,0,0,0,0,0,0,0,0],"split_type":[0,0,0,0,0,0,0,0,0,0,0,0,0,0,0,0,0,0,0,0,0,0,0],"sum_hessian":[7.2E1,4.6E1,2.6E1,2E0,4.4E1,1.5E1,1.1E1,1E0,4.3E1,1.1E1,4E0,5E0,6E0,1.9E1,2.4E1,3E0,8E0,1E0,3E0,1E0,2.3E1,2E0,6E0],"tree_param":{"num_deleted":"0","num_feature":"1","num_nodes":"23","size_leaf_vector":"0"}},{"base_weights":[-1.565062E-1,-2.8784665E-1,2.0593834E-1,-6.4364594E-1,-2.3840496E-1,7.0022464E-2,3.6427748E-1,1.976095E-1,-2.6116323E-1,1.5969276E-3,1.1866971E-1,2.320921E-1,4.7148618E-1,-6.1815214E-1,-2.2277416E-1,2.4496695E-2,-1.597713E-2,3.560651E-1,-2.4451612E-1,7.0079863E-3,2.9737055E-2,-3.895159E-2,4.664888E-3],"categories":[],"categories_nodes":[],"categories_segments":[],"categories_sizes":[],"default_left":[1,1,1,0,1,1,1,0,1,1,0,0,0,0,1,1,1,0,0,0,0,0,0],"id":24,"left_children":[1,3,5,-1,7,9,11,-1,13,15,-1,-1,-1,-1,17,19,21,-1,-1,-1,-1,-1,-1],"loss_changes":[3.534344E0,7.9648256E-1,4.0490848E-1,0E0,5.37832E-1,3.9755065E-2,1.8114567E-2,0E0,5.06402E-1,2.8060377E-3,0E0,0E0,0E0,0E0,6.4080834E-1,6.654463E-5,2.078662E-3,0E0,0E0,0E0,0E0,0E0,0E0],"parents":[2147483647,0,0,1,1,2,2,4,4,5,5,6,6,8,8,9,9,14,14,15,15,16,16],"right_children":[2,4,6,-1,8,10,12,-1,14,16,-1,-1,-1,-1,18,20,22,-1,-1,-1,-1,-1,-1],"split_conditions":[1.4541763E0,1.3379041E0,1.5662225E0,-3.21823E-2,1.3395625E0,1.4869269E0,1.779006E0,9.880475E-3,1.34453E0,1.4661101E0,5.9334855E-3,1.1604605E-2,2.357431E-2,-3.0907607E-2,1.3463241E0,1.463904E0,1.4699086E0,1.7803255E-2,-1.2225806E-2,3.5039932E-4,1.4868528E-3,-1.9475796E-3,2.3324441E-4],"split_indices":[0,0,0,0,0,0,0,0,0,0,0,0,0,0,0,0,0,0,0,0,0,0,0],"split_type":[0,0,0,0,0,0,0,0,0,0,0,0,0,0,0,0,0,0,0,0,0,0,0],"sum_hessian":[7.2E1,5.3E1,1.9E1,5E0,4.8E1,1.1E1,8E0,2E0,4.6E1,5E0,6E0,5E0,3E0,3E0,4.3E1,2E0,3E0,1E0,4.2E1,1E0,1E0,1E0,2E0],"tree_param":{"num_deleted":"0","num_feature":"1","num_nodes":"23","size_leaf_vector":"0"}},{"base_weights":[-1.4876851E-1,-3.0682036E-1,1.3186875E-1,-7.8441745E-1,-2.6816234E-1,-8.11916E-3,3.0753022E-1,1.4275888E-1,-2.8074598E-1,-3.413784E-2,5.594951E-2,2.08349E-1,4.5380542E-1,-3.683325E-1,-1.994469E-1,6.549215E-2,-7.462475E-2,1.2635827E-2,6.361897E-2,-5.4440993E-1,-3.1852335E-1,1.515627E-1,-2.2038741E-1,-1.9199438E-1,-1.3662798E-2],"categories":[],"categories_nodes":[],"categories_segments":[],"categories_sizes":[],"default_left":[1,1,1,0,1,1,1,0,1,1,1,0,0,1,1,0,1,0,0,0,0,0,0,0,0],"id":25,"left_children":[1,3,5,-1,7,9,11,-1,13,15,17,-1,-1,19,21,-1,23,-1,-1,-1,-1,-1,-1,-1,-1],"loss_changes":[3.2783923E0,6.5740824E-1,6.664399E-1,0E0,2.7276897E-1,2.858171E-2,7.954311E-2,0E0,2.3984814E-1,5.329186E-2,8.5708685E-4,0E0,0E0,1.998186E-3,2.1716058E-1,0E0,6.1772548E-2,0E0,0E0,0E0,0E0,0E0,0E0,0E0,0E0],"parents":[2147483647,0,0,1,1,2,2,4,4,5,5,6,6,8,8,9,9,10,10,13,13,14,14,16,16],"right_children":[2,4,6,-1,8,10,12,-1,14,16,18,-1,-1,20,22,-1,24,-1,-1,-1,-1,-1,-1,-1,-1],"split_conditions":[1.4137553E0,1.331144E0,1.5234157E0,-3.9220873E-2,1.3345252E0,1.4766735E0,1.779006E0,7.137944E-3,1.3580567E0,1.423719E0,1.4869269E0,1.041745E-2,2.2690272E-2,1.3379041E0,1.359852E0,3.2746077E-3,1.4337653E0,6.3179136E-4,3.1809488E-3,-2.7220497E-2,-1.5926167E-2,7.5781355E-3,-1.10193705E-2,-9.599719E-3,-6.8313995E-4],"split_indices":[0,0,0,0,0,0,0,0,0,0,0,0,0,0,0,0,0,0,0,0,0,0,0,0,0],"split_type":[0,0,0,0,0,0,0,0,0,0,0,0,0,0,0,0,0,0,0,0,0,0,0,0,0],"sum_hessian":[7.2E1,4.6E1,2.6E1,2E0,4.4E1,1.5E1,1.1E1,1E0,4.3E1,1.1E1,4E0,8E0,3E0,1.9E1,2.4E1,3E0,8E0,1E0,3E0,2E0,1.7E1,1E0,2.3E1,2E0,6E0],"tree_param":{"num_deleted":"0","num_feature":"1","num_nodes":"25","size_leaf_vector":"0"}},{"base_weights":[-1.4199801E-1,-2.931532E-1,1.2638317E-1,-7.582702E-1,-2.5563088E-1,-7.912922E-3,2.949127E-1,1.391899E-1,-2.677675E-1,-3.3014975E-2,5.3914595E-2,1.9908905E-1,4.367877E-1,-3.8936937E-1,-2.09999E-1,6.30362E-2,-7.203606E-2,1.2319922E-2,6.1233282E-2,-1.9477376E-1,-4.5421475E-1,3.2033634E-1,-2.3744002E-1,-1.8559457E-1,-1.3077259E-2],"categories":[],"categories_nodes":[],"categories_segments":[],"categories_sizes":[],"default_left":[1,1,1,0,1,1,1,0,1,1,1,0,0,1,1,0,1,0,0,0,0,0,0,0,0],"id":26,"left_children":[1,3,5,-1,7,9,11,-1,13,15,17,-1,-1,19,21,-1,23,-1,-1,-1,-1,-1,-1,-1,-1],"loss_changes":[2.9984558E0,6.2641907E-1,6.134207E-1,0E0,2.529006E-1,2.6611952E-2,7.61801E-2,0E0,2.273221E-1,4.951713E-2,7.6770317E-4,0E0,0E0,7.557309E-2,5.4175484E-1,0E0,5.7830393E-2,0E0,0E0,0E0,0E0,0E0,0E0,0E0,0E0],"parents":[2147483647,0,0,1,1,2,2,4,4,5,5,6,6,8,8,9,9,10,10,13,13,14,14,16,16],"right_children":[2,4,6,-1,8,10,12,-1,14,16,18,-1,-1,20,22,-1,24,-1,-1,-1,-1,-1,-1,-1,-1],"split_conditions":[1.4137553E0,1.331144E0,1.5234157E0,-3.7913512E-2,1.3345252E0,1.4766735E0,1.779006E0,6.959495E-3,1.3512932E0,1.423719E0,1.4869269E0,9.9544525E-3,2.1839386E-2,1.3395625E0,1.3530875E0,3.1518103E-3,1.4337653E0,6.1599613E-4,3.061664E-3,-9.738688E-3,-2.2710739E-2,1.6016817E-2,-1.1872001E-2,-9.279729E-3,-6.5386295E-4],"split_indices":[0,0,0,0,0,0,0,0,0,0,0,0,0,0,0,0,0,0,0,0,0,0,0,0,0],"split_type":[0,0,0,0,0,0,0,0,0,0,0,0,0,0,0,0,0,0,0,0,0,0,0,0,0],"sum_hessian":[7.2E1,4.6E1,2.6E1,2E0,4.4E1,1.5E1,1.1E1,1E0,4.3E1,1.1E1,4E0,8E0,3E0,1.2E1,3.1E1,3E0,8E0,1E0,3E0,4E0,8E0,1E0,3E1,2E0,6E0],"tree_param":{"num_deleted":"0","num_feature":"1","num_nodes":"25","size_leaf_vector":"0"}},{"base_weights":[-1.3531686E-1,-2.7975637E-1,1.2112659E-1,-7.3299456E-1,-2.4332368E-1,-7.711281E-3,2.8281653E-1,1.3571015E-1,-2.550224E-1,-3.1929374E-2,5.19544E-2,1.9024064E-1,4.2040816E-1,-3.3828044E-1,-1.7821509E-1,6.0672347E-2,-6.953799E-2,1.2011915E-2,5.8937043E-2,-5.1977044E-1,-2.8923872E-1,1.5370964E-1,-1.9844985E-1,-1.7940809E-1,-1.2516805E-2],"categories":[],"categories_nodes":[],"categories_segments":[],"categories_sizes":[],"default_left":[1,1,1,0,1,1,1,0,1,1,1,0,0,1,1,0,1,0,0,0,0,0,0,0,0],"id":27,"left_children":[1,3,5,-1,7,9,11,-1,13,15,17,-1,-1,19,21,-1,23,-1,-1,-1,-1,-1,-1,-1,-1],"loss_changes":[2.737847E0,5.9774137E-1,5.646392E-1,0E0,2.3414874E-1,2.4778696E-2,7.2873175E-2,0E0,2.2108555E-1,4.6010498E-2,6.8657286E-4,0E0,0E0,2.7673721E-2,1.984142E-1,0E0,5.4138694E-2,0E0,0E0,0E0,0E0,0E0,0E0,0E0,0E0],"parents":[2147483647,0,0,1,1,2,2,4,4,5,5,6,6,8,8,9,9,10,10,13,13,14,14,16,16],"right_children":[2,4,6,-1,8,10,12,-1,14,16,18,-1,-1,20,22,-1,24,-1,-1,-1,-1,-1,-1,-1,-1],"split_conditions":[1.4137553E0,1.331144E0,1.5234157E0,-3.664973E-2,1.3345252E0,1.4766735E0,1.779006E0,6.785508E-3,1.3580567E0,1.423719E0,1.4869269E0,9.512032E-3,2.1020409E-2,1.3379041E0,1.359852E0,3.0336173E-3,1.4337653E0,6.005958E-4,2.9468522E-3,-2.5988523E-2,-1.4461936E-2,7.685482E-3,-9.922492E-3,-8.970405E-3,-6.258403E-4],"split_indices":[0,0,0,0,0,0,0,0,0,0,0,0,0,0,0,0,0,0,0,0,0,0,0,0,0],"split_type":[0,0,0,0,0,0,0,0,0,0,0,0,0,0,0,0,0,0,0,0,0,0,0,0,0],"sum_hessian":[7.2E1,4.6E1,2.6E1,2E0,4.4E1,1.5E1,1.1E1,1E0,4.3E1,1.1E1,4E0,8E0,3E0,1.9E1,2.4E1,3E0,8E0,1E0,3E0,2E0,1.7E1,1E0,2.3E1,2E0,6E0],"tree_param":{"num_deleted":"0","num_feature":"1","num_nodes":"25","size_leaf_vector":"0"}},{"base_weights":[-1.2916793E-1,-2.673122E-1,1.1608942E-1,-7.085614E-1,-2.3195532E-1,-7.514162E-3,2.712201E-1,1.323174E-1,-2.4324146E-1,-3.0879788E-2,5.0066173E-2,1.8178551E-1,4.0464285E-1,-3.0697355E-1,-1.5141428E-1,5.839713E-2,-6.712733E-2,1.1711627E-2,5.6726903E-2,-5.024448E-1,-2.681306E-1,3.157243E-1,-1.9261758E-1,-1.734278E-1,-1.1980363E-2],"categories":[],"categories_nodes":[],"categories_segments":[],"categories_sizes":[],"default_left":[1,1,1,0,1,1,1,0,1,1,1,0,0,1,1,0,1,0,0,0,0,0,0,0,0],"id":28,"left_children":[1,3,5,-1,7,9,11,-1,13,15,17,-1,-1,19,21,-1,23,-1,-1,-1,-1,-1,-1,-1,-1],"loss_changes":[2.5043373E0,5.689018E-1,5.1975507E-1,0E0,2.1719074E-1,2.3072444E-2,6.963307E-2,0E0,2.1102262E-1,4.275287E-2,6.129816E-4,0E0,0E0,5.509615E-2,4.4576716E-1,0E0,5.0681617E-2,0E0,0E0,0E0,0E0,0E0,0E0,0E0,0E0],"parents":[2147483647,0,0,1,1,2,2,4,4,5,5,6,6,8,8,9,9,10,10,13,13,14,14,16,16],"right_children":[2,4,6,-1,8,10,12,-1,14,16,18,-1,-1,20,22,-1,24,-1,-1,-1,-1,-1,-1,-1,-1],"split_conditions":[1.4137553E0,1.331144E0,1.5234157E0,-3.5428073E-2,1.3345252E0,1.4766735E0,1.779006E0,6.6158697E-3,1.3648187E0,1.423719E0,1.4869269E0,9.089275E-3,2.0232143E-2,1.3379041E0,1.3672305E0,2.9198565E-3,1.4337653E0,5.8558135E-4,2.8363452E-3,-2.512224E-2,-1.340653E-2,1.5786216E-2,-9.630879E-3,-8.671391E-3,-5.990182E-4],"split_indices":[0,0,0,0,0,0,0,0,0,0,0,0,0,0,0,0,0,0,0,0,0,0,0,0,0],"split_type":[0,0,0,0,0,0,0,0,0,0,0,0,0,0,0,0,0,0,0,0,0,0,0,0,0],"sum_hessian":[7.2E1,4.6E1,2.6E1,2E0,4.4E1,1.5E1,1.1E1,1E0,4.3E1,1.1E1,4E0,8E0,3E0,2.4E1,1.9E1,3E0,8E0,1E0,3E0,2E0,2.2E1,1E0,1.8E1,2E0,6E0],"tree_param":{"num_deleted":"0","num_feature":"1","num_nodes":"25","size_leaf_vector":"0"}},{"base_weights":[-1.23186156E-1,-2.5524843E-1,1.11262456E-1,-6.849427E-1,-2.2092995E-1,1.6134098E-2,2.997265E-1,1.2900946E-1,-2.3181514E-1,-2.5810953E-2,9.172718E-2,1.8994395E-1,3.894687E-1,-2.93166E-1,-1.435358E-1,5.620724E-2,-5.6037135E-2,9.807929E-2,2.6807278E-2,-4.8569664E-1,-2.55307E-1,3.078312E-1,-1.834936E-1,2.5911897E-2,7.354663E-2,-1.6764688E-1,-7.1788356E-3,4.3198466E-2,1.1472008E-1],"categories":[],"categories_nodes":[],"categories_segments":[],"categories_sizes":[],"default_left":[1,1,1,0,1,1,1,0,1,1,1,0,0,1,1,1,1,1,0,0,0,0,0,0,0,0,0,0,0],"id":29,"left_children":[1,3,5,-1,7,9,11,-1,13,15,17,-1,-1,19,21,23,25,27,-1,-1,-1,-1,-1,-1,-1,-1,-1,-1,-1],"loss_changes":[2.2886124E0,5.417588E-1,4.792276E-1,0E0,2.013185E-1,6.261192E-2,1.4691889E-2,0E0,1.9622469E-1,3.537795E-2,2.5740638E-4,0E0,0E0,5.8223963E-2,4.171977E-1,1.9547809E-4,5.3327113E-2,5.238317E-4,0E0,0E0,0E0,0E0,0E0,0E0,0E0,0E0,0E0,0E0,0E0],"parents":[2147483647,0,0,1,1,2,2,4,4,5,5,6,6,8,8,9,9,10,10,13,13,14,14,15,15,16,16,17,17],"right_children":[2,4,6,-1,8,10,12,-1,14,16,18,-1,-1,20,22,24,26,28,-1,-1,-1,-1,-1,-1,-1,-1,-1,-1,-1],"split_conditions":[1.4137553E0,1.331144E0,1.5662225E0,-3.4247138E-2,1.3345252E0,1.4869269E0,1.779006E0,6.450473E-3,1.3648187E0,1.423719E0,1.5590879E0,9.497198E-3,1.9473435E-2,1.3379041E0,1.3672305E0,1.4213866E0,1.4337653E0,1.5084995E0,1.340364E-3,-2.4284832E-2,-1.276535E-2,1.539156E-2,-9.17468E-3,1.2955948E-3,3.6773316E-3,-8.382345E-3,-3.589418E-4,2.1599233E-3,5.736004E-3],"split_indices":[0,0,0,0,0,0,0,0,0,0,0,0,0,0,0,0,0,0,0,0,0,0,0,0,0,0,0,0,0],"split_type":[0,0,0,0,0,0,0,0,0,0,0,0,0,0,0,0,0,0,0,0,0,0,0,0,0,0,0,0,0],"sum_hessian":[7.2E1,4.6E1,2.6E1,2E0,4.4E1,1.8E1,8E0,1E0,4.3E1,1.2E1,6E0,5E0,3E0,2.4E1,1.9E1,3E0,9E0,5E0,1E0,2E0,2.2E1,1E0,1.8E1,2E0,1E0,2E0,7E0,2E0,3E0],"tree_param":{"num_deleted":"0","num_feature":"1","num_nodes":"29","size_leaf_vector":"0"}},{"base_weights":[-1.1735824E-1,-2.4373344E-1,1.0697484E-1,-6.621113E-1,-2.1042529E-1,-7.136929E-3,2.502093E-1,1.2578422E-1,-2.2092515E-1,-2.8810857E-2,4.6307884E-2,1.2714605E-1,3.199479E-1,-3.295409E-1,-1.6989608E-1,5.4640107E-2,-6.269897E-2,1.1598319E-2,5.2085698E-2,-1.4057107E-1,-3.979085E-1,3.3264482E-1,-1.9683756E-1,2.5048167E-2,7.1707964E-2,-1.6205865E-1,-1.115925E-2],"categories":[],"categories_nodes":[],"categories_segments":[],"categories_sizes":[],"default_left":[1,1,1,0,1,1,1,0,1,1,1,0,0,1,1,1,1,0,0,0,0,0,0,0,0,0,0],"id":30,"left_children":[1,3,5,-1,7,9,11,-1,13,15,17,-1,-1,19,21,23,25,-1,-1,-1,-1,-1,-1,-1,-1,-1,-1],"loss_changes":[2.095633E0,5.156388E-1,4.430936E-1,0E0,1.8664575E-1,1.9867916E-2,6.2307E-2,0E0,1.8788505E-1,3.7361823E-2,3.9862003E-4,0E0,0E0,1.1201787E-1,4.9873114E-1,2.2413116E-4,4.4280283E-2,0E0,0E0,0E0,0E0,0E0,0E0,0E0,0E0,0E0,0E0],"parents":[2147483647,0,0,1,1,2,2,4,4,5,5,6,6,8,8,9,9,10,10,13,13,14,14,15,15,16,16],"right_children":[2,4,6,-1,8,10,12,-1,14,16,18,-1,-1,20,22,24,26,-1,-1,-1,-1,-1,-1,-1,-1,-1,-1],"split_conditions":[1.4137553E0,1.331144E0,1.5234157E0,-3.3105563E-2,1.3345252E0,1.4766735E0,1.6304326E0,6.289211E-3,1.3512932E0,1.423719E0,1.4869269E0,6.3573024E-3,1.5997395E-2,1.3395625E0,1.3530875E0,1.4213866E0,1.4337653E0,5.7991594E-4,2.604285E-3,-7.0285536E-3,-1.9895425E-2,1.6632242E-2,-9.841878E-3,1.2524084E-3,3.5853982E-3,-8.102933E-3,-5.579625E-4],"split_indices":[0,0,0,0,0,0,0,0,0,0,0,0,0,0,0,0,0,0,0,0,0,0,0,0,0,0,0],"split_type":[0,0,0,0,0,0,0,0,0,0,0,0,0,0,0,0,0,0,0,0,0,0,0,0,0,0,0],"sum_hessian":[7.2E1,4.6E1,2.6E1,2E0,4.4E1,1.5E1,1.1E1,1E0,4.3E1,1.1E1,4E0,5E0,6E0,1.2E1,3.1E1,3E0,8E0,1E0,3E0,4E0,8E0,1E0,3E1,2E0,1E0,2E0,6E0],"tree_param":{"num_deleted":"0","num_feature":"1","num_nodes":"27","size_leaf_vector":"0"}},{"base_weights":[-1.11835994E-1,-2.399626E-1,9.0837546E-2,-5.115511E-1,-1.9322525E-1,-1.3358433E-2,2.395617E-1,2.3990734E-1,-2.2233506E-1,-4.6146724E-2,2.4557272E-2,1.5814203E-1,3.6286557E-1,-5.2059686E-1,-1.8189555E-1,1.3523117E-2,-1.08521186E-1,3.4142633E-3,5.013247E-2,3.9674652E-1,-2.1058346E-1,-4.3777168E-2,5.311755E-2,-1.566567E-1,-2.4211943E-2,2.6203454E-2,-1.4531195E-2],"categories":[],"categories_nodes":[],"categories_segments":[],"categories_sizes":[],"default_left":[1,1,1,0,1,1,1,0,1,1,1,0,0,0,1,1,1,1,0,0,0,0,0,0,0,0,0],"id":31,"left_children":[1,3,5,-1,7,9,11,-1,13,15,17,-1,-1,-1,19,21,23,25,-1,-1,-1,-1,-1,-1,-1,-1,-1],"loss_changes":[1.9174523E0,4.723549E-1,4.525975E-1,0E0,5.576761E-1,2.351068E-2,6.3088E-2,0E0,3.6364472E-1,3.8686287E-2,4.6954635E-3,0E0,0E0,0E0,6.6454923E-1,1.593797E-2,1.649838E-2,2.8345422E-3,0E0,0E0,0E0,0E0,0E0,0E0,0E0,0E0,0E0],"parents":[2147483647,0,0,1,1,2,2,4,4,5,5,6,6,8,8,9,9,10,10,14,14,15,15,16,16,17,17],"right_children":[2,4,6,-1,8,10,12,-1,14,16,18,-1,-1,-1,20,22,24,26,-1,-1,-1,-1,-1,-1,-1,-1,-1],"split_conditions":[1.4069918E0,1.3379041E0,1.5234157E0,-2.5577554E-2,1.3395625E0,1.4541763E0,1.779006E0,1.1995367E-2,1.34453E0,1.423719E0,1.4869269E0,7.907102E-3,1.814328E-2,-2.6029844E-2,1.3463241E0,1.4137553E0,1.4337653E0,1.4661101E0,2.5066235E-3,1.9837325E-2,-1.0529174E-2,-2.1888583E-3,2.6558775E-3,-7.832835E-3,-1.2105972E-3,1.3101727E-3,-7.265598E-4],"split_indices":[0,0,0,0,0,0,0,0,0,0,0,0,0,0,0,0,0,0,0,0,0,0,0,0,0,0,0],"split_type":[0,0,0,0,0,0,0,0,0,0,0,0,0,0,0,0,0,0,0,0,0,0,0,0,0,0,0],"sum_hessian":[7.2E1,4.4E1,2.8E1,5E0,3.9E1,1.7E1,1.1E1,2E0,3.7E1,9E0,8E0,8E0,3E0,3E0,3.4E1,5E0,4E0,5E0,3E0,1E0,3.3E1,2E0,3E0,2E0,2E0,2E0,3E0],"tree_param":{"num_deleted":"0","num_feature":"1","num_nodes":"27","size_leaf_vector":"0"}},{"base_weights":[-1.0637762E-1,-1.9880879E-1,1.4850543E-1,-4.9023646E-1,-1.5906645E-1,6.4614944E-2,2.9507133E-1,-6.229892E-1,-2.6811278E-1,2.3191042E-1,-1.8063803E-1,3.3408205E-3,9.828493E-2,1.354284E-1,-4.477693E-1,-5.0107443E-1,-1.4740203E-1,2.5330007E-2,-1.3986275E-2,4.8252508E-2,1.1525905E-1,3.868279E-1,-1.6882198E-1,7.917076E-3,3.0077934E-2,-3.587514E-2,5.268395E-3],"categories":[],"categories_nodes":[],"categories_segments":[],"categories_sizes":[],"default_left":[1,1,1,1,1,1,0,0,1,0,1,1,1,0,0,0,1,1,1,0,0,0,0,0,0,0,0],"id":32,"left_children":[1,3,5,7,9,11,-1,-1,13,-1,15,17,19,-1,-1,-1,21,23,25,-1,-1,-1,-1,-1,-1,-1,-1],"loss_changes":[1.7493412E0,5.474489E-1,2.2684371E-1,9.893775E-3,4.551574E-1,2.8555032E-2,0E0,0E0,3.5063595E-1,0E0,4.2669165E-1,2.6403249E-3,2.0817742E-3,0E0,0E0,0E0,5.6880486E-1,9.896699E-6,1.874856E-3,0E0,0E0,0E0,0E0,0E0,0E0,0E0,0E0],"parents":[2147483647,0,0,1,1,2,2,3,3,4,4,5,5,8,8,10,10,11,11,12,12,16,16,17,17,18,18],"right_children":[2,4,6,8,10,12,-1,-1,14,-1,16,18,20,-1,-1,-1,22,24,26,-1,-1,-1,-1,-1,-1,-1,-1],"split_conditions":[1.4541763E0,1.3379041E0,1.6304326E0,1.331144E0,1.3395625E0,1.4869269E0,1.4753567E-2,-3.114946E-2,1.3345252E0,1.1595521E-2,1.34453E0,1.4661101E0,1.5234157E0,6.77142E-3,-2.2388466E-2,-2.5053723E-2,1.3463241E0,1.463904E0,1.4699086E0,2.4126254E-3,5.762953E-3,1.9341394E-2,-8.441099E-3,3.9585383E-4,1.5038968E-3,-1.7937571E-3,2.6341976E-4],"split_indices":[0,0,0,0,0,0,0,0,0,0,0,0,0,0,0,0,0,0,0,0,0,0,0,0,0,0,0],"split_type":[0,0,0,0,0,0,0,0,0,0,0,0,0,0,0,0,0,0,0,0,0,0,0,0,0,0,0],"sum_hessian":[7.2E1,5.3E1,1.9E1,5E0,4.8E1,1.3E1,6E0,2E0,3E0,2E0,4.6E1,5E0,8E0,1E0,2E0,3E0,4.3E1,2E0,3E0,3E0,5E0,1E0,4.2E1,1E0,1E0,1E0,2E0],"tree_param":{"num_deleted":"0","num_feature":"1","num_nodes":"27","size_leaf_vector":"0"}},{"base_weights":[-1.01415254E-1,-2.1949367E-1,8.530695E-2,-6.0222286E-1,-1.8768713E-1,8.80863E-3,2.5432447E-1,1.3204268E-1,-1.9844362E-1,-2.3439217E-2,7.665278E-2,1.5602477E-1,3.381929E-1,-2.9677314E-1,-1.4921936E-1,7.207233E-2,-3.540949E-2,8.405378E-2,1.6123414E-2,-1.2519817E-1,-3.5911778E-1,3.3381385E-1,-1.773865E-1,-1.2710813E-1,-1.8578203E-2,3.6742847E-2,9.852353E-2],"categories":[],"categories_nodes":[],"categories_segments":[],"categories_sizes":[],"default_left":[1,1,1,0,1,1,1,0,1,1,1,0,0,1,1,0,1,1,0,0,0,0,0,0,0,0,0],"id":33,"left_children":[1,3,5,-1,7,9,11,-1,13,15,17,-1,-1,19,21,-1,23,25,-1,-1,-1,-1,-1,-1,-1,-1,-1],"loss_changes":[1.6282182E0,4.3476868E-1,3.727169E-1,0E0,1.7408729E-1,4.7741063E-2,2.1431684E-2,0E0,1.5900397E-1,1.970154E-2,1.7806105E-3,0E0,0E0,9.409726E-2,4.6738398E-1,0E0,1.9246245E-2,4.8742816E-4,0E0,0E0,0E0,0E0,0E0,0E0,0E0,0E0,0E0],"parents":[2147483647,0,0,1,1,2,2,4,4,5,5,6,6,8,8,9,9,10,10,13,13,14,14,16,16,17,17],"right_children":[2,4,6,-1,8,10,12,-1,14,16,18,-1,-1,20,22,-1,24,26,-1,-1,-1,-1,-1,-1,-1,-1,-1],"split_conditions":[1.4069918E0,1.331144E0,1.5662225E0,-3.0111143E-2,1.3345252E0,1.4869269E0,1.779006E0,6.602134E-3,1.3512932E0,1.410374E0,1.5590879E0,7.8012384E-3,1.6909646E-2,1.3395625E0,1.3530875E0,3.6036165E-3,1.4137553E0,1.5084995E0,8.061707E-4,-6.2599084E-3,-1.795589E-2,1.6690692E-2,-8.869326E-3,-6.3554063E-3,-9.2891016E-4,1.8371424E-3,4.9261763E-3],"split_indices":[0,0,0,0,0,0,0,0,0,0,0,0,0,0,0,0,0,0,0,0,0,0,0,0,0,0,0],"split_type":[0,0,0,0,0,0,0,0,0,0,0,0,0,0,0,0,0,0,0,0,0,0,0,0,0,0,0],"sum_hessian":[7.2E1,4.4E1,2.8E1,2E0,4.2E1,2E1,8E0,1E0,4.1E1,1.4E1,6E0,5E0,3E0,1.2E1,2.9E1,1E0,1.3E1,5E0,1E0,4E0,8E0,1E0,2.8E1,1E0,1.2E1,2E0,3E0],"tree_param":{"num_deleted":"0","num_feature":"1","num_nodes":"27","size_leaf_vector":"0"}},{"base_weights":[-9.649934E-2,-2.0940572E-1,8.20278E-2,-4.6249568E-1,-1.6620709E-1,8.55338E-3,2.443539E-1,2.2835334E-1,-1.9298273E-1,-2.5835594E-2,6.7664914E-2,1.4952372E-1,3.255107E-1,-4.6881726E-1,-1.5594499E-1,7.027052E-2,-3.8633797E-2,1.2004435E-2,7.390149E-2,3.861351E-1,-1.8324544E-1,-1.23930424E-1,-2.1198211E-2,8.09783E-2,1.5720338E-2],"categories":[],"categories_nodes":[],"categories_segments":[],"categories_sizes":[],"default_left":[1,1,1,0,1,1,1,0,1,1,1,0,0,0,1,0,1,0,1,0,0,0,0,0,0],"id":34,"left_children":[1,3,5,-1,7,9,11,-1,13,15,17,-1,-1,-1,19,-1,21,-1,23,-1,-1,-1,-1,-1,-1],"loss_changes":[1.4886273E0,4.1512132E-1,3.4378764E-1,0E0,4.666525E-1,4.4436652E-2,2.0593464E-2,0E0,3.1510925E-1,1.9934615E-2,1.8899031E-3,0E0,0E0,0E0,5.8872354E-1,0E0,1.6706454E-2,0E0,1.6091466E-3,0E0,0E0,0E0,0E0,0E0,0E0],"parents":[2147483647,0,0,1,1,2,2,4,4,5,5,6,6,8,8,9,9,10,10,14,14,16,16,18,18],"right_children":[2,4,6,-1,8,10,12,-1,14,16,18,-1,-1,-1,20,-1,22,-1,24,-1,-1,-1,-1,-1,-1],"split_conditions":[1.4069918E0,1.3379041E0,1.5662225E0,-2.3124784E-2,1.3395625E0,1.4766735E0,1.779006E0,1.1417667E-2,1.34453E0,1.410374E0,1.4869269E0,7.476186E-3,1.6275536E-2,-2.3440864E-2,1.3463241E0,3.5135262E-3,1.4137553E0,6.0022174E-4,1.5590879E0,1.9306755E-2,-9.162272E-3,-6.196521E-3,-1.0599106E-3,4.048915E-3,7.8601687E-4],"split_indices":[0,0,0,0,0,0,0,0,0,0,0,0,0,0,0,0,0,0,0,0,0,0,0,0,0],"split_type":[0,0,0,0,0,0,0,0,0,0,0,0,0,0,0,0,0,0,0,0,0,0,0,0,0],"sum_hessian":[7.2E1,4.4E1,2.8E1,5E0,3.9E1,2E1,8E0,2E0,3.7E1,1.3E1,7E0,5E0,3E0,3E0,3.4E1,1E0,1.2E1,1E0,6E0,1E0,3.3E1,1E0,1.1E1,5E0,1E0],"tree_param":{"num_deleted":"0","num_feature":"1","num_nodes":"25","size_leaf_vector":"0"}},{"base_weights":[-9.166834E-2,-2.2328843E-1,4.9810324E-2,-5.6673217E-1,-1.8846567E-1,-2.604243E-2,2.0368603E-1,1.40304E-1,-2.0186777E-1,5.5852182E-2,-3.9748613E-2,1.3233513E-1,3.1330407E-1,-4.1325387E-1,-1.7653364E-1,-2.1854688E-1,-2.0827414E-2,2.2074157E-1,-2.09285E-1,1.152304E-1,-3.3391826E-2],"categories":[],"categories_nodes":[],"categories_segments":[],"categories_sizes":[],"default_left":[1,1,1,0,1,1,1,0,1,0,1,0,0,0,1,0,1,0,0,0,0],"id":35,"left_children":[1,3,5,-1,7,9,11,-1,13,-1,15,-1,-1,-1,17,-1,19,-1,-1,-1,-1],"loss_changes":[1.3704869E0,3.4765744E-1,4.2549276E-1,0E0,1.8694627E-1,3.0281609E-2,5.2395016E-2,0E0,1.1448169E-1,0E0,6.987594E-2,0E0,0E0,0E0,4.755708E-1,0E0,3.9746962E-2,0E0,0E0,0E0,0E0],"parents":[2147483647,0,0,1,1,2,2,4,4,5,5,6,6,8,8,10,10,14,14,16,16],"right_children":[2,4,6,-1,8,10,12,-1,14,-1,16,-1,-1,-1,18,-1,20,-1,-1,-1,-1],"split_conditions":[1.3934678E0,1.331144E0,1.5234157E0,-2.8336609E-2,1.3345252E0,1.3978027E0,1.779006E0,7.0152E-3,1.3379041E0,2.7926092E-3,1.4002303E0,6.6167563E-3,1.5665203E-2,-2.0662693E-2,1.3395625E0,-1.0927345E-2,1.4036108E0,1.1037079E-2,-1.046425E-2,5.76152E-3,-1.6695913E-3],"split_indices":[0,0,0,0,0,0,0,0,0,0,0,0,0,0,0,0,0,0,0,0,0],"split_type":[0,0,0,0,0,0,0,0,0,0,0,0,0,0,0,0,0,0,0,0,0],"sum_hessian":[7.2E1,3.7E1,3.5E1,2E0,3.5E1,2.4E1,1.1E1,1E0,3.4E1,3E0,2.1E1,8E0,3E0,2E0,3.2E1,1E0,2E1,2E0,3E1,1E0,1.9E1],"tree_param":{"num_deleted":"0","num_feature":"1","num_nodes":"21","size_leaf_vector":"0"}},{"base_weights":[-8.7402344E-2,-1.9098076E-1,7.633665E-2,-5.478411E-1,-1.6164212E-1,8.612605E-3,2.2587758E-1,1.3679641E-1,-1.7200485E-1,-2.3260836E-2,6.331455E-2,1.377796E-1,3.015552E-1,-2.3831044E-1,-1.0686934E-1,2.3250578E-2,-5.1683906E-2,6.89255E-2,1.2018949E-2,-3.9947876E-1,-1.9820958E-1,1.9160685E-1,-1.2914585E-1,-3.376587E-2,6.020027E-2,-1.4336847E-1,-5.0071054E-3,3.1718448E-2,8.890118E-2],"categories":[],"categories_nodes":[],"categories_segments":[],"categories_sizes":[],"default_left":[1,1,1,0,1,1,1,0,1,1,1,0,0,1,1,1,1,1,0,0,0,0,0,0,0,0,0,0,0],"id":36,"left_children":[1,3,5,-1,7,9,11,-1,13,15,17,-1,-1,19,21,23,25,27,-1,-1,-1,-1,-1,-1,-1,-1,-1,-1,-1],"loss_changes":[1.252646E0,3.8258684E-1,2.9175264E-1,0E0,1.5651321E-1,3.8087074E-2,1.8455207E-2,0E0,1.5592349E-1,1.970964E-2,1.4741272E-3,0E0,0E0,5.0079226E-2,1.7767233E-1,1.4673157E-2,3.779802E-2,2.3828447E-3,0E0,0E0,0E0,0E0,0E0,0E0,0E0,0E0,0E0,0E0,0E0],"parents":[2147483647,0,0,1,1,2,2,4,4,5,5,6,6,8,8,9,9,10,10,13,13,14,14,15,15,16,16,17,17],"right_children":[2,4,6,-1,8,10,12,-1,14,16,18,-1,-1,20,22,24,26,28,-1,-1,-1,-1,-1,-1,-1,-1,-1,-1,-1],"split_conditions":[1.4069918E0,1.331144E0,1.5662225E0,-2.7392054E-2,1.3345252E0,1.4766735E0,1.779006E0,6.8398206E-3,1.3580567E0,1.423719E0,1.5590879E0,6.8889796E-3,1.50777595E-2,1.3379041E0,1.359852E0,1.4137553E0,1.4337653E0,1.5084995E0,6.009475E-4,-1.997394E-2,-9.910479E-3,9.580343E-3,-6.4572925E-3,-1.6882935E-3,3.0100136E-3,-7.1684234E-3,-2.5035528E-4,1.5859224E-3,4.4450588E-3],"split_indices":[0,0,0,0,0,0,0,0,0,0,0,0,0,0,0,0,0,0,0,0,0,0,0,0,0,0,0,0,0],"split_type":[0,0,0,0,0,0,0,0,0,0,0,0,0,0,0,0,0,0,0,0,0,0,0,0,0,0,0,0,0],"sum_hessian":[7.2E1,4.4E1,2.8E1,2E0,4.2E1,2E1,8E0,1E0,4.1E1,1.3E1,7E0,5E0,3E0,1.9E1,2.2E1,5E0,8E0,6E0,1E0,2E0,1.7E1,1E0,2.1E1,2E0,3E0,2E0,6E0,3E0,3E0],"tree_param":{"num_deleted":"0","num_feature":"1","num_nodes":"29","size_leaf_vector":"0"}},{"base_weights":[-8.3372116E-2,-2.043403E-1,4.6632413E-2,-5.295797E-1,-1.715609E-1,-2.3054672E-2,1.8792781E-1,1.333765E-1,-1.8408415E-1,5.8600686E-2,-3.685316E-2,1.2157179E-1,2.902469E-1,-3.861628E-1,-1.6013506E-1,-2.0985457E-1,-1.8621923E-2,2.1999049E-1,-1.9175574E-1,1.1557828E-1,-3.1110847E-2],"categories":[],"categories_nodes":[],"categories_segments":[],"categories_sizes":[],"default_left":[1,1,1,0,1,1,1,0,1,0,1,0,0,0,1,0,1,0,0,0,0],"id":37,"left_children":[1,3,5,-1,7,9,11,-1,13,-1,15,-1,-1,-1,17,-1,19,-1,-1,-1,-1],"loss_changes":[1.157557E0,3.142687E-1,3.5880536E-1,0E0,1.6202962E-1,3.0327637E-2,4.6188027E-2,0E0,1.0754776E-1,0E0,6.5480754E-2,0E0,0E0,0E0,4.3883902E-1,0E0,3.8792077E-2,0E0,0E0,0E0,0E0],"parents":[2147483647,0,0,1,1,2,2,4,4,5,5,6,6,8,8,10,10,14,14,16,16],"right_children":[2,4,6,-1,8,10,12,-1,14,-1,16,-1,-1,-1,18,-1,20,-1,-1,-1,-1],"split_conditions":[1.3934678E0,1.331144E0,1.5234157E0,-2.6478985E-2,1.3345252E0,1.3978027E0,1.779006E0,6.6688247E-3,1.3379041E0,2.9300344E-3,1.4002303E0,6.0785892E-3,1.4512345E-2,-1.930814E-2,1.3395625E0,-1.0492729E-2,1.4036108E0,1.0999525E-2,-9.587787E-3,5.778914E-3,-1.5555423E-3],"split_indices":[0,0,0,0,0,0,0,0,0,0,0,0,0,0,0,0,0,0,0,0,0],"split_type":[0,0,0,0,0,0,0,0,0,0,0,0,0,0,0,0,0,0,0,0,0],"sum_hessian":[7.2E1,3.7E1,3.5E1,2E0,3.5E1,2.4E1,1.1E1,1E0,3.4E1,3E0,2.1E1,8E0,3E0,2E0,3.2E1,1E0,2E1,2E0,3E1,1E0,1.9E1],"tree_param":{"num_deleted":"0","num_feature":"1","num_nodes":"21","size_leaf_vector":"0"}},{"base_weights":[-7.948371E-2,-1.747148E-1,7.102949E-2,-5.1192707E-1,-1.4712523E-1,8.5983295E-3,2.0881003E-1,1.3004208E-1,-1.568207E-1,-2.1088863E-2,5.9476122E-2,1.2697327E-1,2.7936268E-1,-2.4945752E-1,-1.1145072E-1,7.0970476E-2,-3.362962E-2,6.549294E-2,8.679181E-3,-9.637992E-2,-3.0678314E-1,3.450309E-1,-1.3908908E-1,-1.1837544E-1,-1.6702844E-2,1.2523949E-2,7.223379E-2],"categories":[],"categories_nodes":[],"categories_segments":[],"categories_sizes":[],"default_left":[1,1,1,0,1,1,1,0,1,1,1,0,0,1,1,0,1,1,0,0,0,0,0,0,0,0,0],"id":38,"left_children":[1,3,5,-1,7,9,11,-1,13,15,17,-1,-1,19,21,-1,23,25,-1,-1,-1,-1,-1,-1,-1,-1,-1],"loss_changes":[1.058758E0,3.4334195E-1,2.4765676E-1,0E0,1.359458E-1,3.2973077E-2,1.6492605E-2,0E0,1.4872086E-1,1.8549621E-2,1.8766634E-3,0E0,0E0,8.451074E-2,4.264822E-1,0E0,1.6670946E-2,1.594739E-3,0E0,0E0,0E0,0E0,0E0,0E0,0E0,0E0,0E0],"parents":[2147483647,0,0,1,1,2,2,4,4,5,5,6,6,8,8,9,9,10,10,13,13,14,14,16,16,17,17],"right_children":[2,4,6,-1,8,10,12,-1,14,16,18,-1,-1,20,22,-1,24,26,-1,-1,-1,-1,-1,-1,-1,-1,-1],"split_conditions":[1.4069918E0,1.331144E0,1.5662225E0,-2.5596354E-2,1.3345252E0,1.4766735E0,1.779006E0,6.502104E-3,1.3512932E0,1.410374E0,1.5590879E0,6.3486635E-3,1.3968134E-2,1.3395625E0,1.3530875E0,3.5485239E-3,1.4137553E0,1.4869269E0,4.3395907E-4,-4.818996E-3,-1.5339158E-2,1.7251546E-2,-6.954454E-3,-5.9187724E-3,-8.351422E-4,6.261975E-4,3.6116894E-3],"split_indices":[0,0,0,0,0,0,0,0,0,0,0,0,0,0,0,0,0,0,0,0,0,0,0,0,0,0,0],"split_type":[0,0,0,0,0,0,0,0,0,0,0,0,0,0,0,0,0,0,0,0,0,0,0,0,0,0,0],"sum_hessian":[7.2E1,4.4E1,2.8E1,2E0,4.2E1,2E1,8E0,1E0,4.1E1,1.3E1,7E0,5E0,3E0,1.2E1,2.9E1,1E0,1.2E1,6E0,1E0,4E0,8E0,1E0,2.8E1,1E0,1.1E1,1E0,5E0],"tree_param":{"num_deleted":"0","num_feature":"1","num_nodes":"27","size_leaf_vector":"0"}},{"base_weights":[-7.560777E-2,-1.8681367E-1,4.387645E-2,-4.948628E-1,-1.5595365E-1,-2.0084439E-2,1.7347193E-1,1.2679103E-1,-1.6765466E-1,6.1619E-2,-3.402668E-2,1.1179075E-1,2.688866E-1,-3.7007806E-1,-1.4417209E-1,-2.0113097E-1,-1.6491668E-2,2.1587014E-1,-1.7436418E-1,1.16166055E-1,-2.8932856E-2],"categories":[],"categories_nodes":[],"categories_segments":[],"categories_sizes":[],"default_left":[1,1,1,0,1,1,1,0,1,0,1,0,0,0,1,0,1,0,0,0,0],"id":39,"left_children":[1,3,5,-1,7,9,11,-1,13,-1,15,-1,-1,-1,17,-1,19,-1,-1,-1,-1],"loss_changes":[9.781734E-1,2.8406763E-1,3.018896E-1,0E0,1.4035946E-1,3.0574914E-2,4.0564448E-2,0E0,1.1301488E-1,0E0,6.1146885E-2,0E0,0E0,0E0,3.963641E-1,0E0,3.8019832E-2,0E0,0E0,0E0,0E0],"parents":[2147483647,0,0,1,1,2,2,4,4,5,5,6,6,8,8,10,10,14,14,16,16],"right_children":[2,4,6,-1,8,10,12,-1,14,-1,16,-1,-1,-1,18,-1,20,-1,-1,-1,-1],"split_conditions":[1.3934678E0,1.331144E0,1.5234157E0,-2.474314E-2,1.3345252E0,1.3978027E0,1.779006E0,6.3395514E-3,1.3379041E0,3.08095E-3,1.4002303E0,5.5895373E-3,1.344433E-2,-1.8503902E-2,1.3395625E0,-1.0056549E-2,1.4036108E0,1.0793507E-2,-8.718209E-3,5.8083027E-3,-1.4466428E-3],"split_indices":[0,0,0,0,0,0,0,0,0,0,0,0,0,0,0,0,0,0,0,0,0],"split_type":[0,0,0,0,0,0,0,0,0,0,0,0,0,0,0,0,0,0,0,0,0],"sum_hessian":[7.2E1,3.7E1,3.5E1,2E0,3.5E1,2.4E1,1.1E1,1E0,3.4E1,3E0,2.1E1,8E0,3E0,2E0,3.2E1,1E0,2E1,2E0,3E1,1E0,1.9E1],"tree_param":{"num_deleted":"0","num_feature":"1","num_nodes":"21","size_leaf_vector":"0"}},{"base_weights":[-7.20796E-2,-1.3837405E-1,1.1051937E-1,-3.7684762E-1,-1.0634923E-1,4.938338E-2,2.1700287E-1,-4.7836733E-1,-2.0649596E-1,2.0867448E-1,-1.24194376E-1,8.864164E-3,7.090915E-2,1.23621255E-1,-3.577421E-1,-4.1072178E-1,-9.532384E-2,2.9860834E-2,-9.099379E-3,7.46639E-2,2.0435572E-2,4.034917E-1,-1.1630773E-1,-3.1105205E-2,8.604298E-3,3.2468278E-2,8.331773E-2],"categories":[],"categories_nodes":[],"categories_segments":[],"categories_sizes":[],"default_left":[1,1,1,1,1,1,0,0,1,0,1,1,1,0,0,0,1,0,1,1,0,0,0,0,0,0,0],"id":40,"left_children":[1,3,5,7,9,11,-1,-1,13,-1,15,17,19,-1,-1,-1,21,-1,23,25,-1,-1,-1,-1,-1,-1,-1],"loss_changes":[8.9897966E-1,3.7232435E-1,1.1948314E-1,4.983306E-3,3.0137676E-1,1.15823485E-2,0E0,0E0,2.439404E-1,0E0,3.4964192E-1,2.5347627E-3,1.7984584E-4,0E0,0E0,0E0,5.074812E-1,0E0,1.8259746E-3,2.1604449E-4,0E0,0E0,0E0,0E0,0E0,0E0,0E0],"parents":[2147483647,0,0,1,1,2,2,3,3,4,4,5,5,8,8,10,10,11,11,12,12,16,16,18,18,19,19],"right_children":[2,4,6,8,10,12,-1,-1,14,-1,16,18,20,-1,-1,-1,22,-1,24,26,-1,-1,-1,-1,-1,-1,-1],"split_conditions":[1.4541763E0,1.3379041E0,1.6304326E0,1.331144E0,1.3395625E0,1.4869269E0,1.0850144E-2,-2.3918366E-2,1.3345252E0,1.0433724E-2,1.34453E0,1.4661101E0,1.5804919E0,6.1810627E-3,-1.7887106E-2,-2.053609E-2,1.3463241E0,1.4930418E-3,1.4699086E0,1.5084995E0,1.0217786E-3,2.0174585E-2,-5.8153863E-3,-1.5552603E-3,4.3021492E-4,1.6234139E-3,4.1658864E-3],"split_indices":[0,0,0,0,0,0,0,0,0,0,0,0,0,0,0,0,0,0,0,0,0,0,0,0,0,0,0],"split_type":[0,0,0,0,0,0,0,0,0,0,0,0,0,0,0,0,0,0,0,0,0,0,0,0,0,0,0],"sum_hessian":[7.2E1,5.3E1,1.9E1,5E0,4.8E1,1.3E1,6E0,2E0,3E0,2E0,4.6E1,5E0,8E0,1E0,2E0,3E0,4.3E1,2E0,3E0,7E0,1E0,1E0,4.2E1,1E0,2E0,2E0,5E0],"tree_param":{"num_deleted":"0","num_feature":"1","num_nodes":"27","size_leaf_vector":"0"}},{"base_weights":[-6.865834E-2,-1.7183183E-1,4.215418E-2,-4.6242175E-1,-1.4284289E-1,-1.2425127E-2,1.6732763E-1,-1.1961862E-1,-3.5843706E-1,6.366983E-2,-2.5118811E-2,1.04742624E-1,2.5066572E-1,-1.6695584E-1,3.0424338E-2,-1.93195E-1,-8.697392E-3,1.20530725E-1,-1.8327653E-1,3.47556E-1,-5.266162E-2,1.16169594E-1,-2.0175325E-2],"categories":[],"categories_nodes":[],"categories_segments":[],"categories_sizes":[],"default_left":[1,1,1,0,1,1,1,1,0,0,1,0,0,1,1,0,1,0,0,0,0,0,0],"id":41,"left_children":[1,3,5,-1,7,9,11,13,-1,-1,15,-1,-1,17,19,-1,21,-1,-1,-1,-1,-1,-1],"loss_changes":[8.418461E-1,2.540542E-1,2.4802676E-1,0E0,1.373769E-1,2.6713368E-2,3.111747E-2,2.4656853E-1,0E0,0E0,6.1800845E-2,0E0,0E0,1.4408189E-1,2.5544554E-1,0E0,3.3874486E-2,0E0,0E0,0E0,0E0,0E0,0E0],"parents":[2147483647,0,0,1,1,2,2,4,4,5,5,6,6,7,7,10,10,13,13,14,14,16,16],"right_children":[2,4,6,-1,8,10,12,14,-1,-1,16,-1,-1,18,20,-1,22,-1,-1,-1,-1,-1,-1],"split_conditions":[1.3934678E0,1.331144E0,1.5383333E0,-2.3121087E-2,1.3910416E0,1.3978027E0,1.779006E0,1.3648187E0,-1.7921854E-2,3.1834915E-3,1.4002303E0,5.2371314E-3,1.2533287E-2,1.3345252E0,1.3672305E0,-9.65975E-3,1.4036108E0,6.026536E-3,-9.163827E-3,1.73778E-2,-2.633081E-3,5.8084796E-3,-1.0087662E-3],"split_indices":[0,0,0,0,0,0,0,0,0,0,0,0,0,0,0,0,0,0,0,0,0,0,0],"split_type":[0,0,0,0,0,0,0,0,0,0,0,0,0,0,0,0,0,0,0,0,0,0,0],"sum_hessian":[7.2E1,3.7E1,3.5E1,2E0,3.5E1,2.5E1,1E1,3.3E1,2E0,3E0,2.2E1,7E0,3E0,2.5E1,8E0,1E0,2.1E1,1E0,2.4E1,1E0,7E0,1E0,2E1],"tree_param":{"num_deleted":"0","num_feature":"1","num_nodes":"23","size_leaf_vector":"0"}},{"base_weights":[-6.540819E-2,-1.4659409E-1,6.282538E-2,-3.5418543E-1,-1.1179053E-1,1.8318623E-2,2.0008682E-1,-4.4700766E-1,-1.9602239E-1,2.0782788E-1,-1.340817E-1,-1.4377823E-2,6.2261783E-2,1.0888618E-1,2.4126574E-1,1.1751746E-1,-3.3970818E-1,-3.8844687E-1,-1.011805E-1,3.130956E-2,-4.3238543E-2,1.3223439E-2,6.624122E-2,3.9798632E-1,-1.2756735E-1,-2.529937E-2,6.593887E-2,-1.3148187E-1,7.5696193E-4,7.019483E-2,1.7306149E-2],"categories":[],"categories_nodes":[],"categories_segments":[],"categories_sizes":[],"default_left":[1,1,1,1,1,1,1,0,1,0,1,1,1,0,0,0,0,0,1,1,1,0,1,0,0,0,0,0,0,0,0],"id":42,"left_children":[1,3,5,7,9,11,13,-1,15,-1,17,19,21,-1,-1,-1,-1,-1,23,25,27,-1,29,-1,-1,-1,-1,-1,-1,-1,-1],"loss_changes":[7.6919514E-1,2.8552663E-1,1.7349745E-1,4.6277046E-4,3.128527E-1,3.3941247E-2,1.8298626E-5,0E0,2.2012648E-1,0E0,2.787158E-1,1.981377E-2,1.0755137E-3,0E0,0E0,0E0,0E0,0E0,5.117706E-1,1.3430182E-2,3.5040315E-2,0E0,5.264282E-4,0E0,0E0,0E0,0E0,0E0,0E0,0E0,0E0],"parents":[2147483647,0,0,1,1,2,2,3,3,4,4,5,5,6,6,8,8,10,10,11,11,12,12,18,18,19,19,20,20,22,22],"right_children":[2,4,6,8,10,12,14,-1,16,-1,18,20,22,-1,-1,-1,-1,-1,24,26,28,-1,30,-1,-1,-1,-1,-1,-1,-1,-1],"split_conditions":[1.4069918E0,1.3379041E0,1.6304326E0,1.331144E0,1.3395625E0,1.4766735E0,1.779006E0,-2.2350384E-2,1.3345252E0,1.0391395E-2,1.34453E0,1.423719E0,1.4869269E0,5.444309E-3,1.2063287E-2,5.875873E-3,-1.6985409E-2,-1.9422343E-2,1.3463241E0,1.4137553E0,1.4337653E0,6.61172E-4,1.5804919E0,1.9899316E-2,-6.3783675E-3,-1.2649685E-3,3.2969434E-3,-6.574094E-3,3.7848098E-5,3.5097417E-3,8.6530746E-4],"split_indices":[0,0,0,0,0,0,0,0,0,0,0,0,0,0,0,0,0,0,0,0,0,0,0,0,0,0,0,0,0,0,0],"split_type":[0,0,0,0,0,0,0,0,0,0,0,0,0,0,0,0,0,0,0,0,0,0,0,0,0,0,0,0,0,0,0],"sum_hessian":[7.2E1,4.4E1,2.8E1,5E0,3.9E1,2.2E1,6E0,2E0,3E0,2E0,3.7E1,1.3E1,9E0,3E0,3E0,1E0,2E0,3E0,3.4E1,5E0,8E0,1E0,8E0,1E0,3.3E1,2E0,3E0,2E0,6E0,7E0,1E0],"tree_param":{"num_deleted":"0","num_feature":"1","num_nodes":"31","size_leaf_vector":"0"}},{"base_weights":[-6.228751E-2,-1.8841198E-1,1.5837982E-2,-4.3210736E-1,-1.5304667E-1,-2.9845783E-2,1.4776248E-1,1.1457952E-1,-1.683349E-1,3.4205627E-1,-5.0844558E-2,9.38085E-2,2.322183E-1,-3.2838455E-1,-1.4013995E-1,-1.3849236E-1,-1.3751658E-2,2.0090027E-1,-1.8218665E-1,-4.4776604E-2,-3.422369E-1,6.606599E-2,-2.763888E-2],"categories":[],"categories_nodes":[],"categories_segments":[],"categories_sizes":[],"default_left":[1,1,1,0,1,1,1,0,1,0,1,0,0,0,1,1,1,0,0,0,0,0,0],"id":43,"left_children":[1,3,5,-1,7,9,11,-1,13,-1,15,-1,-1,-1,17,19,21,-1,-1,-1,-1,-1,-1],"loss_changes":[7.2229224E-1,1.7518157E-1,2.8164324E-1,0E0,1.2566751E-1,2.9072374E-1,3.2896668E-2,0E0,6.679499E-2,0E0,1.0863328E-1,0E0,0E0,0E0,3.6641258E-1,1.7561655E-1,2.9537123E-2,0E0,0E0,0E0,0E0,0E0,0E0],"parents":[2147483647,0,0,1,1,2,2,4,4,5,5,6,6,8,8,10,10,14,14,15,15,16,16],"right_children":[2,4,6,-1,8,10,12,-1,14,-1,16,-1,-1,-1,18,20,22,-1,-1,-1,-1,-1,-1],"split_conditions":[1.3648187E0,1.331144E0,1.5234157E0,-2.1605369E-2,1.3345252E0,1.3672305E0,1.779006E0,5.7289763E-3,1.3379041E0,1.7102813E-2,1.3934678E0,4.690425E-3,1.1610915E-2,-1.6419228E-2,1.3395625E0,1.3910416E0,1.3978027E0,1.0045013E-2,-9.109332E-3,-2.2388303E-3,-1.7111845E-2,3.3032994E-3,-1.381944E-3],"split_indices":[0,0,0,0,0,0,0,0,0,0,0,0,0,0,0,0,0,0,0,0,0,0,0],"split_type":[0,0,0,0,0,0,0,0,0,0,0,0,0,0,0,0,0,0,0,0,0,0,0],"sum_hessian":[7.2E1,2.7E1,4.5E1,2E0,2.5E1,3.4E1,1.1E1,1E0,2.4E1,1E0,3.3E1,8E0,3E0,2E0,2.2E1,9E0,2.4E1,2E0,2E1,7E0,2E0,3E0,2.1E1],"tree_param":{"num_deleted":"0","num_feature":"1","num_nodes":"23","size_leaf_vector":"0"}},{"base_weights":[-5.938389E-2,-1.801114E-1,1.5393365E-2,-4.1770378E-1,-1.4576952E-1,-3.0899929E-2,1.3528404E-1,1.1171503E-1,-1.6053751E-1,3.3350486E-1,-5.2048706E-2,8.646518E-2,2.2351015E-1,-3.174384E-1,-1.3309228E-1,-1.3350281E-1,-1.5940798E-2,1.9420362E-1,-1.735111E-1,-4.2817634E-2,-3.3082902E-1,6.3588515E-2,-3.0330153E-2],"categories":[],"categories_nodes":[],"categories_segments":[],"categories_sizes":[],"default_left":[1,1,1,0,1,1,1,0,1,0,1,0,0,0,1,1,1,0,0,0,0,0,0],"id":44,"left_children":[1,3,5,-1,7,9,11,-1,13,-1,15,-1,-1,-1,17,19,21,-1,-1,-1,-1,-1,-1],"loss_changes":[6.617925E-1,1.6757381E-1,2.5948644E-1,0E0,1.1680019E-1,2.793868E-1,3.6666423E-2,0E0,6.5405965E-2,0E0,9.49294E-2,0E0,0E0,0E0,3.3796155E-1,1.6478032E-1,2.9393662E-2,0E0,0E0,0E0,0E0,0E0,0E0],"parents":[2147483647,0,0,1,1,2,2,4,4,5,5,6,6,8,8,10,10,14,14,15,15,16,16],"right_children":[2,4,6,-1,8,10,12,-1,14,-1,16,-1,-1,-1,18,20,22,-1,-1,-1,-1,-1,-1],"split_conditions":[1.3648187E0,1.331144E0,1.5084995E0,-2.088519E-2,1.3345252E0,1.3672305E0,1.779006E0,5.585752E-3,1.3379041E0,1.6675243E-2,1.3934678E0,4.323259E-3,1.1175508E-2,-1.587192E-2,1.3395625E0,1.3910416E0,1.3978027E0,9.710181E-3,-8.675556E-3,-2.1408817E-3,-1.6541451E-2,3.1794258E-3,-1.5165077E-3],"split_indices":[0,0,0,0,0,0,0,0,0,0,0,0,0,0,0,0,0,0,0,0,0,0,0],"split_type":[0,0,0,0,0,0,0,0,0,0,0,0,0,0,0,0,0,0,0,0,0,0,0],"sum_hessian":[7.2E1,2.7E1,4.5E1,2E0,2.5E1,3.3E1,1.2E1,1E0,2.4E1,1E0,3.2E1,9E0,3E0,2E0,2.2E1,9E0,2.3E1,2E0,2E1,7E0,2E0,3E0,2E1],"tree_param":{"num_deleted":"0","num_feature":"1","num_nodes":"23","size_leaf_vector":"0"}},{"base_weights":[-5.6619924E-2,-1.7218213E-1,1.49531495E-2,-4.037803E-1,-1.3883686E-1,-3.4167647E-2,1.1874731E-1,1.0892215E-1,-1.5310411E-1,3.2516724E-1,-5.624836E-2,6.4396694E-2,1.8954045E-1,-3.068571E-1,-1.2639268E-1,-1.286959E-1,-2.0760914E-2,1.8773015E-1,-1.6524866E-1,-4.0944364E-2,-3.198014E-1,6.120395E-2,-3.6923993E-2],"categories":[],"categories_nodes":[],"categories_segments":[],"categories_sizes":[],"default_left":[1,1,1,0,1,1,1,0,1,0,1,0,0,0,1,1,1,0,0,0,0,0,0],"id":45,"left_children":[1,3,5,-1,7,9,11,-1,13,-1,15,-1,-1,-1,17,19,21,-1,-1,-1,-1,-1,-1],"loss_changes":[6.06368E-1,1.6017598E-1,2.3858608E-1,0E0,1.0858226E-1,2.7218997E-1,4.5508996E-2,0E0,6.388962E-2,0E0,7.70285E-2,0E0,0E0,0E0,3.117499E-1,1.5460393E-1,3.1405594E-2,0E0,0E0,0E0,0E0,0E0,0E0],"parents":[2147483647,0,0,1,1,2,2,4,4,5,5,6,6,8,8,10,10,14,14,15,15,16,16],"right_children":[2,4,6,-1,8,10,12,-1,14,-1,16,-1,-1,-1,18,20,22,-1,-1,-1,-1,-1,-1],"split_conditions":[1.3648187E0,1.331144E0,1.4869269E0,-2.0189015E-2,1.3345252E0,1.3672305E0,1.6862595E0,5.4461076E-3,1.3379041E0,1.6258363E-2,1.3934678E0,3.2198348E-3,9.477022E-3,-1.5342856E-2,1.3395625E0,1.3910416E0,1.3978027E0,9.386508E-3,-8.262433E-3,-2.0472181E-3,-1.599007E-2,3.0601975E-3,-1.8461997E-3],"split_indices":[0,0,0,0,0,0,0,0,0,0,0,0,0,0,0,0,0,0,0,0,0,0,0],"split_type":[0,0,0,0,0,0,0,0,0,0,0,0,0,0,0,0,0,0,0,0,0,0,0],"sum_hessian":[7.2E1,2.7E1,4.5E1,2E0,2.5E1,3.1E1,1.4E1,1E0,2.4E1,1E0,3E1,9E0,5E0,2E0,2.2E1,9E0,2.1E1,2E0,2E1,7E0,2E0,3E0,1.8E1],"tree_param":{"num_deleted":"0","num_feature":"1","num_nodes":"23","size_leaf_vector":"0"}},{"base_weights":[-5.4019473E-2,-1.1933251E-1,6.1674304E-2,-3.0807504E-1,-8.952803E-2,2.205363E-2,1.7172572E-1,-3.9032093E-1,-1.6937187E-1,1.8147248E-1,-1.07614875E-1,-5.8475E-3,5.3329624E-2,9.2499256E-2,2.0802075E-1,1.061991E-1,-2.9662856E-1,-3.543446E-1,-7.803288E-2,6.702465E-2,-3.75854E-2,5.6864753E-2,1.0756731E-2,1.0655936E-1,2.5159478E-2,-4.5720926E-1,-1.6765328E-1,4.010603E-1,-1.0248159E-1,-1.2393604E-1,4.7913617E-3,1.5265167E-2,6.0156554E-2],"categories":[],"categories_nodes":[],"categories_segments":[],"categories_sizes":[],"default_left":[1,1,1,1,1,1,1,0,1,0,1,1,1,1,0,0,0,1,1,0,1,1,0,0,0,0,0,0,0,0,0,0,0],"id":46,"left_children":[1,3,5,7,9,11,13,-1,15,-1,17,19,21,23,-1,-1,-1,25,27,-1,29,31,-1,-1,-1,-1,-1,-1,-1,-1,-1,-1,-1],"loss_changes":[5.5897045E-1,2.3681104E-1,1.1394123E-1,2.3372173E-3,2.2539392E-1,1.8637192E-2,8.869171E-4,0E0,1.7177472E-1,0E0,2.6429975E-1,3.0272856E-2,8.933265E-4,1.1062399E-3,0E0,0E0,0E0,1.6313791E-4,4.7449005E-1,0E0,3.3527166E-2,3.141407E-4,0E0,0E0,0E0,0E0,0E0,0E0,0E0,0E0,0E0,0E0,0E0],"parents":[2147483647,0,0,1,1,2,2,3,3,4,4,5,5,6,6,8,8,10,10,11,11,12,12,13,13,17,17,18,18,20,20,21,21],"right_children":[2,4,6,8,10,12,14,-1,16,-1,18,20,22,24,-1,-1,-1,26,28,-1,30,32,-1,-1,-1,-1,-1,-1,-1,-1,-1,-1,-1],"split_conditions":[1.4137553E0,1.3379041E0,1.6304326E0,1.331144E0,1.3395625E0,1.4766735E0,1.779006E0,-1.9516047E-2,1.3345252E0,9.073624E-3,1.34453E0,1.423719E0,1.5804919E0,1.7219311E0,1.04010375E-2,5.309955E-3,-1.4831428E-2,1.3411523E0,1.3463241E0,3.3512325E-3,1.4337653E0,1.4869269E0,5.378366E-4,5.327968E-3,1.257974E-3,-2.2860464E-2,-8.382664E-3,2.0053016E-2,-5.1240795E-3,-6.196802E-3,2.395681E-4,7.632584E-4,3.0078278E-3],"split_indices":[0,0,0,0,0,0,0,0,0,0,0,0,0,0,0,0,0,0,0,0,0,0,0,0,0,0,0,0,0,0,0,0,0],"split_type":[0,0,0,0,0,0,0,0,0,0,0,0,0,0,0,0,0,0,0,0,0,0,0,0,0,0,0,0,0,0,0,0,0],"sum_hessian":[7.2E1,4.6E1,2.6E1,5E0,4.1E1,2E1,6E0,2E0,3E0,2E0,3.9E1,1.1E1,9E0,3E0,3E0,1E0,2E0,3E0,3.6E1,3E0,8E0,8E0,1E0,2E0,1E0,1E0,2E0,1E0,3.5E1,2E0,6E0,1E0,7E0],"tree_param":{"num_deleted":"0","num_feature":"1","num_nodes":"33","size_leaf_vector":"0"}},{"base_weights":[-5.155943E-2,-1.7731501E-1,6.164844E-3,-3.7731028E-1,-1.4030069E-1,-3.583052E-2,1.09342426E-1,1.0354413E-1,-1.5767014E-1,2.257114E-1,-4.9365338E-2,5.8806777E-2,1.7534477E-1,-2.8674093E-1,-1.273989E-1,-1.6707747E-1,-2.943015E-2,1.754234E-1,-1.7621565E-1,3.196001E-1,-5.099887E-2],"categories":[],"categories_nodes":[],"categories_segments":[],"categories_sizes":[],"default_left":[1,1,1,0,1,1,1,0,1,0,1,0,0,0,1,0,1,0,0,0,0],"id":47,"left_children":[1,3,5,-1,7,9,11,-1,13,-1,15,-1,-1,-1,17,-1,19,-1,-1,-1,-1],"loss_changes":[5.310111E-1,1.1732495E-1,2.248998E-1,0E0,1.052703E-1,1.4211942E-1,3.9720595E-2,0E0,4.1612238E-2,0E0,7.956096E-2,0E0,0E0,0E0,2.970028E-1,0E0,2.5719962E-1,0E0,0E0,0E0,0E0],"parents":[2147483647,0,0,1,1,2,2,4,4,5,5,6,6,8,8,10,10,14,14,16,16],"right_children":[2,4,6,-1,8,10,12,-1,14,-1,16,-1,-1,-1,18,-1,20,-1,-1,-1,-1],"split_conditions":[1.3580567E0,1.331144E0,1.4869269E0,-1.8865515E-2,1.3345252E0,1.359852E0,1.6862595E0,5.177207E-3,1.3379041E0,1.128557E-2,1.3648187E0,2.9403388E-3,8.767239E-3,-1.4337047E-2,1.3395625E0,-8.353873E-3,1.3672305E0,8.77117E-3,-8.810783E-3,1.5980005E-2,-2.5499435E-3],"split_indices":[0,0,0,0,0,0,0,0,0,0,0,0,0,0,0,0,0,0,0,0,0],"split_type":[0,0,0,0,0,0,0,0,0,0,0,0,0,0,0,0,0,0,0,0,0],"sum_hessian":[7.2E1,2.2E1,5E1,2E0,2E1,3.6E1,1.4E1,1E0,1.9E1,1E0,3.5E1,9E0,5E0,2E0,1.7E1,4E0,3.1E1,2E0,1.5E1,1E0,3E1],"tree_param":{"num_deleted":"0","num_feature":"1","num_nodes":"21","size_leaf_vector":"0"}},{"base_weights":[-4.8981402E-2,-2.039299E-1,-5.3924825E-3,-3.647333E-1,-1.5490562E-1,3.7143412E-1,-1.8519863E-2,-6.8135165E-2,-2.9746538E-1,-7.145647E-2,8.298568E-2,-1.6358112E-1,3.954392E-1,-3.1560767E-1,-4.912563E-2,3.9109066E-2,1.588838E-1,-2.0151632E-2,-3.3783007E-1,-1.114992E-2,-6.538895E-2,1.1511874E-2,4.8996754E-2,8.4402084E-2,1.9364455E-1],"categories":[],"categories_nodes":[],"categories_segments":[],"categories_sizes":[],"default_left":[1,1,1,0,1,0,1,1,0,1,1,1,0,0,1,1,1,0,0,0,0,0,0,0,0],"id":48,"left_children":[1,3,5,-1,7,-1,9,11,-1,13,15,17,-1,-1,19,21,23,-1,-1,-1,-1,-1,-1,-1,-1],"loss_changes":[4.9194506E-1,6.9633126E-2,2.9379022E-1,0E0,1.5291175E-1,0E0,3.1221128E-1,5.0714934E-1,0E0,1.9167536E-1,6.038925E-2,2.1812409E-1,0E0,0E0,2.1504916E-2,3.25617E-3,1.7792732E-3,0E0,0E0,0E0,0E0,0E0,0E0,0E0,0E0],"parents":[2147483647,0,0,1,1,2,2,4,4,6,6,7,7,9,9,10,10,11,11,14,14,15,15,16,16],"right_children":[2,4,6,-1,8,-1,10,12,-1,14,16,18,-1,-1,20,22,24,-1,-1,-1,-1,-1,-1,-1,-1],"split_conditions":[1.3512932E0,1.331144E0,1.3530875E0,-1.8236665E-2,1.3463241E0,1.8571706E-2,1.4541763E0,1.34453E0,-1.4873269E-2,1.353706E0,1.6304326E0,1.3395625E0,1.9771961E-2,-1.5780384E-2,1.371951E0,1.4766735E0,1.779006E0,-1.0075816E-3,-1.6891504E-2,-5.57496E-4,-3.2694475E-3,5.7559373E-4,2.4498377E-3,4.2201043E-3,9.682228E-3],"split_indices":[0,0,0,0,0,0,0,0,0,0,0,0,0,0,0,0,0,0,0,0,0,0,0,0,0],"split_type":[0,0,0,0,0,0,0,0,0,0,0,0,0,0,0,0,0,0,0,0,0,0,0,0,0],"sum_hessian":[7.2E1,1.5E1,5.7E1,2E0,1.3E1,1E0,5.6E1,9E0,4E0,3.7E1,1.9E1,8E0,1E0,2E0,3.5E1,1.3E1,6E0,5E0,3E0,1.1E1,2.4E1,4E0,9E0,3E0,3E0],"tree_param":{"num_deleted":"0","num_feature":"1","num_nodes":"25","size_leaf_vector":"0"}},{"base_weights":[-4.674254E-2,-1.6327274E-1,6.7268107E-3,-3.5257554E-1,-1.2845458E-1,-2.6294734E-2,1.16238065E-1,1.0145931E-1,-1.4502324E-1,2.2034736E-1,-3.8268823E-2,7.214723E-2,1.8638292E-1,-2.765112E-1,-1.1505174E-1,-1.599484E-1,-1.9792633E-2,7.665644E-2,1.8036783E-2,1.7024767E-1,-1.6135465E-1,-2.2263224E-1,-8.861937E-2,3.1188884E-1,-3.872117E-2],"categories":[],"categories_nodes":[],"categories_segments":[],"categories_sizes":[],"default_left":[1,1,1,0,1,1,1,0,1,0,1,1,0,0,1,1,1,0,0,0,0,0,0,0,0],"id":49,"left_children":[1,3,5,-1,7,9,11,-1,13,-1,15,17,-1,-1,19,21,23,-1,-1,-1,-1,-1,-1,-1,-1],"loss_changes":[4.559462E-1,1.0630709E-1,1.8748422E-1,0E0,9.471062E-2,1.2656501E-1,2.3665935E-2,0E0,4.700476E-2,0E0,8.451301E-2,8.13324E-4,0E0,0E0,2.6525366E-1,2.6263595E-3,2.3181531E-1,0E0,0E0,0E0,0E0,0E0,0E0,0E0,0E0],"parents":[2147483647,0,0,1,1,2,2,4,4,5,5,6,6,8,8,10,10,11,11,14,14,15,15,16,16],"right_children":[2,4,6,-1,8,10,12,-1,14,-1,16,18,-1,-1,20,22,24,-1,-1,-1,-1,-1,-1,-1,-1],"split_conditions":[1.3580567E0,1.331144E0,1.5234157E0,-1.7628778E-2,1.3345252E0,1.359852E0,1.779006E0,5.0729658E-3,1.3379041E0,1.1017368E-2,1.3648187E0,1.7219311E0,9.319146E-3,-1.382556E-2,1.3395625E0,1.3604714E0,1.3672305E0,3.832822E-3,9.018392E-4,8.512384E-3,-8.067733E-3,-1.1131613E-2,-4.4309683E-3,1.5594442E-2,-1.9360585E-3],"split_indices":[0,0,0,0,0,0,0,0,0,0,0,0,0,0,0,0,0,0,0,0,0,0,0,0,0],"split_type":[0,0,0,0,0,0,0,0,0,0,0,0,0,0,0,0,0,0,0,0,0,0,0,0,0],"sum_hessian":[7.2E1,2.2E1,5E1,2E0,2E1,3.9E1,1.1E1,1E0,1.9E1,1E0,3.8E1,8E0,3E0,2E0,1.7E1,4E0,3.4E1,7E0,1E0,2E0,1.5E1,1E0,3E0,1E0,3.3E1],"tree_param":{"num_deleted":"0","num_feature":"1","num_nodes":"25","size_leaf_vector":"0"}},{"base_weights":[-4.4443358E-2,-1.8910119E-1,-3.771482E-3,-3.916211E-1,-1.4949179E-1,3.6618212E-1,-1.6686143E-2,-7.698308E-2,-2.7911258E-1,-6.590961E-2,7.767275E-2,-1.625988E-1,3.8958707E-1,-2.9970893E-1,-4.4595513E-2,3.710717E-2,1.477078E-1,-4.9935054E-2,-3.1911066E-1,-7.970578E-3,-6.039166E-2,1.26002375E-2,4.564992E-2,7.9095125E-2,1.7939353E-1],"categories":[],"categories_nodes":[],"categories_segments":[],"categories_sizes":[],"default_left":[1,1,1,0,1,0,1,1,0,1,1,1,0,0,1,1,1,0,0,0,0,0,0,0,0],"id":50,"left_children":[1,3,5,-1,7,-1,9,11,-1,13,15,17,-1,-1,19,21,23,-1,-1,-1,-1,-1,-1,-1,-1],"loss_changes":[4.2878264E-1,6.9803E-2,2.8322408E-1,0E0,1.1949259E-1,0E0,2.6986566E-1,5.0274956E-1,0E0,1.7599675E-1,5.133923E-2,1.6039729E-1,0E0,0E0,2.034583E-2,2.3557916E-3,1.0291487E-3,0E0,0E0,0E0,0E0,0E0,0E0,0E0,0E0],"parents":[2147483647,0,0,1,1,2,2,4,4,6,6,7,7,9,9,10,10,11,11,14,14,15,15,16,16],"right_children":[2,4,6,-1,8,-1,10,12,-1,14,16,18,-1,-1,20,22,24,-1,-1,-1,-1,-1,-1,-1,-1],"split_conditions":[1.3512932E0,1.3261043E0,1.3530875E0,-1.9581055E-2,1.3463241E0,1.8309107E-2,1.4541763E0,1.34453E0,-1.3955629E-2,1.353706E0,1.6304326E0,1.3395625E0,1.9479355E-2,-1.4985447E-2,1.371951E0,1.4766735E0,1.779006E0,-2.4967527E-3,-1.5955534E-2,-3.985289E-4,-3.0195832E-3,6.300119E-4,2.282496E-3,3.9547565E-3,8.969677E-3],"split_indices":[0,0,0,0,0,0,0,0,0,0,0,0,0,0,0,0,0,0,0,0,0,0,0,0,0],"split_type":[0,0,0,0,0,0,0,0,0,0,0,0,0,0,0,0,0,0,0,0,0,0,0,0,0],"sum_hessian":[7.2E1,1.5E1,5.7E1,1E0,1.4E1,1E0,5.6E1,1E1,4E0,3.7E1,1.9E1,9E0,1E0,2E0,3.5E1,1.3E1,6E0,6E0,3E0,1.1E1,2.4E1,4E0,9E0,3E0,3E0],"tree_param":{"num_deleted":"0","num_feature":"1","num_nodes":"25","size_leaf_vector":"0"}},{"base_weights":[-4.2450875E-2,-1.8167798E-1,-3.3114878E-3,-3.8183057E-1,-1.428791E-1,3.570276E-1,-1.5896868E-2,-7.304056E-2,-2.6794806E-1,-6.309844E-2,7.458095E-2,-1.563141E-1,3.798474E-1,-2.9485735E-1,-8.015546E-2,-2.8971863E-1,-4.2460687E-2,3.5459843E-2,1.4216876E-1,-4.779498E-2,-3.0714405E-1,-7.6052696E-3,-5.749286E-2,1.2096221E-2,4.3595668E-2,7.612905E-2,1.7266628E-1],"categories":[],"categories_nodes":[],"categories_segments":[],"categories_sizes":[],"default_left":[1,1,1,0,1,0,1,1,1,1,1,1,0,0,0,0,1,1,1,0,0,0,0,0,0,0,0],"id":51,"left_children":[1,3,5,-1,7,-1,9,11,13,15,17,19,-1,-1,-1,-1,21,23,25,-1,-1,-1,-1,-1,-1,-1,-1],"loss_changes":[3.9719462E-1,6.969553E-2,2.687059E-1,0E0,1.1144844E-1,0E0,2.4813558E-1,4.7422493E-1,1.6324222E-3,1.6542171E-1,4.7840916E-2,1.4899938E-1,0E0,0E0,0E0,0E0,1.842504E-2,2.133811E-3,9.53421E-4,0E0,0E0,0E0,0E0,0E0,0E0,0E0,0E0],"parents":[2147483647,0,0,1,1,2,2,4,4,6,6,7,7,8,8,9,9,10,10,11,11,16,16,17,17,18,18],"right_children":[2,4,6,-1,8,-1,10,12,14,16,18,20,-1,-1,-1,-1,22,24,26,-1,-1,-1,-1,-1,-1,-1,-1],"split_conditions":[1.3512932E0,1.3261043E0,1.3530875E0,-1.909153E-2,1.3463241E0,1.785138E-2,1.4541763E0,1.34453E0,1.3485311E0,1.353706E0,1.6304326E0,1.3395625E0,1.899237E-2,-1.4742868E-2,-4.007773E-3,-1.4485932E-2,1.371951E0,1.4766735E0,1.779006E0,-2.389749E-3,-1.5357203E-2,-3.802635E-4,-2.874643E-3,6.0481107E-4,2.1797835E-3,3.8064525E-3,8.633315E-3],"split_indices":[0,0,0,0,0,0,0,0,0,0,0,0,0,0,0,0,0,0,0,0,0,0,0,0,0,0,0],"split_type":[0,0,0,0,0,0,0,0,0,0,0,0,0,0,0,0,0,0,0,0,0,0,0,0,0,0,0],"sum_hessian":[7.2E1,1.5E1,5.7E1,1E0,1.4E1,1E0,5.6E1,1E1,4E0,3.7E1,1.9E1,9E0,1E0,3E0,1E0,2E0,3.5E1,1.3E1,6E0,6E0,3E0,1.1E1,2.4E1,4E0,9E0,3E0,3E0],"tree_param":{"num_deleted":"0","num_feature":"1","num_nodes":"27","size_leaf_vector":"0"}},{"base_weights":[-4.061959E-2,-1.3149206E-1,1.5577125E-2,-2.613812E-1,-9.189089E-2,3.0448103E-1,2.3907935E-3,-3.7228483E-1,-1.6474353E-1,1.6783042E-1,-1.2461817E-1,-4.2220507E-2,8.588755E-2,-1.05360495E-2,-2.640365E-1,-4.132377E-1,-8.952531E-2,-1.079512E-1,-8.909674E-3,4.5861706E-2,1.4495368E-1,-1.17170155E-1,1.0136608E-1,9.616831E-2,-1.2795174E-1,-2.3704434E-2,-2.9662552E-1,7.298911E-2,-2.6614424E-2,2.350144E-2,5.1309124E-2],"categories":[],"categories_nodes":[],"categories_segments":[],"categories_sizes":[],"default_left":[1,1,1,1,1,0,1,0,1,0,1,1,1,1,0,0,1,1,1,1,0,0,0,0,0,0,0,0,0,0,0],"id":52,"left_children":[1,3,5,7,9,-1,11,-1,13,-1,15,17,19,21,-1,-1,23,25,27,29,-1,-1,-1,-1,-1,-1,-1,-1,-1,-1,-1],"loss_changes":[3.7483984E-1,1.2000683E-1,1.7451285E-1,2.9732883E-3,2.1641411E-1,0E0,1.7124668E-1,0E0,7.377671E-2,0E0,1.7570293E-1,6.472451E-2,3.1178929E-2,4.7674827E-2,0E0,0E0,1.5501574E-1,1.5192068E-1,3.2392513E-2,1.340229E-4,0E0,0E0,0E0,0E0,0E0,0E0,0E0,0E0,0E0,0E0,0E0],"parents":[2147483647,0,0,1,1,2,2,3,3,4,4,6,6,8,8,10,10,11,11,12,12,13,13,16,16,17,17,18,18,19,19],"right_children":[2,4,6,8,10,-1,12,-1,14,-1,16,18,20,22,-1,-1,24,26,28,30,-1,-1,-1,-1,-1,-1,-1,-1,-1,-1,-1],"split_conditions":[1.3648187E0,1.3379041E0,1.3672305E0,1.3261043E0,1.3395625E0,1.5224052E-2,1.4766735E0,-1.8614242E-2,1.3345252E0,8.391521E-3,1.3411523E0,1.3934678E0,1.6862595E0,1.331144E0,-1.3201825E-2,-2.0661885E-2,1.3463241E0,1.3910416E0,1.3978027E0,1.5084995E0,7.247684E-3,-5.858508E-3,5.068304E-3,4.8084157E-3,-6.3975872E-3,-1.1852217E-3,-1.4831277E-2,3.6494557E-3,-1.3307212E-3,1.175072E-3,2.5654563E-3],"split_indices":[0,0,0,0,0,0,0,0,0,0,0,0,0,0,0,0,0,0,0,0,0,0,0,0,0,0,0,0,0,0,0],"split_type":[0,0,0,0,0,0,0,0,0,0,0,0,0,0,0,0,0,0,0,0,0,0,0,0,0,0,0,0,0,0,0],"sum_hessian":[7.2E1,2.7E1,4.5E1,5E0,2.2E1,1E0,4.4E1,1E0,4E0,2E0,2E1,2.9E1,1.5E1,2E0,2E0,1E0,1.9E1,9E0,2E1,1E1,5E0,1E0,1E0,3E0,1.6E1,7E0,2E0,3E0,1.7E1,3E0,7E0],"tree_param":{"num_deleted":"0","num_feature":"1","num_nodes":"31","size_leaf_vector":"0"}},{"base_weights":[-3.9053693E-2,-1.7107813E-1,-1.9598203E-3,-3.6297768E-1,-1.3408631E-1,3.513007E-1,-1.4320543E-2,-6.776191E-2,-2.531827E-1,-2.7579626E-1,2.0214211E-4,-1.481275E-1,3.6794698E-1,-2.79002E-1,-7.495278E-2,-3.2634027E-2,8.2279935E-2,-4.425936E-2,-2.9286486E-1,-4.9381915E-2,1.9964725E-3,5.1804356E-2,1.6075557E-1],"categories":[],"categories_nodes":[],"categories_segments":[],"categories_sizes":[],"default_left":[1,1,1,0,1,0,1,1,1,0,1,1,0,0,0,1,1,0,0,0,0,0,0],"id":53,"left_children":[1,3,5,-1,7,-1,9,11,13,-1,15,17,-1,-1,-1,19,21,-1,-1,-1,-1,-1,-1],"loss_changes":[3.5716742E-1,6.49091E-2,2.58291E-1,0E0,1.0132882E-1,0E0,2.1650353E-1,4.396791E-1,2.0968616E-3,0E0,1.5091674E-1,1.3737398E-1,0E0,0E0,0E0,2.3298103E-2,2.9937617E-2,0E0,0E0,0E0,0E0,0E0,0E0],"parents":[2147483647,0,0,1,1,2,2,4,4,6,6,7,7,8,8,10,10,11,11,15,15,16,16],"right_children":[2,4,6,-1,8,-1,10,12,14,-1,16,18,-1,-1,-1,20,22,-1,-1,-1,-1,-1,-1],"split_conditions":[1.3512932E0,1.3261043E0,1.3530875E0,-1.8148884E-2,1.3463241E0,1.7565034E-2,1.353706E0,1.34453E0,1.3485311E0,-1.3789813E-2,1.4766735E0,1.3395625E0,1.839735E-2,-1.3950101E-2,-3.747639E-3,1.4069918E0,1.779006E0,-2.212968E-3,-1.46432435E-2,-2.4690959E-3,9.982363E-5,2.5902179E-3,8.037779E-3],"split_indices":[0,0,0,0,0,0,0,0,0,0,0,0,0,0,0,0,0,0,0,0,0,0,0],"split_type":[0,0,0,0,0,0,0,0,0,0,0,0,0,0,0,0,0,0,0,0,0,0,0],"sum_hessian":[7.2E1,1.5E1,5.7E1,1E0,1.4E1,1E0,5.6E1,1E1,4E0,2E0,5.4E1,9E0,1E0,3E0,1E0,3.9E1,1.5E1,6E0,3E0,2.6E1,1.3E1,1.2E1,3E0],"tree_param":{"num_deleted":"0","num_feature":"1","num_nodes":"23","size_leaf_vector":"0"}},{"base_weights":[-3.7406098E-2,-1.646683E-1,-1.6543469E-3,-3.5390323E-1,-1.284591E-1,3.4251815E-1,-1.3701552E-2,-6.423371E-2,-2.4406312E-1,-2.6660302E-1,3.4219405E-4,-1.4240675E-1,3.5874832E-1,-2.6853943E-1,-7.307896E-2,-2.9728943E-2,8.2513824E-2,-4.236253E-2,-2.8188244E-1,-4.7004268E-2,3.348567E-3,5.156654E-2,1.5472722E-1],"categories":[],"categories_nodes":[],"categories_segments":[],"categories_sizes":[],"default_left":[1,1,1,0,1,0,1,1,1,0,1,1,0,0,0,1,1,0,0,0,0,0,0],"id":54,"left_children":[1,3,5,-1,7,-1,9,11,13,-1,15,17,-1,-1,-1,19,21,-1,-1,-1,-1,-1,-1],"loss_changes":[3.3186638E-1,6.417063E-2,2.4517937E-1,0E0,9.56936E-2,0E0,2.0253721E-1,4.1481188E-1,1.3007224E-3,0E0,1.3835776E-1,1.2759611E-1,0E0,0E0,0E0,2.3585811E-2,2.554337E-2,0E0,0E0,0E0,0E0,0E0,0E0],"parents":[2147483647,0,0,1,1,2,2,4,4,6,6,7,7,8,8,10,10,11,11,15,15,16,16],"right_children":[2,4,6,-1,8,-1,10,12,14,-1,16,18,-1,-1,-1,20,22,-1,-1,-1,-1,-1,-1],"split_conditions":[1.3512932E0,1.3261043E0,1.3530875E0,-1.7695162E-2,1.3463241E0,1.7125908E-2,1.353706E0,1.34453E0,1.3485311E0,-1.3330151E-2,1.4869269E0,1.3395625E0,1.7937416E-2,-1.3426972E-2,-3.653948E-3,1.4069918E0,1.779006E0,-2.1181265E-3,-1.4094122E-2,-2.3502135E-3,1.6742836E-4,2.5783272E-3,7.736361E-3],"split_indices":[0,0,0,0,0,0,0,0,0,0,0,0,0,0,0,0,0,0,0,0,0,0,0],"split_type":[0,0,0,0,0,0,0,0,0,0,0,0,0,0,0,0,0,0,0,0,0,0,0],"sum_hessian":[7.2E1,1.5E1,5.7E1,1E0,1.4E1,1E0,5.6E1,1E1,4E0,2E0,5.4E1,9E0,1E0,3E0,1E0,4E1,1.4E1,6E0,3E0,2.6E1,1.4E1,1.1E1,3E0],"tree_param":{"num_deleted":"0","num_feature":"1","num_nodes":"23","size_leaf_vector":"0"}},{"base_weights":[-3.5825156E-2,-1.5850058E-1,-1.3659822E-3,-3.04754E-1,-1.158391E-1,3.3395523E-1,-1.3107674E-2,-4.4536658E-2,-2.3527616E-1,-2.5771627E-1,4.729336E-4,-1.2721397E-1,3.497796E-1,-2.5846922E-1,-7.125199E-2,-2.3119738E-2,9.694541E-2,-9.946396E-3,-2.7131185E-1,-4.4741098E-2,8.822179E-3,5.883746E-2,1.4892498E-1],"categories":[],"categories_nodes":[],"categories_segments":[],"categories_sizes":[],"default_left":[1,1,1,0,1,0,1,1,1,0,1,1,0,0,0,1,1,0,0,0,0,0,0],"id":55,"left_children":[1,3,5,-1,7,-1,9,11,13,-1,15,17,-1,-1,-1,19,21,-1,-1,-1,-1,-1,-1],"loss_changes":[3.083759E-1,6.452781E-2,2.327372E-1,0E0,1.08747736E-1,0E0,1.8947208E-1,3.7050697E-1,6.046593E-4,0E0,1.2742375E-1,1.4938349E-1,0E0,0E0,0E0,3.147296E-2,1.3026804E-2,0E0,0E0,0E0,0E0,0E0,0E0],"parents":[2147483647,0,0,1,1,2,2,4,4,6,6,7,7,8,8,10,10,11,11,15,15,16,16],"right_children":[2,4,6,-1,8,-1,10,12,14,-1,16,18,-1,-1,-1,20,22,-1,-1,-1,-1,-1,-1],"split_conditions":[1.3512932E0,1.331144E0,1.3530875E0,-1.5237699E-2,1.3463241E0,1.6697763E-2,1.353706E0,1.34453E0,1.3485311E0,-1.2885814E-2,1.5383333E0,1.3395625E0,1.748898E-2,-1.2923461E-2,-3.5625994E-3,1.4069918E0,1.779006E0,-4.973198E-4,-1.35655925E-2,-2.237055E-3,4.4110898E-4,2.941873E-3,7.446249E-3],"split_indices":[0,0,0,0,0,0,0,0,0,0,0,0,0,0,0,0,0,0,0,0,0,0,0],"split_type":[0,0,0,0,0,0,0,0,0,0,0,0,0,0,0,0,0,0,0,0,0,0,0],"sum_hessian":[7.2E1,1.5E1,5.7E1,2E0,1.3E1,1E0,5.6E1,9E0,4E0,2E0,5.4E1,8E0,1E0,3E0,1E0,4.4E1,1E1,5E0,3E0,2.6E1,1.8E1,7E0,3E0],"tree_param":{"num_deleted":"0","num_feature":"1","num_nodes":"23","size_leaf_vector":"0"}},{"base_weights":[-3.4251615E-2,-1.5234415E-1,-1.0838181E-3,-2.3955722E-1,-9.092391E-2,3.2560635E-1,-1.2527617E-2,1.6545501E-1,-1.662809E-1,-2.4912572E-1,6.055094E-4,-3.8175526E-1,-9.1627195E-2,-1.9432621E-2,1.051818E-1,1.00257546E-1,-2.2680955E-1,-4.2586897E-2,1.1262523E-2,6.2212527E-2,1.4334026E-1],"categories":[],"categories_nodes":[],"categories_segments":[],"categories_sizes":[],"default_left":[1,1,1,0,1,0,1,0,1,0,1,0,1,1,1,0,0,0,0,0,0],"id":56,"left_children":[1,3,5,-1,7,-1,9,-1,11,-1,13,-1,15,17,19,-1,-1,-1,-1,-1,-1],"loss_changes":[2.8576633E-1,6.392491E-2,2.209165E-1,0E0,2.4003139E-1,0E0,1.7726538E-1,0E0,1.0979448E-1,0E0,1.1729718E-1,0E0,2.3025481E-1,3.3883654E-2,5.839221E-3,0E0,0E0,0E0,0E0,0E0,0E0],"parents":[2147483647,0,0,1,1,2,2,4,4,6,6,8,8,10,10,12,12,13,13,14,14],"right_children":[2,4,6,-1,8,-1,10,-1,12,-1,14,-1,16,18,20,-1,-1,-1,-1,-1,-1],"split_conditions":[1.3512932E0,1.3379041E0,1.3530875E0,-1.1977862E-2,1.3395625E0,1.6280318E-2,1.353706E0,8.272751E-3,1.3411523E0,-1.2456286E-2,1.5662225E0,-1.9087764E-2,1.3463241E0,1.4069918E0,1.779006E0,5.0128773E-3,-1.13404775E-2,-2.129345E-3,5.631262E-4,3.1106265E-3,7.167013E-3],"split_indices":[0,0,0,0,0,0,0,0,0,0,0,0,0,0,0,0,0,0,0,0,0],"split_type":[0,0,0,0,0,0,0,0,0,0,0,0,0,0,0,0,0,0,0,0,0],"sum_hessian":[7.2E1,1.5E1,5.7E1,5E0,1E1,1E0,5.6E1,2E0,8E0,2E0,5.4E1,1E0,7E0,4.6E1,8E0,3E0,4E0,2.6E1,2E1,5E0,3E0],"tree_param":{"num_deleted":"0","num_feature":"1","num_nodes":"21","size_leaf_vector":"0"}},{"base_weights":[-3.2766227E-2,-1.4654696E-1,-8.135027E-4,-3.3144784E-1,-1.12123705E-1,3.1746617E-1,-1.1966938E-2,-5.3924534E-2,-2.1773715E-1,-2.4082153E-1,7.336194E-4,-1.2702273E-1,3.385287E-1,-2.4027123E-1,-6.3800424E-2,-2.3457885E-2,8.069524E-2,-3.3534102E-2,-2.5887215E-1,-4.777017E-2,-2.220237E-3,4.9717803E-2,1.3796502E-1],"categories":[],"categories_nodes":[],"categories_segments":[],"categories_sizes":[],"default_left":[1,1,1,0,1,0,1,1,1,0,1,1,0,0,0,1,1,0,0,0,0,0,0],"id":57,"left_children":[1,3,5,-1,7,-1,9,11,13,-1,15,17,-1,-1,-1,19,21,-1,-1,-1,-1,-1,-1],"loss_changes":[2.652799E-1,6.467506E-2,2.09694E-1,0E0,8.0457866E-2,0E0,1.6585177E-1,3.5856467E-1,2.0146966E-3,0E0,1.0828449E-1,1.1458315E-1,0E0,0E0,0E0,2.2096377E-2,1.6203612E-2,0E0,0E0,0E0,0E0,0E0,0E0],"parents":[2147483647,0,0,1,1,2,2,4,4,6,6,7,7,8,8,10,10,11,11,15,15,16,16],"right_children":[2,4,6,-1,8,-1,10,12,14,-1,16,18,-1,-1,-1,20,22,-1,-1,-1,-1,-1,-1],"split_conditions":[1.3512932E0,1.3261043E0,1.3530875E0,-1.6572392E-2,1.3463241E0,1.587331E-2,1.353706E0,1.34453E0,1.3485311E0,-1.2041076E-2,1.5084995E0,1.3395625E0,1.6926436E-2,-1.2013561E-2,-3.1900213E-3,1.3934678E0,1.779006E0,-1.6767051E-3,-1.2943608E-2,-2.3885085E-3,-1.1101185E-4,2.4858902E-3,6.8982514E-3],"split_indices":[0,0,0,0,0,0,0,0,0,0,0,0,0,0,0,0,0,0,0,0,0,0,0],"split_type":[0,0,0,0,0,0,0,0,0,0,0,0,0,0,0,0,0,0,0,0,0,0,0],"sum_hessian":[7.2E1,1.5E1,5.7E1,1E0,1.4E1,1E0,5.6E1,1E1,4E0,2E0,5.4E1,9E0,1E0,3E0,1E0,4.2E1,1.2E1,6E0,3E0,1.9E1,2.3E1,9E0,3E0],"tree_param":{"num_deleted":"0","num_feature":"1","num_nodes":"23","size_leaf_vector":"0"}},{"base_weights":[-3.1384803E-2,-1.6978723E-1,-6.7211296E-3,-3.2316166E-1,-1.2213362E-1,3.3006546E-1,-1.7476808E-2,-3.2096937E-2,-2.4916442E-1,-2.09891E-1,-5.880522E-4,-1.415703E-1,1.6105765E-1,-3.6573955E-1,-8.8392854E-2,-2.3126106E-1,-6.2205404E-2,3.095295E-1,-1.14590535E-2,6.962821E-3,-2.4291332E-1,-2.3279412E-1,8.2211493E-4],"categories":[],"categories_nodes":[],"categories_segments":[],"categories_sizes":[],"default_left":[1,1,1,0,1,0,1,1,1,1,1,1,0,