{"learner":{"attributes":{"best_iteration":"199","best_ntree_limit":"200","scikit_learn":"{\"n_estimators\": 200, \"objective\": \"reg:squarederror\", \"max_depth\": 5, \"max_leaves\": null, \"max_bin\": null, \"grow_policy\": null, \"learning_rate\": 0.05, \"verbosity\": null, \"booster\": null, \"tree_method\": null, \"gamma\": null, \"min_child_weight\": null, \"max_delta_step\": null, \"subsample\": null, \"sampling_method\": null, \"colsample_bytree\": null, \"colsample_bylevel\": null, \"colsample_bynode\": null, \"reg_alpha\": null, \"reg_lambda\": null, \"scale_pos_weight\": null, \"base_score\": null, \"missing\": NaN, \"num_parallel_tree\": null, \"random_state\": null, \"n_jobs\": null, \"monotone_constraints\": null, \"interaction_constraints\": null, \"importance_type\": null, \"gpu_id\": null, \"validate_parameters\": null, \"predictor\": null, \"enable_categorical\": false, \"feature_types\": null, \"max_cat_to_onehot\": null, \"max_cat_threshold\": null, \"eval_metric\": null, \"early_stopping_rounds\": null, \"callbacks\": null, \"_estimator_type\": \"regressor\"}"},"feature_names":[],"feature_types":[],"gradient_booster":{"model":{"gbtree_model_param":{"num_parallel_tree":"1","num_trees":"200","size_leaf_vector":"0"},"tree_info":[0,0,0,0,0,0,0,0,0,0,0,0,0,0,0,0,0,0,0,0,0,0,0,0,0,0,0,0,0,0,0,0,0,0,0,0,0,0,0,0,0,0,0,0,0,0,0,0,0,0,0,0,0,0,0,0,0,0,0,0,0,0,0,0,0,0,0,0,0,0,0,0,0,0,0,0,0,0,0,0,0,0,0,0,0,0,0,0,0,0,0,0,0,0,0,0,0,0,0,0,0,0,0,0,0,0,0,0,0,0,0,0,0,0,0,0,0,0,0,0,0,0,0,0,0,0,0,0,0,0,0,0,0,0,0,0,0,0,0,0,0,0,0,0,0,0,0,0,0,0,0,0,0,0,0,0,0,0,0,0,0,0,0,0,0,0,0,0,0,0,0,0,0,0,0,0,0,0,0,0,0,0,0,0,0,0,0,0,0,0,0,0,0,0,0,0,0,0,0,0],"trees":[{"base_weights":[-5.0211275E-1,-1.0848678E0,2.784442E-1,-1.2491925E0,-5.699568E-1,-8.284515E-2,8.874969E-1,-1.5590322E-1,-6.3717717E-1,-1.7510411E-1,8.896369E-2,4.7943854E-1,1.1104759E0,-2.6708245E-3,-1.8816277E-1,-6.436986E-3,1.8597361E-1,-2.2830269E-1,-7.8278355E-2,4.6677172E-2,-3.138482E-2],"categories":[],"categories_nodes":[],"categories_segments":[],"categories_sizes":[],"default_left":[1,1,1,0,1,1,1,0,0,1,1,0,0,0,1,1,0,0,0,0,0],"id":0,"left_children":[1,3,5,-1,7,9,11,-1,-1,13,15,-1,-1,-1,17,19,-1,-1,-1,-1,-1],"loss_changes":[3.3507843E1,2.8417358E0,7.11494E0,0E0,2.346561E-1,3.4844694E-1,5.594568E-1,0E0,0E0,3.1021923E-2,7.52356E-2,0E0,0E0,0E0,3.9468586E-2,8.09037E-3,0E0,0E0,0E0,0E0,0E0],"parents":[2147483647,0,0,1,1,2,2,4,4,5,5,6,6,9,9,10,10,14,14,15,15],"right_children":[2,4,6,-1,8,10,12,-1,-1,14,16,-1,-1,-1,18,20,-1,-1,-1,-1,-1],"split_conditions":[-2.5468388E0,-2.6302643E0,-2.0592117E0,-6.2459625E-2,-2.6269732E0,-2.318428E0,-1.7213345E0,-7.795161E-3,-3.1858858E-2,-2.5232105E0,-2.224306E0,2.3971928E-2,5.5523794E-2,-1.3354122E-4,-2.3656788E0,-2.2951984E0,9.298681E-3,-1.1415134E-2,-3.913918E-3,2.3338587E-3,-1.5692409E-3],"split_indices":[0,0,0,0,0,0,0,0,0,0,0,0,0,0,0,0,0,0,0,0,0],"split_type":[0,0,0,0,0,0,0,0,0,0,0,0,0,0,0,0,0,0,0,0,0],"sum_hessian":[7.2E1,4.1E1,3.1E1,3E1,1.1E1,2E1,1.1E1,2E0,9E0,1.3E1,7E0,5E0,6E0,1E0,1.2E1,4E0,3E0,8E0,4E0,1E0,3E0],"tree_param":{"num_deleted":"0","num_feature":"1","num_nodes":"21","size_leaf_vector":"0"}},{"base_weights":[-4.7739094E-1,-1.0330557E0,2.668375E-1,-1.1887476E0,-5.4476345E-1,-7.896001E-2,8.497467E-1,-1.5070646E-1,-6.0850424E-1,-1.674534E-1,8.5773416E-2,4.5946196E-1,1.0628841E0,-6.8546665E-1,-3.216939E-1,-2.6040524E-3,-1.799338E-1,-5.9622168E-3,1.789996E-1,-4.0959165E-2,-4.0161908E-1,-2.1815592E-1,-7.514723E-2,4.5510232E-2,-3.0207887E-2],"categories":[],"categories_nodes":[],"categories_segments":[],"categories_sizes":[],"default_left":[1,1,1,0,1,1,1,0,1,1,1,0,0,0,1,0,1,1,0,0,0,0,0,0,0],"id":1,"left_children":[1,3,5,-1,7,9,11,-1,13,15,17,-1,-1,-1,19,-1,21,23,-1,-1,-1,-1,-1,-1,-1],"loss_changes":[3.0464186E1,2.545391E0,6.517289E0,0E0,2.097044E-1,3.204972E-1,5.098562E-1,0E0,2.257824E-4,2.8334856E-2,6.948453E-2,0E0,0E0,0E0,7.330111E-2,0E0,3.567335E-2,7.614688E-3,0E0,0E0,0E0,0E0,0E0,0E0,0E0],"parents":[2147483647,0,0,1,1,2,2,4,4,5,5,6,6,8,8,9,9,10,10,14,14,16,16,17,17],"right_children":[2,4,6,-1,8,10,12,-1,14,16,18,-1,-1,-1,20,-1,22,24,-1,-1,-1,-1,-1,-1,-1],"split_conditions":[-2.5468388E0,-2.6302643E0,-2.0592117E0,-5.9437383E-2,-2.6269732E0,-2.318428E0,-1.7213345E0,-7.535323E-3,-2.5905256E0,-2.5232105E0,-2.224306E0,2.2973098E-2,5.3144205E-2,-3.4273334E-2,-2.570877E0,-1.3020262E-4,-2.3656788E0,-2.2951984E0,8.94998E-3,-2.0479583E-3,-2.0080954E-2,-1.0907796E-2,-3.7573613E-3,2.2755116E-3,-1.5103944E-3],"split_indices":[0,0,0,0,0,0,0,0,0,0,0,0,0,0,0,0,0,0,0,0,0,0,0,0,0],"split_type":[0,0,0,0,0,0,0,0,0,0,0,0,0,0,0,0,0,0,0,0,0,0,0,0,0],"sum_hessian":[7.2E1,4.1E1,3.1E1,3E1,1.1E1,2E1,1.1E1,2E0,9E0,1.3E1,7E0,5E0,6E0,6E0,3E0,1E0,1.2E1,4E0,3E0,1E0,2E0,8E0,4E0,1E0,3E0],"tree_param":{"num_deleted":"0","num_feature":"1","num_nodes":"25","size_leaf_vector":"0"}},{"base_weights":[-4.5423836E-1,-9.8434037E-1,2.5571552E-1,-1.2327229E0,-6.772568E-1,-7.5253926E-2,8.1360245E-1,-7.584967E-1,-4.0642026E-1,-1.3535996E-1,1.4415734E-1,4.403177E-1,1.0173318E0,-1.8812187E-1,-5.2487552E-2,1.5819117E-2,1.722871E-1,-2.5389493E-3,-2.0846009E-1,1.811494E-2,-6.5161474E-2],"categories":[],"categories_nodes":[],"categories_segments":[],"categories_sizes":[],"default_left":[1,1,1,0,1,1,1,0,0,1,1,0,0,1,1,0,0,0,0,0,0],"id":2,"left_children":[1,3,5,-1,7,9,11,-1,-1,13,15,-1,-1,17,19,-1,-1,-1,-1,-1,-1],"loss_changes":[2.7725117E1,2.3686485E0,5.969819E0,0E0,1.5378952E-1,2.964598E-1,4.6464014E-1,0E0,0E0,6.445858E-2,1.5325196E-2,0E0,0E0,3.7215024E-2,8.338876E-3,0E0,0E0,0E0,0E0,0E0,0E0],"parents":[2147483647,0,0,1,1,2,2,4,4,5,5,6,6,9,9,10,10,13,13,14,14],"right_children":[2,4,6,-1,8,10,12,-1,-1,14,16,-1,-1,18,20,-1,-1,-1,-1,-1,-1],"split_conditions":[-2.5468388E0,-2.6541824E0,-2.0592117E0,-6.1636146E-2,-2.6055908E0,-2.2533855E0,-1.7213345E0,-3.7924837E-2,-2.0321013E-2,-2.3656788E0,-2.224306E0,2.2015885E-2,5.0866593E-2,-2.5232105E0,-2.343216E0,7.909559E-4,8.614356E-3,-1.2694746E-4,-1.0423005E-2,9.05747E-4,-3.2580737E-3],"split_indices":[0,0,0,0,0,0,0,0,0,0,0,0,0,0,0,0,0,0,0,0,0],"split_type":[0,0,0,0,0,0,0,0,0,0,0,0,0,0,0,0,0,0,0,0,0],"sum_hessian":[7.2E1,4.1E1,3.1E1,2.1E1,2E1,2E1,1.1E1,1.4E1,6E0,1.6E1,4E0,5E0,6E0,9E0,7E0,1E0,3E0,1E0,8E0,1E0,6E0],"tree_param":{"num_deleted":"0","num_feature":"1","num_nodes":"21","size_leaf_vector":"0"}},{"base_weights":[-4.3221816E-1,-9.379777E-1,2.4509804E-1,-1.1738883E0,-6.461676E-1,-7.1657754E-2,7.789959E-1,-7.231002E-1,-3.8900226E-1,-1.53539E-1,8.059164E-2,4.219711E-1,9.7373194E-1,-2.4754703E-3,-1.6496885E-1,-3.7144423E-3,1.6582634E-1,-2.3714215E-1,-1.065427E-1,4.6001494E-2,-2.76438E-2],"categories":[],"categories_nodes":[],"categories_segments":[],"categories_sizes":[],"default_left":[1,1,1,0,1,1,1,0,0,1,1,0,0,0,1,1,0,0,0,0,0],"id":3,"left_children":[1,3,5,-1,7,9,11,-1,-1,13,15,-1,-1,-1,17,19,-1,-1,-1,-1,-1],"loss_changes":[2.5236713E1,2.1327972E0,5.4675083E0,0E0,1.3418484E-1,2.7416772E-1,4.2342043E-1,0E0,0E0,2.376452E-2,5.810238E-2,0E0,0E0,0E0,2.9552728E-2,7.220008E-3,0E0,0E0,0E0,0E0,0E0],"parents":[2147483647,0,0,1,1,2,2,4,4,5,5,6,6,9,9,10,10,14,14,15,15],"right_children":[2,4,6,-1,8,10,12,-1,-1,14,16,-1,-1,-1,18,20,-1,-1,-1,-1,-1],"split_conditions":[-2.5468388E0,-2.6541824E0,-2.0592117E0,-5.869442E-2,-2.6055908E0,-2.318428E0,-1.7213345E0,-3.615501E-2,-1.9450113E-2,-2.5232105E0,-2.224306E0,2.1098556E-2,4.8686597E-2,-1.2377351E-4,-2.4523325E0,-2.2951984E0,8.291317E-3,-1.1857107E-2,-5.327135E-3,2.3000748E-3,-1.38219E-3],"split_indices":[0,0,0,0,0,0,0,0,0,0,0,0,0,0,0,0,0,0,0,0,0],"split_type":[0,0,0,0,0,0,0,0,0,0,0,0,0,0,0,0,0,0,0,0,0],"sum_hessian":[7.2E1,4.1E1,3.1E1,2.1E1,2E1,2E1,1.1E1,1.4E1,6E0,1.3E1,7E0,5E0,6E0,1E0,1.2E1,4E0,3E0,4E0,8E0,1E0,3E0],"tree_param":{"num_deleted":"0","num_feature":"1","num_nodes":"21","size_leaf_vector":"0"}},{"base_weights":[-4.11328E-1,-8.938002E-1,2.3477083E-1,-1.1178619E0,-6.1650705E-1,-6.846052E-2,7.458615E-1,-6.8935555E-1,-3.7233073E-1,-1.2401952E-1,1.3413218E-1,4.04389E-1,9.320005E-1,-1.7288469E-1,-4.7435608E-2,1.6114742E-2,1.5960786E-1,-2.4135858E-3,-1.9155775E-1,2.032563E-2,-6.0019445E-2],"categories":[],"categories_nodes":[],"categories_segments":[],"categories_sizes":[],"default_left":[1,1,1,0,1,1,1,0,0,1,1,0,0,1,1,0,0,0,0,0,0],"id":4,"left_children":[1,3,5,-1,7,9,11,-1,-1,13,15,-1,-1,17,19,-1,-1,-1,-1,-1,-1],"loss_changes":[2.2965744E1,1.9203262E0,5.0103807E0,0E0,1.1687708E-1,2.5300783E-1,3.8584566E-1,0E0,0E0,5.5417955E-2,1.2460828E-2,0E0,0E0,3.1369865E-2,8.041505E-3,0E0,0E0,0E0,0E0,0E0,0E0],"parents":[2147483647,0,0,1,1,2,2,4,4,5,5,6,6,9,9,10,10,13,13,14,14],"right_children":[2,4,6,-1,8,10,12,-1,-1,14,16,-1,-1,18,20,-1,-1,-1,-1,-1,-1],"split_conditions":[-2.5468388E0,-2.6541824E0,-2.0592117E0,-5.5893093E-2,-2.6055908E0,-2.2533855E0,-1.7213345E0,-3.446778E-2,-1.8616537E-2,-2.3656788E0,-2.224306E0,2.021945E-2,4.6600025E-2,-2.5232105E0,-2.343216E0,8.057371E-4,7.980393E-3,-1.2067929E-4,-9.577888E-3,1.0162815E-3,-3.0009723E-3],"split_indices":[0,0,0,0,0,0,0,0,0,0,0,0,0,0,0,0,0,0,0,0,0],"split_type":[0,0,0,0,0,0,0,0,0,0,0,0,0,0,0,0,0,0,0,0,0],"sum_hessian":[7.2E1,4.1E1,3.1E1,2.1E1,2E1,2E1,1.1E1,1.4E1,6E0,1.6E1,4E0,5E0,6E0,9E0,7E0,1E0,3E0,1E0,8E0,1E0,6E0],"tree_param":{"num_deleted":"0","num_feature":"1","num_nodes":"21","size_leaf_vector":"0"}},{"base_weights":[-3.9137876E-1,-8.517049E-1,2.2502987E-1,-9.803364E-1,-4.484314E-1,-6.517545E-2,7.1413666E-1,-7.3317826E-2,-5.1612234E-1,-1.4104615E-1,7.574521E-2,3.8753945E-1,8.9205766E-1,-5.845458E-1,-2.6735067E-1,-2.353251E-3,-1.5153381E-1,-1.7057002E-3,1.5362255E-1,-1.0741353E-2,-3.4930667E-1,-2.1999413E-1,-9.666322E-2,4.635194E-2,-2.5308095E-2],"categories":[],"categories_nodes":[],"categories_segments":[],"categories_sizes":[],"default_left":[1,1,1,0,1,1,1,0,1,1,1,0,0,0,1,0,1,1,0,0,0,0,0,0,0],"id":5,"left_children":[1,3,5,-1,7,9,11,-1,13,15,17,-1,-1,-1,19,-1,21,23,-1,-1,-1,-1,-1,-1,-1],"loss_changes":[2.0905338E1,1.7390804E0,4.5886693E0,0E0,2.6686049E-1,2.3521031E-1,3.5159492E-1,0E0,1.3939381E-2,2.0007342E-2,4.85154E-2,0E0,0E0,0E0,8.0370665E-2,0E0,2.7568609E-2,6.8444563E-3,0E0,0E0,0E0,0E0,0E0,0E0,0E0],"parents":[2147483647,0,0,1,1,2,2,4,4,5,5,6,6,8,8,9,9,10,10,14,14,16,16,17,17],"right_children":[2,4,6,-1,8,10,12,-1,14,16,18,-1,-1,-1,20,-1,22,24,-1,-1,-1,-1,-1,-1,-1],"split_conditions":[-2.5468388E0,-2.6302643E0,-2.0592117E0,-4.9016822E-2,-2.6269732E0,-2.318428E0,-1.7213345E0,-3.6658912E-3,-2.5905256E0,-2.5232105E0,-2.224306E0,1.9376973E-2,4.4602882E-2,-2.922729E-2,-2.570877E0,-1.1766255E-4,-2.4523325E0,-2.2951984E0,7.6811276E-3,-5.3706765E-4,-1.7465334E-2,-1.0999707E-2,-4.8331614E-3,2.317597E-3,-1.2654047E-3],"split_indices":[0,0,0,0,0,0,0,0,0,0,0,0,0,0,0,0,0,0,0,0,0,0,0,0,0],"split_type":[0,0,0,0,0,0,0,0,0,0,0,0,0,0,0,0,0,0,0,0,0,0,0,0,0],"sum_hessian":[7.2E1,4.1E1,3.1E1,3E1,1.1E1,2E1,1.1E1,2E0,9E0,1.3E1,7E0,5E0,6E0,6E0,3E0,1E0,1.2E1,4E0,3E0,1E0,2E0,4E0,8E0,1E0,3E0],"tree_param":{"num_deleted":"0","num_feature":"1","num_nodes":"25","size_leaf_vector":"0"}},{"base_weights":[-3.7240094E-1,-8.114985E-1,2.1555221E-1,-1.0177206E0,-5.568136E-1,-6.2260352E-2,6.837615E-1,-6.2144125E-1,-3.387809E-1,-1.3513316E-1,7.304962E-2,3.7139195E-1,8.538266E-1,-2.2944212E-3,-1.4517504E-1,-1.4099777E-3,1.478617E-1,-2.1119437E-1,-9.2367075E-2,4.5193136E-2,-2.435904E-2],"categories":[],"categories_nodes":[],"categories_segments":[],"categories_sizes":[],"default_left":[1,1,1,0,1,1,1,0,0,1,1,0,0,0,1,1,0,0,0,0,0],"id":6,"left_children":[1,3,5,-1,7,9,11,-1,-1,13,15,-1,-1,-1,17,19,-1,-1,-1,-1,-1],"loss_changes":[1.9021244E1,1.6392288E0,4.2049522E0,0E0,8.537769E-2,2.1694022E-1,3.2037354E-1,0E0,0E0,1.8342197E-2,4.4772305E-2,0E0,0E0,0E0,2.581507E-2,6.4483504E-3,0E0,0E0,0E0,0E0,0E0],"parents":[2147483647,0,0,1,1,2,2,4,4,5,5,6,6,9,9,10,10,14,14,15,15],"right_children":[2,4,6,-1,8,10,12,-1,-1,14,16,-1,-1,-1,18,20,-1,-1,-1,-1,-1],"split_conditions":[-2.5468388E0,-2.6541824E0,-2.0592117E0,-5.088603E-2,-2.6055908E0,-2.318428E0,-1.7213345E0,-3.1072063E-2,-1.6939046E-2,-2.5232105E0,-2.224306E0,1.8569598E-2,4.269133E-2,-1.14721064E-4,-2.4523325E0,-2.2951984E0,7.3930854E-3,-1.0559718E-2,-4.6183537E-3,2.2596568E-3,-1.217952E-3],"split_indices":[0,0,0,0,0,0,0,0,0,0,0,0,0,0,0,0,0,0,0,0,0],"split_type":[0,0,0,0,0,0,0,0,0,0,0,0,0,0,0,0,0,0,0,0,0],"sum_hessian":[7.2E1,4.1E1,3.1E1,2.1E1,2E1,2E1,1.1E1,1.4E1,6E0,1.3E1,7E0,5E0,6E0,1E0,1.2E1,4E0,3E0,4E0,8E0,1E0,3E0],"tree_param":{"num_deleted":"0","num_feature":"1","num_nodes":"21","size_leaf_vector":"0"}},{"base_weights":[-3.5439038E-1,-7.732783E-1,2.0647469E-1,-9.6914756E-1,-5.312592E-1,-5.947391E-2,6.546785E-1,-6.019993E-1,-3.410566E-1,-1.0894864E-1,1.2063495E-1,3.907832E-1,8.5344326E-1,-1.5278271E-1,-4.0537477E-2,1.6953558E-2,1.4231691E-1,-2.2370666E-3,-1.6926143E-1,2.454324E-2,-5.33409E-2],"categories":[],"categories_nodes":[],"categories_segments":[],"categories_sizes":[],"default_left":[1,1,1,0,1,1,1,0,0,1,1,0,0,1,1,0,0,0,0,0,0],"id":7,"left_children":[1,3,5,-1,7,9,11,-1,-1,13,15,-1,-1,17,19,-1,-1,-1,-1,-1,-1],"loss_changes":[1.7310253E1,1.4761047E0,3.85331E0,0E0,7.723808E-2,2.002706E-1,2.959261E-1,0E0,0E0,4.4785142E-2,8.827299E-3,0E0,0E0,2.4429366E-2,7.975206E-3,0E0,0E0,0E0,0E0,0E0,0E0],"parents":[2147483647,0,0,1,1,2,2,4,4,5,5,6,6,9,9,10,10,13,13,14,14],"right_children":[2,4,6,-1,8,10,12,-1,-1,14,16,-1,-1,18,20,-1,-1,-1,-1,-1,-1],"split_conditions":[-2.5468388E0,-2.6541824E0,-2.0592117E0,-4.845738E-2,-2.6170578E0,-2.2533855E0,-1.4415131E0,-3.0099964E-2,-1.705283E-2,-2.3656788E0,-2.224306E0,1.953916E-2,4.2672165E-2,-2.5232105E0,-2.343216E0,8.476779E-4,7.1158456E-3,-1.1185333E-4,-8.463072E-3,1.2271621E-3,-2.667045E-3],"split_indices":[0,0,0,0,0,0,0,0,0,0,0,0,0,0,0,0,0,0,0,0,0],"split_type":[0,0,0,0,0,0,0,0,0,0,0,0,0,0,0,0,0,0,0,0,0],"sum_hessian":[7.2E1,4.1E1,3.1E1,2.1E1,2E1,2E1,1.1E1,1.3E1,7E0,1.6E1,4E0,6E0,5E0,9E0,7E0,1E0,3E0,1E0,8E0,1E0,6E0],"tree_param":{"num_deleted":"0","num_feature":"1","num_nodes":"21","size_leaf_vector":"0"}},{"base_weights":[-3.3715647E-1,-7.368908E-1,1.9803095E-1,-9.228928E-1,-5.0694156E-1,-5.659789E-2,6.2712884E-1,-2.6265115E-1,-9.418257E-1,-5.740493E-1,-3.2613534E-1,-1.2414097E-1,6.867724E-2,3.3963466E-1,7.839626E-1,-2.1811426E-3,-1.3335471E-1,2.99561E-4,1.3698003E-1,-1.9597614E-1,-8.374785E-2,4.5396835E-2,-2.2323966E-2],"categories":[],"categories_nodes":[],"categories_segments":[],"categories_sizes":[],"default_left":[1,1,1,1,1,1,1,0,0,0,0,1,1,0,0,0,1,1,0,0,0,0,0],"id":8,"left_children":[1,3,5,7,9,11,13,-1,-1,-1,-1,15,17,-1,-1,-1,19,21,-1,-1,-1,-1,-1],"loss_changes":[1.5763021E1,1.3285294E0,3.5318367E0,2.7635574E-2,6.7585945E-2,1.8621647E-1,2.748046E-1,0E0,0E0,0E0,0E0,1.544103E-2,3.732205E-2,0E0,0E0,0E0,2.397129E-2,6.114734E-3,0E0,0E0,0E0,0E0,0E0],"parents":[2147483647,0,0,1,1,2,2,3,3,4,4,5,5,6,6,11,11,12,12,16,16,17,17],"right_children":[2,4,6,8,10,12,14,-1,-1,-1,-1,16,18,-1,-1,-1,20,22,-1,-1,-1,-1,-1],"split_conditions":[-2.5468388E0,-2.6541824E0,-2.0592117E0,-2.7580395E0,-2.6170578E0,-2.318428E0,-1.7213345E0,-1.3132557E-2,-4.7091287E-2,-2.8702466E-2,-1.6306767E-2,-2.5232105E0,-2.224306E0,1.6981734E-2,3.919813E-2,-1.0905713E-4,-2.4523325E0,-2.2951984E0,6.8490016E-3,-9.798807E-3,-4.1873925E-3,2.2698417E-3,-1.1161984E-3],"split_indices":[0,0,0,0,0,0,0,0,0,0,0,0,0,0,0,0,0,0,0,0,0,0,0],"split_type":[0,0,0,0,0,0,0,0,0,0,0,0,0,0,0,0,0,0,0,0,0,0,0],"sum_hessian":[7.2E1,4.1E1,3.1E1,2.1E1,2E1,2E1,1.1E1,1E0,2E1,1.3E1,7E0,1.3E1,7E0,5E0,6E0,1E0,1.2E1,4E0,3E0,4E0,8E0,1E0,3E0],"tree_param":{"num_deleted":"0","num_feature":"1","num_nodes":"23","size_leaf_vector":"0"}},{"base_weights":[-3.2105407E-1,-7.025518E-1,1.8969463E-1,-8.7948555E-1,-4.8373777E-1,-5.4058116E-2,6.0045403E-1,-7.683398E-1,-1.3272954E0,-5.15303E-1,-2.207598E-1,-1.1894072E-1,6.624371E-2,3.563058E-1,7.85218E-1,-8.355278E-1,-2.9070607E-1,1.4676496E-2,-3.0413073E-1,-2.1266192E-3,-1.2776284E-1,5.153E-4,1.3184328E-1,6.275199E-2,-4.2944276E-1,-1.881371E-1,-8.002571E-2,4.4261903E-2,-2.1486826E-2],"categories":[],"categories_nodes":[],"categories_segments":[],"categories_sizes":[],"default_left":[1,1,1,1,1,1,1,1,0,0,1,1,1,0,0,0,1,0,0,0,1,1,0,0,0,0,0,0,0],"id":9,"left_children":[1,3,5,7,9,11,13,15,-1,-1,17,19,21,-1,-1,-1,23,-1,-1,-1,25,27,-1,-1,-1,-1,-1,-1,-1],"loss_changes":[1.4357282E1,1.2006149E0,3.2364192E0,7.5172424E-2,6.0562134E-2,1.7179447E-1,2.6153946E-1,3.9893246E-1,0E0,0E0,8.297771E-2,1.4155954E-2,3.4426104E-2,0E0,0E0,0E0,2.2309878E-1,0E0,0E0,0E0,2.2411436E-2,5.763639E-3,0E0,0E0,0E0,0E0,0E0,0E0,0E0],"parents":[2147483647,0,0,1,1,2,2,3,3,4,4,5,5,6,6,7,7,10,10,11,11,12,12,16,16,20,20,21,21],"right_children":[2,4,6,8,10,12,14,16,-1,-1,18,20,22,-1,-1,-1,24,-1,-1,-1,26,28,-1,-1,-1,-1,-1,-1,-1],"split_conditions":[-2.5468388E0,-2.6541824E0,-2.0592117E0,-2.6624365E0,-2.5905256E0,-2.318428E0,-1.4415131E0,-2.6756E0,-6.636477E-2,-2.576515E-2,-2.570877E0,-2.5232105E0,-2.224306E0,1.781529E-2,3.92609E-2,-4.177639E-2,-2.6704407E0,7.3382485E-4,-1.5206537E-2,-1.0633096E-4,-2.4523325E0,-2.2951984E0,6.5921643E-3,3.1375997E-3,-2.147214E-2,-9.406855E-3,-4.0012854E-3,2.213095E-3,-1.0743414E-3],"split_indices":[0,0,0,0,0,0,0,0,0,0,0,0,0,0,0,0,0,0,0,0,0,0,0,0,0,0,0,0,0],"split_type":[0,0,0,0,0,0,0,0,0,0,0,0,0,0,0,0,0,0,0,0,0,0,0,0,0,0,0,0,0],"sum_hessian":[7.2E1,4.1E1,3.1E1,2.1E1,2E1,2E1,1.1E1,1.9E1,2E0,1.7E1,3E0,1.3E1,7E0,6E0,5E0,1.6E1,3E0,1E0,2E0,1E0,1.2E1,4E0,3E0,1E0,2E0,4E0,8E0,1E0,3E0],"tree_param":{"num_deleted":"0","num_feature":"1","num_nodes":"29","size_leaf_vector":"0"}},{"base_weights":[-3.0658248E-1,-6.516874E-1,2.0979074E-1,-7.7409804E-1,-3.3408606E-1,-3.2027885E-2,5.751877E-1,-8.412602E-1,-5.489315E-1,6.219188E-3,-3.9132187E-1,-7.675843E-2,1.0856933E-1,3.4103554E-1,7.5250053E-1,-7.329284E-1,-1.2830523E0,-6.1931795E-1,-2.8379086E-1,9.838173E-2,-9.629571E-2,1.762499E-2,1.2689917E-1,-7.9620886E-1,-2.807544E-1,-2.0941843E-1,-5.9990387E-2],"categories":[],"categories_nodes":[],"categories_segments":[],"categories_sizes":[],"default_left":[1,1,1,1,1,1,1,1,0,0,1,1,1,0,0,1,0,0,0,0,1,0,0,0,0,0,0],"id":10,"left_children":[1,3,5,7,9,11,13,15,-1,-1,17,19,21,-1,-1,23,-1,-1,-1,-1,25,-1,-1,-1,-1,-1,-1],"loss_changes":[1.3145532E1,1.4520073E0,2.6692157E0,7.007599E-3,2.7512074E-1,1.2782443E-1,2.4158883E-1,1.1253834E-1,0E0,0E0,1.1844289E-1,6.0800172E-2,6.0983784E-3,0E0,0E0,3.487358E-1,0E0,0E0,0E0,0E0,4.4934303E-2,0E0,0E0,0E0,0E0,0E0,0E0],"parents":[2147483647,0,0,1,1,2,2,3,3,4,4,5,5,6,6,7,7,10,10,11,11,12,12,15,15,20,20],"right_children":[2,4,6,8,10,12,14,16,-1,-1,18,20,22,-1,-1,24,-1,-1,-1,-1,26,-1,-1,-1,-1,-1,-1],"split_conditions":[-2.499588E0,-2.6302643E0,-2.0592117E0,-2.6541824E0,-2.6269732E0,-2.2533855E0,-1.4415131E0,-2.6624365E0,-2.7446574E-2,3.109594E-4,-2.6170578E0,-2.4763641E0,-2.224306E0,1.7051777E-2,3.7625026E-2,-2.6756E0,-6.415262E-2,-3.0965898E-2,-1.4189543E-2,4.9190866E-3,-2.4523325E0,8.812495E-4,6.3449587E-3,-3.9810445E-2,-1.403772E-2,-1.0470922E-2,-2.9995195E-3],"split_indices":[0,0,0,0,0,0,0,0,0,0,0,0,0,0,0,0,0,0,0,0,0,0,0,0,0,0,0],"split_type":[0,0,0,0,0,0,0,0,0,0,0,0,0,0,0,0,0,0,0,0,0,0,0,0,0,0,0],"sum_hessian":[7.2E1,4.3E1,2.9E1,3E1,1.3E1,1.8E1,1.1E1,2.1E1,9E0,2E0,1.1E1,1.4E1,4E0,6E0,5E0,1.9E1,2E0,2E0,9E0,1E0,1.3E1,1E0,3E0,1.6E1,3E0,2E0,1.1E1],"tree_param":{"num_deleted":"0","num_feature":"1","num_nodes":"27","size_leaf_vector":"0"}},{"base_weights":[-2.9312927E-1,-6.234278E-1,2.010796E-1,-7.40085E-1,-3.2058492E-1,-3.049624E-2,5.5098474E-1,-8.0456084E-1,-5.242296E-1,6.0118833E-3,-3.7551874E-1,-7.3490605E-2,1.04586095E-1,3.2641977E-1,7.211464E-1,-6.989744E-1,-1.240284E0,-3.3213413E-1,-6.498982E-1,-5.98674E-1,-2.710203E-1,9.592219E-2,-9.24431E-2,1.7184362E-2,1.2214044E-1,-7.587402E-1,-2.7022612E-1,-2.0243782E-1,-5.724083E-2],"categories":[],"categories_nodes":[],"categories_segments":[],"categories_sizes":[],"default_left":[1,1,1,1,1,1,1,1,1,0,1,1,1,0,0,1,0,0,0,0,0,0,1,0,0,0,0,0,0],"id":11,"left_children":[1,3,5,7,9,11,13,15,17,-1,19,21,23,-1,-1,25,-1,-1,-1,-1,-1,-1,27,-1,-1,-1,-1,-1,-1],"loss_changes":[1.204162E1,1.3172092E0,2.44769E0,9.666443E-3,2.5343442E-1,1.18033886E-1,2.2315192E-1,1.4521503E-1,2.5550127E-2,0E0,1.1757982E-1,5.702927E-2,5.572494E-3,0E0,0E0,3.0745888E-1,0E0,0E0,0E0,0E0,0E0,0E0,4.2621195E-2,0E0,0E0,0E0,0E0,0E0,0E0],"parents":[2147483647,0,0,1,1,2,2,3,3,4,4,5,5,6,6,7,7,8,8,10,10,11,11,12,12,15,15,22,22],"right_children":[2,4,6,8,10,12,14,16,18,-1,20,22,24,-1,-1,26,-1,-1,-1,-1,-1,-1,28,-1,-1,-1,-1,-1,-1],"split_conditions":[-2.499588E0,-2.6302643E0,-2.0592117E0,-2.6541824E0,-2.6269732E0,-2.2533855E0,-1.4415131E0,-2.6624365E0,-2.647132E0,3.0059417E-4,-2.6170578E0,-2.4763641E0,-2.224306E0,1.6320989E-2,3.605732E-2,-2.6756E0,-6.20142E-2,-1.6606707E-2,-3.249491E-2,-2.99337E-2,-1.35510145E-2,4.7961096E-3,-2.4523325E0,8.592181E-4,6.107022E-3,-3.793701E-2,-1.3511307E-2,-1.0121891E-2,-2.8620416E-3],"split_indices":[0,0,0,0,0,0,0,0,0,0,0,0,0,0,0,0,0,0,0,0,0,0,0,0,0,0,0,0,0],"split_type":[0,0,0,0,0,0,0,0,0,0,0,0,0,0,0,0,0,0,0,0,0,0,0,0,0,0,0,0,0],"sum_hessian":[7.2E1,4.3E1,2.9E1,3E1,1.3E1,1.8E1,1.1E1,2.1E1,9E0,2E0,1.1E1,1.4E1,4E0,6E0,5E0,1.9E1,2E0,5E0,4E0,2E0,9E0,1E0,1.3E1,1E0,3E0,1.6E1,3E0,2E0,1.1E1],"tree_param":{"num_deleted":"0","num_feature":"1","num_nodes":"29","size_leaf_vector":"0"}},{"base_weights":[-2.8059047E-1,-6.1535233E-1,1.675529E-1,-7.0832473E-1,-3.2389432E-1,-4.6281464E-2,5.278003E-1,-1.9632295E-1,-7.188474E-1,5.8114924E-3,-3.9041662E-1,-1.0439872E-1,6.1208908E-2,2.828265E-1,6.6237783E-1,-7.874352E-1,-5.0292826E-1,-5.787182E-1,-2.7100146E-1,1.1796832E-2,-1.1424428E-1,3.8861216E-3,1.1756016E-1,-6.810166E-1,-1.1989411E0,-3.182952E-1,-6.2390226E-1,-2.219128E-1,-8.677918E-2,4.6086133E-2,-1.8185414E-2],"categories":[],"categories_nodes":[],"categories_segments":[],"categories_sizes":[],"default_left":[1,1,1,1,1,1,1,0,1,0,1,1,1,0,0,1,1,0,0,0,1,1,0,0,0,0,0,0,0,0,0],"id":12,"left_children":[1,3,5,7,9,11,13,-1,15,-1,17,19,21,-1,-1,23,25,-1,-1,-1,27,29,-1,-1,-1,-1,-1,-1,-1,-1,-1],"loss_changes":[1.1054661E1,9.0867424E-1,2.4894924E0,2.5889397E-2,2.6546252E-1,1.3757809E-1,2.0827746E-1,0E0,4.8259735E-2,0E0,6.802702E-2,1.7363861E-2,2.5384834E-2,0E0,0E0,1.0313034E-1,2.4772882E-2,0E0,0E0,0E0,1.918526E-2,5.4951906E-3,0E0,0E0,0E0,0E0,0E0,0E0,0E0,0E0,0E0],"parents":[2147483647,0,0,1,1,2,2,3,3,4,4,5,5,6,6,8,8,10,10,11,11,12,12,15,15,16,16,20,20,21,21],"right_children":[2,4,6,8,10,12,14,-1,16,-1,18,20,22,-1,-1,24,26,-1,-1,-1,28,30,-1,-1,-1,-1,-1,-1,-1,-1,-1],"split_conditions":[-2.5468388E0,-2.6302643E0,-2.0592117E0,-2.7580395E0,-2.6269732E0,-2.318428E0,-1.7213345E0,-9.816147E-3,-2.6541824E0,2.9057462E-4,-2.6170578E0,-2.5232105E0,-2.224306E0,1.4141326E-2,3.3118892E-2,-2.6624365E0,-2.647132E0,-2.893591E-2,-1.3550073E-2,5.898416E-4,-2.499588E0,-2.2951984E0,5.8780084E-3,-3.4050833E-2,-5.9947055E-2,-1.591476E-2,-3.1195113E-2,-1.109564E-2,-4.3389588E-3,2.3043067E-3,-9.092707E-4],"split_indices":[0,0,0,0,0,0,0,0,0,0,0,0,0,0,0,0,0,0,0,0,0,0,0,0,0,0,0,0,0,0,0],"split_type":[0,0,0,0,0,0,0,0,0,0,0,0,0,0,0,0,0,0,0,0,0,0,0,0,0,0,0,0,0,0,0],"sum_hessian":[7.2E1,4.1E1,3.1E1,3E1,1.1E1,2E1,1.1E1,1E0,2.9E1,2E0,9E0,1.3E1,7E0,5E0,6E0,2E1,9E0,2E0,7E0,1E0,1.2E1,4E0,3E0,1.8E1,2E0,5E0,4E0,1E0,1.1E1,1E0,3E0],"tree_param":{"num_deleted":"0","num_feature":"1","num_nodes":"31","size_leaf_vector":"0"}},{"base_weights":[-2.6866275E-1,-5.7171375E-1,1.8476744E-1,-6.77777E-1,-2.9602262E-1,-6.413417E-4,5.5564916E-1,-1.9141486E-1,-6.876086E-1,5.6177774E-3,-3.4676418E-1,-6.086047E-2,1.600499E-1,3.150988E-1,6.6349953E-1,-7.525395E-1,-4.8249283E-1,-5.5942756E-1,-2.4828874E-1,9.56936E-2,-7.767698E-2,-6.4875793E-1,-1.1589764E0,-3.050329E-1,-5.9894615E-1,-1.4008608E-1,-2.0505799E-2],"categories":[],"categories_nodes":[],"categories_segments":[],"categories_sizes":[],"default_left":[1,1,1,1,1,1,1,0,1,0,1,1,0,0,0,1,1,0,0,0,1,0,0,0,0,0,0],"id":13,"left_children":[1,3,5,7,9,11,13,-1,15,-1,17,19,-1,-1,-1,21,23,-1,-1,-1,25,-1,-1,-1,-1,-1,-1],"loss_changes":[1.0136744E1,1.0859537E0,2.063298E0,1.6614914E-2,2.1622777E-1,2.1295112E-1,5.036688E-2,0E0,3.6455154E-2,0E0,1.12405896E-1,4.9556285E-2,0E0,0E0,0E0,1.3389874E-1,2.3959637E-2,0E0,0E0,0E0,5.0647452E-2,0E0,0E0,0E0,0E0,0E0,0E0],"parents":[2147483647,0,0,1,1,2,2,3,3,4,4,5,5,6,6,8,8,10,10,11,11,15,15,16,16,20,20],"right_children":[2,4,6,8,10,12,14,-1,16,-1,18,20,-1,-1,-1,22,24,-1,-1,-1,26,-1,-1,-1,-1,-1,-1],"split_conditions":[-2.499588E0,-2.6302643E0,-1.9580832E0,-2.7580395E0,-2.6269732E0,-2.224306E0,-1.4415131E0,-9.570743E-3,-2.6541824E0,2.8088887E-4,-2.6170578E0,-2.4763641E0,8.002495E-3,1.575494E-2,3.3174977E-2,-2.6624365E0,-2.647132E0,-2.7971378E-2,-1.2414437E-2,4.7846804E-3,-2.3656788E0,-3.24379E-2,-5.7948824E-2,-1.5251646E-2,-2.9947309E-2,-7.0043043E-3,-1.02529E-3],"split_indices":[0,0,0,0,0,0,0,0,0,0,0,0,0,0,0,0,0,0,0,0,0,0,0,0,0,0,0],"split_type":[0,0,0,0,0,0,0,0,0,0,0,0,0,0,0,0,0,0,0,0,0,0,0,0,0,0,0],"sum_hessian":[7.2E1,4.3E1,2.9E1,3E1,1.3E1,2E1,9E0,1E0,2.9E1,2E0,1.1E1,1.5E1,5E0,4E0,5E0,2E1,9E0,2E0,9E0,1E0,1.4E1,1.8E1,2E0,5E0,4E0,6E0,8E0],"tree_param":{"num_deleted":"0","num_feature":"1","num_nodes":"27","size_leaf_vector":"0"}},{"base_weights":[-2.57032E-1,-5.642381E-1,1.5420818E-1,-6.4857066E-1,-2.9935905E-1,-4.212488E-2,4.8494035E-1,-3.2239053E-1,-6.720046E-1,5.4305196E-3,-3.6086002E-1,-9.551262E-2,5.6569286E-2,2.8630885E-1,6.358537E-1,-7.466972E-1,-4.628881E-1,-5.4078E-1,-2.4828252E-1,1.7709121E-2,-1.0558423E-1,4.791057E-3,1.0714975E-1,-6.368362E-1,-1.1203438E0,-2.923232E-1,-5.7498837E-1,-1.5961924E-1,-6.383319E-2,4.5446634E-2,-1.6734496E-2],"categories":[],"categories_nodes":[],"categories_segments":[],"categories_sizes":[],"default_left":[1,1,1,1,1,1,1,0,1,0,1,1,1,0,0,1,1,0,0,0,1,1,0,0,0,0,0,0,0,0,0],"id":14,"left_children":[1,3,5,7,9,11,13,-1,15,-1,17,19,21,-1,-1,23,25,-1,-1,-1,27,29,-1,-1,-1,-1,-1,-1,-1,-1,-1],"loss_changes":[9.3095E0,7.440367E-1,2.0983052E0,2.0306587E-2,2.2689784E-1,1.1605331E-1,1.7766309E-1,0E0,9.170723E-2,0E0,6.82832E-2,1.7834336E-2,2.0438377E-2,0E0,0E0,6.6459656E-2,2.3121357E-2,0E0,0E0,0E0,1.913923E-2,5.1361956E-3,0E0,0E0,0E0,0E0,0E0,0E0,0E0,0E0,0E0],"parents":[2147483647,0,0,1,1,2,2,3,3,4,4,5,5,6,6,8,8,10,10,11,11,12,12,15,15,16,16,20,20,21,21],"right_children":[2,4,6,8,10,12,14,-1,16,-1,18,20,22,-1,-1,24,26,-1,-1,-1,28,30,-1,-1,-1,-1,-1,-1,-1,-1,-1],"split_conditions":[-2.5468388E0,-2.6302643E0,-2.0592117E0,-2.7392254E0,-2.6269732E0,-2.318428E0,-1.4415131E0,-1.6119527E-2,-2.6541824E0,2.71526E-4,-2.6170578E0,-2.5232105E0,-2.224306E0,1.4315443E-2,3.1792685E-2,-2.6624365E0,-2.647132E0,-2.7039E-2,-1.2414127E-2,8.8545604E-4,-2.4523325E0,-2.2951984E0,5.3574876E-3,-3.184181E-2,-5.601719E-2,-1.4616161E-2,-2.874942E-2,-7.980962E-3,-3.1916597E-3,2.2723319E-3,-8.367248E-4],"split_indices":[0,0,0,0,0,0,0,0,0,0,0,0,0,0,0,0,0,0,0,0,0,0,0,0,0,0,0,0,0,0,0],"split_type":[0,0,0,0,0,0,0,0,0,0,0,0,0,0,0,0,0,0,0,0,0,0,0,0,0,0,0,0,0,0,0],"sum_hessian":[7.2E1,4.1E1,3.1E1,3E1,1.1E1,2E1,1.1E1,3E0,2.7E1,2E0,9E0,1.3E1,7E0,6E0,5E0,1.8E1,9E0,2E0,7E0,1E0,1.2E1,4E0,3E0,1.6E1,2E0,5E0,4E0,4E0,8E0,1E0,3E0],"tree_param":{"num_deleted":"0","num_feature":"1","num_nodes":"31","size_leaf_vector":"0"}},{"base_weights":[-2.4615179E-1,-5.2448696E-1,1.7027816E-1,-6.2089515E-1,-2.7354833E-1,-1.441297E-4,5.111372E-1,-3.103009E-1,-6.430909E-1,5.2495003E-3,-3.204521E-1,-5.4913133E-2,1.4593057E-1,2.910425E-1,6.0935986E-1,-7.1398646E-1,-4.4408023E-1,-5.22754E-1,-2.277163E-1,9.729175E-2,-7.154624E-2,-6.068674E-1,-1.0829991E0,-2.8014305E-1,-5.519888E-1,-1.8280709E-1,-4.0367104E-2],"categories":[],"categories_nodes":[],"categories_segments":[],"categories_sizes":[],"default_left":[1,1,1,1,1,1,1,0,1,0,1,1,0,0,0,1,1,0,0,0,1,0,0,0,0,0,0],"id":15,"left_children":[1,3,5,7,9,11,13,-1,15,-1,17,19,-1,-1,-1,21,23,-1,-1,-1,25,-1,-1,-1,-1,-1,-1],"loss_changes":[8.550528E0,8.946266E-1,1.7427728E0,1.4159203E-2,1.8475556E-1,1.7602119E-1,3.883314E-2,0E0,7.7983856E-2,0E0,1.0608804E-1,4.746711E-2,0E0,0E0,0E0,9.379959E-2,2.2266626E-2,0E0,0E0,0E0,4.465586E-2,0E0,0E0,0E0,0E0,0E0,0E0],"parents":[2147483647,0,0,1,1,2,2,3,3,4,4,5,5,6,6,8,8,10,10,11,11,15,15,16,16,20,20],"right_children":[2,4,6,8,10,12,14,-1,16,-1,18,20,-1,-1,-1,22,24,-1,-1,-1,26,-1,-1,-1,-1,-1,-1],"split_conditions":[-2.499588E0,-2.6302643E0,-1.9580832E0,-2.7392254E0,-2.6269732E0,-2.224306E0,-1.4415131E0,-1.5515044E-2,-2.6541824E0,2.6247502E-4,-2.6170578E0,-2.4763641E0,7.2965287E-3,1.4552126E-2,3.0467993E-2,-2.6624365E0,-2.647132E0,-2.61377E-2,-1.1385815E-2,4.864588E-3,-2.4523325E0,-3.0343369E-2,-5.4149956E-2,-1.4007153E-2,-2.7599439E-2,-9.140355E-3,-2.0183553E-3],"split_indices":[0,0,0,0,0,0,0,0,0,0,0,0,0,0,0,0,0,0,0,0,0,0,0,0,0,0,0],"split_type":[0,0,0,0,0,0,0,0,0,0,0,0,0,0,0,0,0,0,0,0,0,0,0,0,0,0,0],"sum_hessian":[7.2E1,4.3E1,2.9E1,3E1,1.3E1,2E1,9E0,3E0,2.7E1,2E0,1.1E1,1.5E1,5E0,4E0,5E0,1.8E1,9E0,2E0,9E0,1E0,1.4E1,1.6E1,2E0,5E0,4E0,2E0,1.2E1],"tree_param":{"num_deleted":"0","num_feature":"1","num_nodes":"27","size_leaf_vector":"0"}},{"base_weights":[-2.3566411E-1,-5.1779526E-1,1.4199752E-1,-5.944186E-1,-2.7670196E-1,-3.8350802E-2,4.4577393E-1,-2.986646E-1,-6.1543995E-1,5.074521E-3,-3.335647E-1,-8.7733604E-2,5.2862946E-2,2.0898092E-1,5.380478E-1,-6.827342E-1,-4.260369E-1,-5.0532883E-1,-2.2745757E-1,2.2959307E-2,-9.801454E-2,6.4533176E-3,9.7659245E-2,-5.7830894E-1,-1.0468991E0,-2.6847044E-1,-5.2990925E-1,-2.0047437E-1,-7.277002E-2,4.5319647E-2,-1.4593177E-2],"categories":[],"categories_nodes":[],"categories_segments":[],"categories_sizes":[],"default_left":[1,1,1,1,1,1,1,0,1,0,1,1,1,0,0,1,1,0,0,0,1,1,0,0,0,0,0,0,0,0,0],"id":16,"left_children":[1,3,5,7,9,11,13,-1,15,-1,17,19,21,-1,-1,23,25,-1,-1,-1,27,29,-1,-1,-1,-1,-1,-1,-1,-1,-1],"loss_changes":[7.851684E0,6.114044E-1,1.7702339E0,8.92067E-3,1.9396365E-1,9.923006E-2,1.497562E-1,0E0,6.6010475E-2,0E0,6.7313194E-2,1.8182732E-2,1.6001608E-2,0E0,0E0,1.1710167E-1,2.1403074E-2,0E0,0E0,0E0,1.9036613E-2,4.7513572E-3,0E0,0E0,0E0,0E0,0E0,0E0,0E0,0E0,0E0],"parents":[2147483647,0,0,1,1,2,2,3,3,4,4,5,5,6,6,8,8,10,10,11,11,12,12,15,15,16,16,20,20,21,21],"right_children":[2,4,6,8,10,12,14,-1,16,-1,18,20,22,-1,-1,24,26,-1,-1,-1,28,30,-1,-1,-1,-1,-1,-1,-1,-1,-1],"split_conditions":[-2.5468388E0,-2.6302643E0,-2.0592117E0,-2.7392254E0,-2.6269732E0,-2.318428E0,-1.8871975E0,-1.493323E-2,-2.6541824E0,2.5372606E-4,-2.6170578E0,-2.5232105E0,-2.224306E0,1.0449046E-2,2.690239E-2,-2.6624365E0,-2.647132E0,-2.5266442E-2,-1.1372878E-2,1.1479653E-3,-2.499588E0,-2.2951984E0,4.8829624E-3,-2.8915448E-2,-5.2344956E-2,-1.3423522E-2,-2.6495462E-2,-1.0023719E-2,-3.638501E-3,2.2659823E-3,-7.296588E-4],"split_indices":[0,0,0,0,0,0,0,0,0,0,0,0,0,0,0,0,0,0,0,0,0,0,0,0,0,0,0,0,0,0,0],"split_type":[0,0,0,0,0,0,0,0,0,0,0,0,0,0,0,0,0,0,0,0,0,0,0,0,0,0,0,0,0,0,0],"sum_hessian":[7.2E1,4.1E1,3.1E1,3E1,1.1E1,2E1,1.1E1,3E0,2.7E1,2E0,9E0,1.3E1,7E0,4E0,7E0,1.8E1,9E0,2E0,7E0,1E0,1.2E1,4E0,3E0,1.6E1,2E0,5E0,4E0,1E0,1.1E1,1E0,3E0],"tree_param":{"num_deleted":"0","num_feature":"1","num_nodes":"31","size_leaf_vector":"0"}},{"base_weights":[-2.2581573E-1,-4.813337E-1,1.5647116E-1,-5.690884E-1,-2.5263873E-1,1.2031623E-4,4.6916083E-1,-1.633456E-1,-5.771683E-1,4.905363E-3,-2.9597154E-1,-5.600373E-2,1.2036894E-1,2.644602E-1,5.6155115E-1,-6.2989426E-1,-4.0872693E-1,-4.8848453E-1,-2.0862047E-1,9.667872E-2,-7.381524E-2,1.9514397E-2,1.3392563E-1,-5.364091E-1,-1.0120025E0,-2.5728416E-1,-5.087129E-1,-1.7428786E-1,-4.254582E-2],"categories":[],"categories_nodes":[],"categories_segments":[],"categories_sizes":[],"default_left":[1,1,1,1,1,1,1,0,1,0,1,1,1,0,0,1,1,0,0,0,1,0,0,0,0,0,0,0,0],"id":17,"left_children":[1,3,5,7,9,11,13,-1,15,-1,17,19,21,-1,-1,23,25,-1,-1,-1,27,-1,-1,-1,-1,-1,-1,-1,-1],"loss_changes":[7.2060404E0,7.392645E-1,1.4666222E0,7.3518753E-3,1.5769339E-1,1.4846674E-1,4.0615797E-2,0E0,8.982658E-3,0E0,9.9886775E-2,4.792895E-2,6.9573E-3,0E0,0E0,2.0730305E-1,2.0537734E-2,0E0,0E0,0E0,3.6568865E-2,0E0,0E0,0E0,0E0,0E0,0E0,0E0,0E0],"parents":[2147483647,0,0,1,1,2,2,3,3,4,4,5,5,6,6,8,8,10,10,11,11,12,12,15,15,16,16,20,20],"right_children":[2,4,6,8,10,12,14,-1,16,-1,18,20,22,-1,-1,24,26,-1,-1,-1,28,-1,-1,-1,-1,-1,-1,-1,-1],"split_conditions":[-2.499588E0,-2.6302643E0,-1.9580832E0,-2.7580395E0,-2.6269732E0,-2.2533855E0,-1.4415131E0,-8.167281E-3,-2.6541824E0,2.4526817E-4,-2.6170578E0,-2.4763641E0,-2.224306E0,1.322301E-2,2.8077558E-2,-2.6624365E0,-2.647132E0,-2.4424227E-2,-1.0431024E-2,4.833936E-3,-2.4523325E0,9.757198E-4,6.6962815E-3,-2.6820455E-2,-5.0600123E-2,-1.2864209E-2,-2.5435645E-2,-8.714393E-3,-2.1272912E-3],"split_indices":[0,0,0,0,0,0,0,0,0,0,0,0,0,0,0,0,0,0,0,0,0,0,0,0,0,0,0,0,0],"split_type":[0,0,0,0,0,0,0,0,0,0,0,0,0,0,0,0,0,0,0,0,0,0,0,0,0,0,0,0,0],"sum_hessian":[7.2E1,4.3E1,2.9E1,3E1,1.3E1,2E1,9E0,1E0,2.9E1,2E0,1.1E1,1.4E1,6E0,4E0,5E0,2E1,9E0,2E0,9E0,1E0,1.3E1,1E0,5E0,1.8E1,2E0,5E0,4E0,2E0,1.1E1],"tree_param":{"num_deleted":"0","num_feature":"1","num_nodes":"29","size_leaf_vector":"0"}},{"base_weights":[-2.1610758E-1,-4.7507033E-1,1.3053438E-1,-5.4463035E-1,-2.5578442E-1,-3.50191E-2,4.093751E-1,-2.7201262E-1,-5.6412464E-1,4.7418475E-3,-3.0836385E-1,-8.063542E-2,4.9186856E-2,2.4051176E-1,5.381532E-1,-6.2496233E-1,-3.9212057E-1,-4.7220173E-1,-2.0837915E-1,2.760084E-2,-9.108443E-2,7.519138E-3,8.897479E-2,-5.258516E-1,-9.7826904E-1,-2.4656399E-1,-4.8836434E-1,-1.90247E-1,-6.6966966E-2,4.5250297E-2,-1.3226226E-2],"categories":[],"categories_nodes":[],"categories_segments":[],"categories_sizes":[],"default_left":[1,1,1,1,1,1,1,0,1,0,1,1,1,0,0,1,1,0,0,0,1,1,0,0,0,0,0,0,0,0,0],"id":18,"left_children":[1,3,5,7,9,11,13,-1,15,-1,17,19,21,-1,-1,23,25,-1,-1,-1,27,29,-1,-1,-1,-1,-1,-1,-1,-1,-1],"loss_changes":[6.6150293E0,5.013399E-1,1.4915535E0,1.1300087E-2,1.6584206E-1,8.463069E-2,1.315186E-1,0E0,4.7941208E-2,0E0,6.54158E-2,1.8347472E-2,1.2593964E-2,0E0,0E0,1.5088892E-1,1.967609E-2,0E0,0E0,0E0,1.8349878E-2,4.5122234E-3,0E0,0E0,0E0,0E0,0E0,0E0,0E0,0E0,0E0],"parents":[2147483647,0,0,1,1,2,2,3,3,4,4,5,5,6,6,8,8,10,10,11,11,12,12,15,15,16,16,20,20,21,21],"right_children":[2,4,6,8,10,12,14,-1,16,-1,18,20,22,-1,-1,24,26,-1,-1,-1,28,30,-1,-1,-1,-1,-1,-1,-1,-1,-1],"split_conditions":[-2.5468388E0,-2.6302643E0,-2.0592117E0,-2.7392254E0,-2.6269732E0,-2.318428E0,-1.4415131E0,-1.3600632E-2,-2.6541824E0,2.3709238E-4,-2.6170578E0,-2.5232105E0,-2.224306E0,1.2025588E-2,2.6907658E-2,-2.6624365E0,-2.647132E0,-2.3610087E-2,-1.0418958E-2,1.380042E-3,-2.499588E0,-2.2951984E0,4.4487393E-3,-2.6292581E-2,-4.8913453E-2,-1.2328199E-2,-2.4418218E-2,-9.51235E-3,-3.3483484E-3,2.2625148E-3,-6.613113E-4],"split_indices":[0,0,0,0,0,0,0,0,0,0,0,0,0,0,0,0,0,0,0,0,0,0,0,0,0,0,0,0,0,0,0],"split_type":[0,0,0,0,0,0,0,0,0,0,0,0,0,0,0,0,0,0,0,0,0,0,0,0,0,0,0,0,0,0,0],"sum_hessian":[7.2E1,4.1E1,3.1E1,3E1,1.1E1,2E1,1.1E1,3E0,2.7E1,2E0,9E0,1.3E1,7E0,6E0,5E0,1.8E1,9E0,2E0,7E0,1E0,1.2E1,4E0,3E0,1.6E1,2E0,5E0,4E0,1E0,1.1E1,1E0,3E0],"tree_param":{"num_deleted":"0","num_feature":"1","num_nodes":"31","size_leaf_vector":"0"}},{"base_weights":[-2.0702608E-1,-4.7667885E-1,9.9359185E-2,-5.637739E-1,-3.437472E-1,-5.117658E-2,3.921508E-1,-4.7830227E-1,-9.4566005E-1,-9.45946E-2,4.7483765E-2,2.302041E-1,5.157301E-1,-5.386931E-1,-1.0206583E-1,6.9173515E-2,-1.0915345E-1,7.4634193E-3,8.5638255E-2,-3.6637953E-1,-6.511518E-1,1.8030891E-1,-2.562937E-1,-1.9593668E-1,-6.389765E-2,4.411903E-2,-1.2730241E-2],"categories":[],"categories_nodes":[],"categories_segments":[],"categories_sizes":[],"default_left":[1,1,1,1,0,1,1,1,0,1,1,0,0,1,1,0,1,1,0,0,0,0,0,0,0,0,0],"id":19,"left_children":[1,3,5,7,-1,9,11,13,-1,15,17,-1,-1,19,21,-1,23,25,-1,-1,-1,-1,-1,-1,-1,-1,-1],"loss_changes":[6.0784492E0,2.577343E-1,1.5627153E0,2.6577806E-1,0E0,1.0729896E-1,1.2143588E-1,3.994422E-1,0E0,4.8083216E-2,1.1576492E-2,0E0,0E0,9.086037E-2,2.2041227E-1,0E0,5.0319225E-2,4.2627007E-3,0E0,0E0,0E0,0E0,0E0,0E0,0E0,0E0,0E0],"parents":[2147483647,0,0,1,1,2,2,3,3,5,5,6,6,7,7,9,9,10,10,13,13,14,14,16,16,17,17],"right_children":[2,4,6,8,-1,10,12,14,-1,16,18,-1,-1,20,22,-1,24,26,-1,-1,-1,-1,-1,-1,-1,-1,-1],"split_conditions":[-2.5905256E0,-2.6541824E0,-2.0592117E0,-2.6624365E0,-1.718736E-2,-2.318428E0,-1.4415131E0,-2.6756E0,-4.7283005E-2,-2.570877E0,-2.224306E0,1.1510205E-2,2.5786504E-2,-2.7000723E0,-2.6704407E0,3.4586757E-3,-2.499588E0,-2.2951984E0,4.281913E-3,-1.8318977E-2,-3.2557588E-2,9.015446E-3,-1.2814686E-2,-9.796835E-3,-3.1948823E-3,2.2059516E-3,-6.3651206E-4],"split_indices":[0,0,0,0,0,0,0,0,0,0,0,0,0,0,0,0,0,0,0,0,0,0,0,0,0,0,0],"split_type":[0,0,0,0,0,0,0,0,0,0,0,0,0,0,0,0,0,0,0,0,0,0,0,0,0,0,0],"sum_hessian":[7.2E1,3.8E1,3.4E1,2.1E1,1.7E1,2.3E1,1.1E1,1.9E1,2E0,1.6E1,7E0,6E0,5E0,1.6E1,3E0,1E0,1.5E1,4E0,3E0,8E0,8E0,1E0,2E0,4E0,1.1E1,1E0,3E0],"tree_param":{"num_deleted":"0","num_feature":"1","num_nodes":"27","size_leaf_vector":"0"}},{"base_weights":[-1.9784643E-1,-4.3543187E-1,1.2016715E-1,-5.087218E-1,-2.5251463E-1,-1.2841957E-2,4.1407138E-1,-2.4807292E-1,-5.2925545E-1,-1.3819566E-1,-2.8442264E-1,-6.0677927E-2,1.0516568E-1,2.3505317E-1,4.9424133E-1,-2.4636815E-1,1.6042033E-2,-4.4500342E-1,-1.8865202E-1,-8.989655E-2,-1.6569905E-2,3.7867814E-2,1.24511264E-1,3.1809226E-2,-1.0695378E-1,4.239641E-2,-3.1050295E-2],"categories":[],"categories_nodes":[],"categories_segments":[],"categories_sizes":[],"default_left":[1,1,1,1,1,1,1,0,0,1,1,1,1,0,0,0,0,0,0,1,1,0,0,0,0,0,0],"id":20,"left_children":[1,3,5,7,9,11,13,-1,-1,15,17,19,21,-1,-1,-1,-1,-1,-1,23,25,-1,-1,-1,-1,-1,-1],"loss_changes":[5.567868E0,4.3459225E-1,1.2562597E0,2.3916245E-2,1.1761725E-2,1.3621646E-1,2.7345896E-2,0E0,0E0,8.7373614E-2,6.9838405E-2,2.0419605E-2,4.398443E-3,0E0,0E0,0E0,0E0,0E0,0E0,2.4161741E-2,8.147262E-3,0E0,0E0,0E0,0E0,0E0,0E0],"parents":[2147483647,0,0,1,1,2,2,3,3,4,4,5,5,6,6,9,9,10,10,11,11,12,12,19,19,20,20],"right_children":[2,4,6,8,10,12,14,-1,-1,16,18,20,22,-1,-1,-1,-1,-1,-1,24,26,-1,-1,-1,-1,-1,-1],"split_conditions":[-2.5468388E0,-2.6457272E0,-1.9580832E0,-2.7392254E0,-2.6269732E0,-2.2533855E0,-1.4415131E0,-1.24036465E-2,-2.6462773E-2,-2.6302643E0,-2.6170578E0,-2.3656788E0,-2.171197E0,1.17526585E-2,2.4712067E-2,-1.2318408E-2,8.021017E-4,-2.2250172E-2,-9.432602E-3,-2.5232105E0,-2.343216E0,1.8933908E-3,6.225563E-3,1.5904614E-3,-5.347689E-3,2.1198206E-3,-1.5525147E-3],"split_indices":[0,0,0,0,0,0,0,0,0,0,0,0,0,0,0,0,0,0,0,0,0,0,0,0,0,0,0],"split_type":[0,0,0,0,0,0,0,0,0,0,0,0,0,0,0,0,0,0,0,0,0,0,0,0,0,0,0],"sum_hessian":[7.2E1,4.1E1,3.1E1,2.8E1,1.3E1,2.2E1,9E0,3E0,2.5E1,4E0,9E0,1.6E1,6E0,4E0,5E0,2E0,2E0,2E0,7E0,9E0,7E0,2E0,4E0,1E0,8E0,1E0,6E0],"tree_param":{"num_deleted":"0","num_feature":"1","num_nodes":"27","size_leaf_vector":"0"}},{"base_weights":[-1.8851125E-1,-4.0340015E-1,1.3294281E-1,-4.7640714E-1,-2.129275E-1,8.638785E-4,3.970143E-1,-2.3877019E-1,-4.9334073E-1,1.55073E-2,-2.5229225E-1,-4.5955278E-2,1.0106723E-1,2.6742217E-1,5.2454686E-1,-5.4822165E-1,-3.3973294E-1,-4.3016997E-1,-1.736997E-1,1.0020721E-1,-6.355312E-2,1.8728748E-2,1.11668855E-1,-4.5451307E-1,-8.964961E-1,-1.9991538E-1,-4.3956742E-1,-1.60551E-1,-3.4007553E-2],"categories":[],"categories_nodes":[],"categories_segments":[],"categories_sizes":[],"default_left":[1,1,1,1,1,1,1,0,1,0,1,1,1,0,0,1,1,0,0,0,1,0,0,0,0,0,0,0,0],"id":21,"left_children":[1,3,5,7,9,11,13,-1,15,-1,17,19,21,-1,-1,23,25,-1,-1,-1,27,-1,-1,-1,-1,-1,-1,-1,-1],"loss_changes":[5.096244E0,5.1041603E-1,1.0460054E0,6.9503784E-3,1.2980431E-1,1.0316474E-1,2.4996638E-2,0E0,4.979515E-2,0E0,9.303796E-2,4.495063E-2,4.019037E-3,0E0,0E0,2.1262026E-1,5.170989E-2,0E0,0E0,0E0,3.466205E-2,0E0,0E0,0E0,0E0,0E0,0E0,0E0,0E0],"parents":[2147483647,0,0,1,1,2,2,3,3,4,4,5,5,6,6,8,8,10,10,11,11,12,12,15,15,16,16,20,20],"right_children":[2,4,6,8,10,12,14,-1,16,-1,18,20,22,-1,-1,24,26,-1,-1,-1,28,-1,-1,-1,-1,-1,-1,-1,-1],"split_conditions":[-2.499588E0,-2.6302643E0,-1.9580832E0,-2.7392254E0,-2.6269732E0,-2.2533855E0,-1.1343517E0,-1.19385095E-2,-2.6541824E0,7.7536504E-4,-2.6170578E0,-2.4763641E0,-2.224306E0,1.3371109E-2,2.6227344E-2,-2.6624365E0,-2.647132E0,-2.1508498E-2,-8.684985E-3,5.0103604E-3,-2.4523325E0,9.364374E-4,5.5834427E-3,-2.2725655E-2,-4.4824805E-2,-9.995769E-3,-2.197837E-2,-8.02755E-3,-1.7003777E-3],"split_indices":[0,0,0,0,0,0,0,0,0,0,0,0,0,0,0,0,0,0,0,0,0,0,0,0,0,0,0,0,0],"split_type":[0,0,0,0,0,0,0,0,0,0,0,0,0,0,0,0,0,0,0,0,0,0,0,0,0,0,0,0,0],"sum_hessian":[7.2E1,4.3E1,2.9E1,3E1,1.3E1,2E1,9E0,3E0,2.7E1,2E0,1.1E1,1.4E1,6E0,6E0,3E0,1.8E1,9E0,2E0,9E0,1E0,1.3E1,1E0,5E0,1.6E1,2E0,5E0,4E0,2E0,1.1E1],"tree_param":{"num_deleted":"0","num_feature":"1","num_nodes":"29","size_leaf_vector":"0"}},{"base_weights":[-1.8044846E-1,-4.1725335E-1,8.857551E-2,-4.9464622E-1,-2.994813E-1,-4.394062E-2,3.4622648E-1,-4.141189E-1,-8.66613E-1,-8.218451E-2,4.2820223E-2,1.824546E-1,4.3714145E-1,-4.7284082E-1,-6.1021052E-2,7.6502964E-2,-9.688391E-2,8.789909E-3,7.465306E-2,-3.1465504E-1,-5.784887E-1,2.0039539E-1,-2.1495833E-1,-1.7662674E-1,-5.558407E-2,4.4642508E-2,-1.1333868E-2],"categories":[],"categories_nodes":[],"categories_segments":[],"categories_sizes":[],"default_left":[1,1,1,1,0,1,1,1,0,1,1,0,0,1,1,0,1,1,0,0,0,0,0,0,0,0,0],"id":22,"left_children":[1,3,5,7,-1,9,11,13,-1,15,17,-1,-1,19,21,-1,23,25,-1,-1,-1,-1,-1,-1,-1,-1,-1],"loss_changes":[4.6875105E0,2.073369E-1,1.2102152E0,3.0009604E-1,0E0,8.315289E-2,9.891331E-2,3.8583827E-1,0E0,4.70663E-2,8.010059E-3,0E0,0E0,1.0207939E-1,2.040436E-1,0E0,4.2876214E-2,4.113421E-3,0E0,0E0,0E0,0E0,0E0,0E0,0E0,0E0,0E0],"parents":[2147483647,0,0,1,1,2,2,3,3,5,5,6,6,7,7,9,9,10,10,13,13,14,14,16,16,17,17],"right_children":[2,4,6,8,-1,10,12,14,-1,16,18,-1,-1,20,22,-1,24,26,-1,-1,-1,-1,-1,-1,-1,-1,-1],"split_conditions":[-2.5905256E0,-2.6541824E0,-2.0592117E0,-2.6624365E0,-1.4974065E-2,-2.318428E0,-1.7213345E0,-2.6756E0,-4.333065E-2,-2.570877E0,-2.224306E0,9.12273E-3,2.1857074E-2,-2.7000723E0,-2.6704407E0,3.8251483E-3,-2.499588E0,-2.2951984E0,3.732653E-3,-1.5732752E-2,-2.8924435E-2,1.001977E-2,-1.0747916E-2,-8.831337E-3,-2.7792035E-3,2.2321255E-3,-5.6669343E-4],"split_indices":[0,0,0,0,0,0,0,0,0,0,0,0,0,0,0,0,0,0,0,0,0,0,0,0,0,0,0],"split_type":[0,0,0,0,0,0,0,0,0,0,0,0,0,0,0,0,0,0,0,0,0,0,0,0,0,0,0],"sum_hessian":[7.2E1,3.8E1,3.4E1,2.1E1,1.7E1,2.3E1,1.1E1,1.9E1,2E0,1.6E1,7E0,5E0,6E0,1.6E1,3E0,1E0,1.5E1,4E0,3E0,8E0,8E0,1E0,2E0,4E0,1.1E1,1E0,3E0],"tree_param":{"num_deleted":"0","num_feature":"1","num_nodes":"27","size_leaf_vector":"0"}},{"base_weights":[-1.7245476E-1,-3.9904937E-1,8.496367E-2,-4.7394645E-1,-2.8533912E-1,-4.1843057E-2,3.3149683E-1,-3.9568222E-1,-8.377259E-1,-1.4525786E-1,-3.0367154E-1,-9.425324E-2,1.8421562E-2,1.929691E-1,4.3786302E-1,-4.5182565E-1,-5.8152042E-2,-1.6453724E-1,-4.370985E-2,-3.3511496E-1,-1.7376165E-1,7.459039E-2,-1.1453941E-1,-1.2930397E-2,6.490038E-2,-3.6824748E-1,-7.191079E-1,1.953855E-1,-2.0779306E-1,-1.6956167E-1,-6.583306E-2,4.35763E-2,-2.7227968E-2,1.854387E-2,7.185355E-2],"categories":[],"categories_nodes":[],"categories_segments":[],"categories_sizes":[],"default_left":[1,1,1,1,1,1,1,1,0,1,1,1,1,0,0,1,1,0,0,0,0,0,1,1,1,0,0,0,0,0,0,0,0,0,0],"id":23,"left_children":[1,3,5,7,9,11,13,15,-1,17,19,21,23,-1,-1,25,27,-1,-1,-1,-1,-1,29,31,33,-1,-1,-1,-1,-1,-1,-1,-1,-1,-1],"loss_changes":[4.291968E0,1.9691038E-1,1.108043E0,2.948866E-1,2.1137E-3,7.75398E-2,9.232211E-2,3.5272765E-1,0E0,6.3923746E-4,3.0421019E-3,5.307103E-2,1.8325616E-2,0E0,0E0,1.14952564E-1,1.9235823E-1,0E0,0E0,0E0,0E0,0E0,2.0996436E-2,7.649762E-3,2.7917884E-4,0E0,0E0,0E0,0E0,0E0,0E0,0E0,0E0,0E0,0E0],"parents":[2147483647,0,0,1,1,2,2,3,3,4,4,5,5,6,6,7,7,9,9,10,10,11,11,12,12,15,15,16,16,22,22,23,23,24,24],"right_children":[2,4,6,8,10,12,14,16,-1,18,20,22,24,-1,-1,26,28,-1,-1,-1,-1,-1,30,32,34,-1,-1,-1,-1,-1,-1,-1,-1,-1,-1],"split_conditions":[-2.5905256E0,-2.6541824E0,-2.0592117E0,-2.6624365E0,-2.648861E0,-2.3656788E0,-1.4415131E0,-2.6756E0,-4.1886296E-2,-2.6507492E0,-2.6170578E0,-2.570877E0,-2.2533855E0,9.648455E-3,2.1893151E-2,-2.681243E0,-2.6704407E0,-8.226862E-3,-2.1854925E-3,-1.6755749E-2,-8.688083E-3,3.7295197E-3,-2.499588E0,-2.343216E0,-2.224306E0,-1.8412374E-2,-3.5955396E-2,9.769275E-3,-1.0389653E-2,-8.478084E-3,-3.2916532E-3,2.178815E-3,-1.3613984E-3,9.271935E-4,3.5926774E-3],"split_indices":[0,0,0,0,0,0,0,0,0,0,0,0,0,0,0,0,0,0,0,0,0,0,0,0,0,0,0,0,0,0,0,0,0,0,0],"split_type":[0,0,0,0,0,0,0,0,0,0,0,0,0,0,0,0,0,0,0,0,0,0,0,0,0,0,0,0,0,0,0,0,0,0,0],"sum_hessian":[7.2E1,3.8E1,3.4E1,2.1E1,1.7E1,2.3E1,1.1E1,1.9E1,2E0,3E0,1.4E1,1.2E1,1.1E1,6E0,5E0,1.6E1,3E0,2E0,1E0,1E1,4E0,1E0,1.1E1,7E0,4E0,1.4E1,2E0,1E0,2E0,4E0,7E0,1E0,6E0,1E0,3E0],"tree_param":{"num_deleted":"0","num_feature":"1","num_nodes":"35","size_leaf_vector":"0"}},{"base_weights":[-1.652552E-1,-3.6533654E-1,1.02515794E-1,-4.2761382E-1,-2.1023816E-1,-9.746038E-3,3.5046643E-1,-2.843038E-1,-4.6866983E-1,-9.97241E-2,-2.4447137E-1,-4.958217E-2,8.839114E-2,2.3091562E-1,4.7206375E-1,-3.488232E-1,1.1592564E-1,-5.316872E-1,-2.998057E-1,-2.0235042E-1,3.614359E-2,-3.946778E-1,-1.5758504E-1,4.401119E-2,-5.8182452E-2,3.1870294E-2,1.0462542E-1,-4.178513E-1,-8.098017E-1,-1.704154E-1,-4.5865104E-1,-1.6492137E-1,-4.0071767E-2],"categories":[],"categories_nodes":[],"categories_segments":[],"categories_sizes":[],"default_left":[1,1,1,1,1,1,1,1,1,1,1,1,1,0,0,0,0,1,1,0,0,0,0,0,1,0,0,0,0,0,0,0,0],"id":24,"left_children":[1,3,5,7,9,11,13,15,17,19,21,23,25,-1,-1,-1,-1,27,29,-1,-1,-1,-1,-1,31,-1,-1,-1,-1,-1,-1,-1,-1],"loss_changes":[3.9484992E0,3.1578207E-1,8.9414823E-1,3.7383556E-2,2.8585851E-2,9.4298944E-2,3.636372E-2,2.7284056E-1,6.406593E-2,7.703167E-2,6.831348E-2,1.6244479E-2,3.0885823E-3,0E0,0E0,0E0,0E0,1.0485506E-1,8.626312E-2,0E0,0E0,0E0,0E0,0E0,2.432115E-2,0E0,0E0,0E0,0E0,0E0,0E0,0E0,0E0],"parents":[2147483647,0,0,1,1,2,2,3,3,4,4,5,5,6,6,7,7,8,8,9,9,10,10,11,11,12,12,17,17,18,18,24,24],"right_children":[2,4,6,8,10,12,14,16,18,20,22,24,26,-1,-1,-1,-1,28,30,-1,-1,-1,-1,-1,32,-1,-1,-1,-1,-1,-1,-1,-1],"split_conditions":[-2.5468388E0,-2.6457272E0,-1.9580832E0,-2.7000723E0,-2.6269732E0,-2.2533855E0,-1.1343517E0,-2.7071009E0,-2.6541824E0,-2.6302643E0,-2.6170578E0,-2.5232105E0,-2.171197E0,1.1545781E-2,2.3603188E-2,-1.744116E-2,5.796282E-3,-2.6624365E0,-2.647132E0,-1.01175215E-2,1.8071795E-3,-1.9733889E-2,-7.879253E-3,2.2005595E-3,-2.499588E0,1.5935147E-3,5.231271E-3,-2.0892566E-2,-4.0490087E-2,-8.52077E-3,-2.2932552E-2,-8.246069E-3,-2.0035885E-3],"split_indices":[0,0,0,0,0,0,0,0,0,0,0,0,0,0,0,0,0,0,0,0,0,0,0,0,0,0,0,0,0,0,0,0,0],"split_type":[0,0,0,0,0,0,0,0,0,0,0,0,0,0,0,0,0,0,0,0,0,0,0,0,0,0,0,0,0,0,0,0,0],"sum_hessian":[7.2E1,4.1E1,3.1E1,2.8E1,1.3E1,2.2E1,9E0,8E0,2E1,4E0,9E0,1.6E1,6E0,6E0,3E0,7E0,1E0,1.3E1,7E0,2E0,2E0,2E0,7E0,1E0,1.5E1,2E0,4E0,1.1E1,2E0,5E0,2E0,1E0,1.4E1],"tree_param":{"num_deleted":"0","num_feature":"1","num_nodes":"33","size_leaf_vector":"0"}},{"base_weights":[-1.5845107E-1,-3.670345E-1,7.8497656E-2,-4.3523932E-1,-2.6328227E-1,-3.8026694E-2,3.050049E-1,-3.6134198E-1,-7.828083E-1,-1.3420747E-1,-2.801501E-1,-8.679687E-2,1.7976554E-2,2.0473482E-1,4.5436135E-1,-4.1575995E-1,-3.973011E-2,-1.5337215E-1,-3.835672E-2,-3.0906475E-1,-1.6050778E-1,7.666526E-2,-1.06807485E-1,-1.04285665E-2,5.9829436E-2,-3.3495277E-1,-6.8120927E-1,2.0094715E-1,-1.8693824E-1,-1.8543907E-1,-7.2537266E-2,4.348868E-2,-2.43437E-2,1.7283529E-2,6.614503E-2],"categories":[],"categories_nodes":[],"categories_segments":[],"categories_sizes":[],"default_left":[1,1,1,1,1,1,1,1,0,1,1,1,1,0,0,1,1,0,0,0,0,0,1,1,1,0,0,0,0,0,0,0,0,0,0],"id":25,"left_children":[1,3,5,7,9,11,13,15,-1,17,19,21,23,-1,-1,25,27,-1,-1,-1,-1,-1,29,31,33,-1,-1,-1,-1,-1,-1,-1,-1,-1,-1],"loss_changes":[3.636733E0,1.613884E-1,9.353747E-1,2.8219557E-1,1.5915632E-3,6.711123E-2,8.668816E-2,3.335111E-1,0E0,1.4649332E-3,2.2839308E-3,5.071114E-2,1.488997E-2,0E0,0E0,1.3648081E-1,1.7928332E-1,0E0,0E0,0E0,0E0,0E0,1.8885404E-2,7.0608E-3,2.0029396E-4,0E0,0E0,0E0,0E0,0E0,0E0,0E0,0E0,0E0,0E0],"parents":[2147483647,0,0,1,1,2,2,3,3,4,4,5,5,6,6,7,7,9,9,10,10,11,11,12,12,15,15,16,16,22,22,23,23,24,24],"right_children":[2,4,6,8,10,12,14,16,-1,18,20,22,24,-1,-1,26,28,-1,-1,-1,-1,-1,30,32,34,-1,-1,-1,-1,-1,-1,-1,-1,-1,-1],"split_conditions":[-2.5905256E0,-2.6541824E0,-2.0592117E0,-2.6624365E0,-2.648861E0,-2.3656788E0,-1.1343517E0,-2.6756E0,-3.9140414E-2,-2.6507492E0,-2.6170578E0,-2.570877E0,-2.2533855E0,1.0236741E-2,2.2718068E-2,-2.681243E0,-2.6704407E0,-7.668608E-3,-1.9178361E-3,-1.5453237E-2,-8.025389E-3,3.833263E-3,-2.5468388E0,-2.343216E0,-2.224306E0,-1.6747639E-2,-3.4060463E-2,1.00473575E-2,-9.346913E-3,-9.271953E-3,-3.6268632E-3,2.174434E-3,-1.2171849E-3,8.641765E-4,3.3072517E-3],"split_indices":[0,0,0,0,0,0,0,0,0,0,0,0,0,0,0,0,0,0,0,0,0,0,0,0,0,0,0,0,0,0,0,0,0,0,0],"split_type":[0,0,0,0,0,0,0,0,0,0,0,0,0,0,0,0,0,0,0,0,0,0,0,0,0,0,0,0,0,0,0,0,0,0,0],"sum_hessian":[7.2E1,3.8E1,3.4E1,2.1E1,1.7E1,2.3E1,1.1E1,1.9E1,2E0,3E0,1.4E1,1.2E1,1.1E1,8E0,3E0,1.6E1,3E0,2E0,1E0,1E1,4E0,1E0,1.1E1,7E0,4E0,1.4E1,2E0,1E0,2E0,2E0,9E0,1E0,6E0,1E0,3E0],"tree_param":{"num_deleted":"0","num_feature":"1","num_nodes":"35","size_leaf_vector":"0"}},{"base_weights":[-1.5180653E-1,-3.51819E-1,7.540186E-2,-4.1753408E-1,-2.5195512E-1,-2.292078E-2,3.2350054E-1,-3.4578028E-1,-7.567147E-1,-1.5528785E-1,-2.771896E-1,-6.937548E-2,5.8344282E-2,2.1224488E-1,4.373228E-1,-3.979607E-1,-3.7568495E-2,-4.330605E-1,-2.0948032E-1,7.474863E-2,-8.305502E-2,1.0755825E-2,8.827728E-2,-3.1932163E-1,-6.585023E-1,1.9592348E-1,-1.8070698E-1,-8.403738E-2,-2.6915663E-1,-1.5325889E-1,-4.688216E-2,4.5817524E-2,-9.463981E-3],"categories":[],"categories_nodes":[],"categories_segments":[],"categories_sizes":[],"default_left":[1,1,1,1,1,1,1,1,0,0,1,1,1,0,0,1,1,0,1,0,1,1,0,0,0,0,0,0,0,0,0,0,0],"id":26,"left_children":[1,3,5,7,9,11,13,15,-1,-1,17,19,21,-1,-1,23,25,-1,27,-1,29,31,-1,-1,-1,-1,-1,-1,-1,-1,-1,-1,-1],"loss_changes":[3.3439775E0,1.5074015E-1,8.611949E-1,2.737677E-1,8.6402893E-4,1.022014E-1,3.381419E-2,3.0670142E-1,0E0,0E0,4.648316E-2,3.9724633E-2,1.3295155E-2,0E0,0E0,1.3803458E-1,1.6909148E-1,0E0,5.9726506E-2,0E0,3.34465E-2,3.97832E-3,0E0,0E0,0E0,0E0,0E0,0E0,0E0,0E0,0E0,0E0,0E0],"parents":[2147483647,0,0,1,1,2,2,3,3,4,4,5,5,6,6,7,7,10,10,11,11,12,12,15,15,16,16,18,18,20,20,21,21],"right_children":[2,4,6,8,10,12,14,16,-1,-1,18,20,22,-1,-1,24,26,-1,28,-1,30,32,-1,-1,-1,-1,-1,-1,-1,-1,-1,-1,-1],"split_conditions":[-2.5905256E0,-2.6541824E0,-1.9580832E0,-2.6624365E0,-2.647132E0,-2.318428E0,-1.1343517E0,-2.6756E0,-3.7835736E-2,-7.7643925E-3,-2.6457272E0,-2.570877E0,-2.224306E0,1.0612245E-2,2.186614E-2,-2.681243E0,-2.6704407E0,-2.1653024E-2,-2.6269732E0,3.7374315E-3,-2.499588E0,-2.2951984E0,4.413864E-3,-1.5966082E-2,-3.2925114E-2,9.796174E-3,-9.035349E-3,-4.201869E-3,-1.3457832E-2,-7.6629445E-3,-2.344108E-3,2.2908763E-3,-4.7319903E-4],"split_indices":[0,0,0,0,0,0,0,0,0,0,0,0,0,0,0,0,0,0,0,0,0,0,0,0,0,0,0,0,0,0,0,0,0],"split_type":[0,0,0,0,0,0,0,0,0,0,0,0,0,0,0,0,0,0,0,0,0,0,0,0,0,0,0,0,0,0,0,0,0],"sum_hessian":[7.2E1,3.8E1,3.4E1,2.1E1,1.7E1,2.5E1,9E0,1.9E1,2E0,5E0,1.2E1,1.6E1,9E0,6E0,3E0,1.6E1,3E0,2E0,1E1,1E0,1.5E1,4E0,5E0,1.4E1,2E0,1E0,2E0,4E0,6E0,4E0,1.1E1,1E0,3E0],"tree_param":{"num_deleted":"0","num_feature":"1","num_nodes":"33","size_leaf_vector":"0"}},{"base_weights":[-1.4559433E-1,-3.2249108E-1,9.113249E-2,-3.7797272E-1,-1.8452975E-1,-8.2388595E-3,3.1057337E-1,-2.4230362E-1,-4.1811794E-1,-8.0675885E-2,-2.180037E-1,-4.3015547E-2,7.739579E-2,2.0314868E-1,4.2092323E-1,-3.0493766E-1,1.2938435E-1,-4.7369257E-1,-2.6859757E-1,-1.8250202E-1,4.8042208E-2,-3.6224782E-1,-1.366617E-1,4.8555806E-2,-5.1773496E-2,2.8103938E-2,9.1491744E-2,-8.898106E-2,-3.2307702E-1,-3.697686E-1,-7.314909E-1,-1.4881751E-1,-4.1862515E-1,-1.5515344E-1,-3.4537937E-2],"categories":[],"categories_nodes":[],"categories_segments":[],"categories_sizes":[],"default_left":[1,1,1,1,1,1,1,1,1,1,1,1,1,0,0,1,0,1,1,0,0,0,0,0,1,0,0,0,0,0,0,0,0,0,0],"id":27,"left_children":[1,3,5,7,9,11,13,15,17,19,21,23,25,-1,-1,27,-1,29,31,-1,-1,-1,-1,-1,33,-1,-1,-1,-1,-1,-1,-1,-1,-1,-1],"loss_changes":[3.0863526E0,2.5173378E-1,7.003552E-1,5.6636333E-2,3.1081945E-2,7.182528E-2,3.3033013E-2,2.4897707E-1,4.7267675E-2,7.430212E-2,6.7825675E-2,1.6147517E-2,2.292432E-3,0E0,0E0,2.5907755E-3,0E0,1.0459733E-1,8.1463695E-2,0E0,0E0,0E0,0E0,0E0,2.3150295E-2,0E0,0E0,0E0,0E0,0E0,0E0,0E0,0E0,0E0,0E0],"parents":[2147483647,0,0,1,1,2,2,3,3,4,4,5,5,6,6,7,7,8,8,9,9,10,10,11,11,12,12,15,15,17,17,18,18,24,24],"right_children":[2,4,6,8,10,12,14,16,18,20,22,24,26,-1,-1,28,-1,30,32,-1,-1,-1,-1,-1,34,-1,-1,-1,-1,-1,-1,-1,-1,-1,-1],"split_conditions":[-2.5468388E0,-2.6457272E0,-1.9580832E0,-2.7000723E0,-2.6269732E0,-2.2533855E0,-1.1343517E0,-2.7071009E0,-2.6541824E0,-2.6302643E0,-2.6170578E0,-2.5232105E0,-2.171197E0,1.0157434E-2,2.1046162E-2,-2.7580395E0,6.4692176E-3,-2.6624365E0,-2.647132E0,-9.125101E-3,2.4021105E-3,-1.8112391E-2,-6.833085E-3,2.4277903E-3,-2.499588E0,1.405197E-3,4.574587E-3,-4.449053E-3,-1.6153852E-2,-1.848843E-2,-3.6574546E-2,-7.4408758E-3,-2.0931257E-2,-7.757672E-3,-1.7268969E-3],"split_indices":[0,0,0,0,0,0,0,0,0,0,0,0,0,0,0,0,0,0,0,0,0,0,0,0,0,0,0,0,0,0,0,0,0,0,0],"split_type":[0,0,0,0,0,0,0,0,0,0,0,0,0,0,0,0,0,0,0,0,0,0,0,0,0,0,0,0,0,0,0,0,0,0,0],"sum_hessian":[7.2E1,4.1E1,3.1E1,2.8E1,1.3E1,2.2E1,9E0,8E0,2E1,4E0,9E0,1.6E1,6E0,6E0,3E0,7E0,1E0,1.3E1,7E0,2E0,2E0,2E0,7E0,1E0,1.5E1,2E0,4E0,1E0,6E0,1.1E1,2E0,5E0,2E0,1E0,1.4E1],"tree_param":{"num_deleted":"0","num_feature":"1","num_nodes":"35","size_leaf_vector":"0"}},{"base_weights":[-1.396723E-1,-3.2411394E-1,6.983903E-2,-3.6243853E-1,-1.9361143E-1,-3.3096362E-2,2.698899E-1,-2.3175885E-1,-4.0118513E-1,-7.798668E-2,-2.4854177E-1,-7.690512E-2,1.712115E-2,1.1723182E-1,3.3156496E-1,-2.9226613E-1,1.2614974E-1,-4.5394102E-1,-2.587142E-1,-1.764186E-1,4.64408E-2,-3.5017288E-1,-1.3785474E-1,7.6296456E-2,-9.602995E-2,-7.272456E-3,5.2726686E-2,-8.675654E-2,-3.0923086E-1,-3.5282087E-1,-7.0710784E-1,-1.4261678E-1,-4.0467098E-1,-1.6959374E-1,-6.435782E-2,4.443696E-2,-2.1007653E-2],"categories":[],"categories_nodes":[],"categories_segments":[],"categories_sizes":[],"default_left":[1,1,1,1,1,1,1,1,1,1,1,1,1,0,0,1,0,1,1,0,0,0,0,0,1,1,0,0,0,0,0,0,0,0,0,0,0],"id":28,"left_children":[1,3,5,7,9,11,13,15,17,19,21,23,25,-1,-1,27,-1,29,31,-1,-1,-1,-1,-1,33,35,-1,-1,-1,-1,-1,-1,-1,-1,-1,-1,-1],"loss_changes":[2.8435464E0,1.24884605E-1,7.296634E-1,5.3860188E-2,5.048141E-2,5.4115906E-2,7.4112475E-2,2.3177403E-1,4.0398836E-2,6.943119E-2,3.0471772E-2,4.541616E-2,1.0806021E-2,0E0,0E0,1.0634661E-3,0E0,1.0892129E-1,7.784873E-2,0E0,0E0,0E0,0E0,0E0,1.7044373E-2,6.6154283E-3,0E0,0E0,0E0,0E0,0E0,0E0,0E0,0E0,0E0,0E0,0E0],"parents":[2147483647,0,0,1,1,2,2,3,3,4,4,5,5,6,6,7,7,8,8,9,9,10,10,11,11,12,12,15,15,17,17,18,18,24,24,25,25],"right_children":[2,4,6,8,10,12,14,16,18,20,22,24,26,-1,-1,28,-1,30,32,-1,-1,-1,-1,-1,34,36,-1,-1,-1,-1,-1,-1,-1,-1,-1,-1,-1],"split_conditions":[-2.5905256E0,-2.6457272E0,-2.0592117E0,-2.7000723E0,-2.6269732E0,-2.3656788E0,-1.8871975E0,-2.7071009E0,-2.6541824E0,-2.6302643E0,-2.6170578E0,-2.570877E0,-2.2533855E0,5.861591E-3,1.6578248E-2,-2.7580395E0,6.3074874E-3,-2.6624365E0,-2.647132E0,-8.8209305E-3,2.32204E-3,-1.7508645E-2,-6.892737E-3,3.8148228E-3,-2.5468388E0,-2.343216E0,2.6363344E-3,-4.337827E-3,-1.5461544E-2,-1.7641043E-2,-3.5355393E-2,-7.130839E-3,-2.023355E-2,-8.479687E-3,-3.2178909E-3,2.2218481E-3,-1.0503827E-3],"split_indices":[0,0,0,0,0,0,0,0,0,0,0,0,0,0,0,0,0,0,0,0,0,0,0,0,0,0,0,0,0,0,0,0,0,0,0,0,0],"split_type":[0,0,0,0,0,0,0,0,0,0,0,0,0,0,0,0,0,0,0,0,0,0,0,0,0,0,0,0,0,0,0,0,0,0,0,0,0],"sum_hessian":[7.2E1,3.8E1,3.4E1,2.8E1,1E1,2.3E1,1.1E1,8E0,2E1,4E0,6E0,1.2E1,1.1E1,4E0,7E0,7E0,1E0,1.3E1,7E0,2E0,2E0,2E0,4E0,1E0,1.1E1,7E0,4E0,1E0,6E0,1.1E1,2E0,5E0,2E0,2E0,9E0,1E0,6E0],"tree_param":{"num_deleted":"0","num_feature":"1","num_nodes":"37","size_leaf_vector":"0"}},{"base_weights":[-1.3414603E-1,-3.1110704E-1,6.68718E-2,-3.475529E-1,-1.8673998E-1,-1.9744877E-2,2.85388E-1,-2.2167E-1,-3.8495257E-1,-7.538713E-2,-2.396006E-1,-6.1107278E-2,5.254569E-2,1.832943E-1,3.9270496E-1,-2.8012776E-1,1.22996E-1,-4.3502942E-1,-2.4919903E-1,-1.70538E-1,4.4892777E-2,-3.3850047E-1,-1.3234055E-1,7.438905E-2,-7.422511E-2,1.7215392E-2,8.4432915E-2,-1.4858688E-1,-3.2933488E-1,-3.3664992E-1,-6.835376E-1,-1.3667442E-1,-3.9118195E-1,-1.3865028E-1,-4.1195866E-2,4.606071E-2,2.2341846E-3],"categories":[],"categories_nodes":[],"categories_segments":[],"categories_sizes":[],"default_left":[1,1,1,1,1,1,1,1,1,1,1,1,1,0,0,1,0,1,1,0,0,0,0,0,1,1,0,0,0,0,0,0,0,0,0,0,0],"id":29,"left_children":[1,3,5,7,9,11,13,15,17,19,21,23,25,-1,-1,27,-1,29,31,-1,-1,-1,-1,-1,33,35,-1,-1,-1,-1,-1,-1,-1,-1,-1,-1,-1],"loss_changes":[2.6175833E0,1.1187196E-1,6.6808504E-1,5.119872E-2,4.668519E-2,8.095382E-2,3.758329E-2,2.1579018E-1,3.4351587E-2,6.487961E-2,2.9458702E-2,3.573765E-2,9.812307E-3,0E0,0E0,2.847135E-3,0E0,1.1216092E-1,7.4348E-2,0E0,0E0,0E0,0E0,0E0,2.8334819E-2,2.4899184E-3,0E0,0E0,0E0,0E0,0E0,0E0,0E0,0E0,0E0,0E0,0E0],"parents":[2147483647,0,0,1,1,2,2,3,3,4,4,5,5,6,6,7,7,8,8,9,9,10,10,11,11,12,12,15,15,17,17,18,18,24,24,25,25],"right_children":[2,4,6,8,10,12,14,16,18,20,22,24,26,-1,-1,28,-1,30,32,-1,-1,-1,-1,-1,34,36,-1,-1,-1,-1,-1,-1,-1,-1,-1,-1,-1],"split_conditions":[-2.5905256E0,-2.6457272E0,-1.9580832E0,-2.7000723E0,-2.6269732E0,-2.318428E0,-1.1343517E0,-2.7071009E0,-2.6541824E0,-2.6302643E0,-2.6170578E0,-2.570877E0,-2.171197E0,9.164715E-3,1.9635249E-2,-2.7392254E0,6.1498E-3,-2.6624365E0,-2.647132E0,-8.5269E-3,2.244639E-3,-1.6925024E-2,-6.617028E-3,3.7194525E-3,-2.499588E0,-2.2951984E0,4.2216456E-3,-7.429344E-3,-1.6466744E-2,-1.6832497E-2,-3.4176882E-2,-6.833721E-3,-1.9559098E-2,-6.9325143E-3,-2.0597933E-3,2.3030357E-3,1.1170923E-4],"split_indices":[0,0,0,0,0,0,0,0,0,0,0,0,0,0,0,0,0,0,0,0,0,0,0,0,0,0,0,0,0,0,0,0,0,0,0,0,0],"split_type":[0,0,0,0,0,0,0,0,0,0,0,0,0,0,0,0,0,0,0,0,0,0,0,0,0,0,0,0,0,0,0,0,0,0,0,0,0],"sum_hessian":[7.2E1,3.8E1,3.4E1,2.8E1,1E1,2.5E1,9E0,8E0,2E1,4E0,6E0,1.6E1,9E0,6E0,3E0,7E0,1E0,1.3E1,7E0,2E0,2E0,2E0,4E0,1E0,1.5E1,5E0,4E0,3E0,4E0,1.1E1,2E0,5E0,2E0,4E0,1.1E1,1E0,4E0],"tree_param":{"num_deleted":"0","num_feature":"1","num_nodes":"37","size_leaf_vector":"0"}},{"base_weights":[-1.287375E-1,-2.8534254E-1,8.082967E-2,-3.278965E-1,-1.5163292E-1,-6.6711605E-3,2.7399862E-1,-1.4301488E-1,-3.4259757E-1,4.3396354E-2,-1.9497842E-1,-3.733648E-2,6.875478E-2,1.7543885E-1,3.7797856E-1,-3.7778243E-1,-2.4148658E-1,-3.272171E-1,-1.210166E-1,5.2417114E-2,-4.622215E-2,2.5335124E-2,8.105562E-2,-3.0562395E-1,-6.60753E-1,-1.3097966E-1,-3.257976E-1,-1.4619939E-1,-2.9810373E-2],"categories":[],"categories_nodes":[],"categories_segments":[],"categories_sizes":[],"default_left":[1,1,1,1,1,1,1,0,1,0,1,1,1,0,0,1,1,0,0,0,1,0,0,0,0,0,0,0,0],"id":30,"left_children":[1,3,5,7,9,11,13,-1,15,-1,17,19,21,-1,-1,23,25,-1,-1,-1,27,-1,-1,-1,-1,-1,-1,-1,-1],"loss_changes":[2.4188714E0,1.8925476E-1,5.427061E-1,3.526044E-2,1.09905034E-1,5.5765156E-2,3.6170244E-2,0E0,8.382797E-3,0E0,5.8207422E-2,1.5980685E-2,1.6851313E-3,0E0,0E0,1.860137E-1,5.0496638E-2,0E0,0E0,0E0,2.1894604E-2,0E0,0E0,0E0,0E0,0E0,0E0,0E0,0E0],"parents":[2147483647,0,0,1,1,2,2,3,3,4,4,5,5,6,6,8,8,10,10,11,11,12,12,15,15,16,16,20,20],"right_children":[2,4,6,8,10,12,14,-1,16,-1,18,20,22,-1,-1,24,26,-1,-1,-1,28,-1,-1,-1,-1,-1,-1,-1,-1],"split_conditions":[-2.5468388E0,-2.6302643E0,-1.9580832E0,-2.7392254E0,-2.6269732E0,-2.2533855E0,-1.1343517E0,-7.150744E-3,-2.6541824E0,2.1698177E-3,-2.6170578E0,-2.5232105E0,-2.171197E0,8.771943E-3,1.8898929E-2,-2.6624365E0,-2.647132E0,-1.6360855E-2,-6.0508302E-3,2.6208558E-3,-2.499588E0,1.2667562E-3,4.052781E-3,-1.5281198E-2,-3.303765E-2,-6.548983E-3,-1.628988E-2,-7.3099695E-3,-1.4905187E-3],"split_indices":[0,0,0,0,0,0,0,0,0,0,0,0,0,0,0,0,0,0,0,0,0,0,0,0,0,0,0,0,0],"split_type":[0,0,0,0,0,0,0,0,0,0,0,0,0,0,0,0,0,0,0,0,0,0,0,0,0,0,0,0,0],"sum_hessian":[7.2E1,4.1E1,3.1E1,3E1,1.1E1,2.2E1,9E0,3E0,2.7E1,2E0,9E0,1.6E1,6E0,6E0,3E0,1.8E1,9E0,2E0,7E0,1E0,1.5E1,2E0,4E0,1.6E1,2E0,5E0,4E0,1E0,1.4E1],"tree_param":{"num_deleted":"0","num_feature":"1","num_nodes":"29","size_leaf_vector":"0"}},{"base_weights":[-1.2328335E-1,-2.863839E-1,6.197964E-2,-3.1975448E-1,-1.72372E-1,-2.8755281E-2,2.3828451E-1,-2.0168518E-1,-3.5512918E-1,-6.7226194E-2,-2.2285156E-1,-6.815049E-2,1.6319139E-2,1.5602186E-1,3.6380434E-1,-2.5878626E-1,1.275617E-1,-4.0019515E-1,-2.318726E-1,-1.5399347E-1,4.194981E-2,-3.1630987E-1,-1.2220626E-1,7.5554736E-2,-8.642216E-2,-4.7441013E-3,4.6756495E-2,-1.3765183E-1,-3.0393654E-1,-3.0721238E-1,-6.387279E-1,-1.2552217E-1,-3.6728263E-1,-1.5528505E-1,-5.7121076E-2,4.5101196E-2,-1.8307885E-2,5.1775485E-2,1.3340265E-2],"categories":[],"categories_nodes":[],"categories_segments":[],"categories_sizes":[],"default_left":[1,1,1,1,1,1,1,1,1,1,1,1,1,0,0,1,0,1,1,0,0,0,0,0,1,1,1,0,0,0,0,0,0,0,0,0,0,0,0],"id":31,"left_children":[1,3,5,7,9,11,13,15,17,19,21,23,25,-1,-1,27,-1,29,31,-1,-1,-1,-1,-1,33,35,37,-1,-1,-1,-1,-1,-1,-1,-1,-1,-1,-1,-1],"loss_changes":[2.223554E0,9.326434E-2,5.6674725E-1,4.9499035E-2,4.3403417E-2,4.3729354E-2,6.7145705E-2,2.0221436E-1,2.3854017E-2,5.382452E-2,2.7187914E-2,4.066414E-2,7.91513E-3,0E0,0E0,1.9165874E-3,0E0,1.1428714E-1,6.910521E-2,0E0,0E0,0E0,0E0,0E0,1.534304E-2,6.234435E-3,1.4788006E-4,0E0,0E0,0E0,0E0,0E0,0E0,0E0,0E0,0E0,0E0,0E0,0E0],"parents":[2147483647,0,0,1,1,2,2,3,3,4,4,5,5,6,6,7,7,8,8,9,9,10,10,11,11,12,12,15,15,17,17,18,18,24,24,25,25,26,26],"right_children":[2,4,6,8,10,12,14,16,18,20,22,24,26,-1,-1,28,-1,30,32,-1,-1,-1,-1,-1,34,36,38,-1,-1,-1,-1,-1,-1,-1,-1,-1,-1,-1,-1],"split_conditions":[-2.5905256E0,-2.6457272E0,-2.0592117E0,-2.7000723E0,-2.6269732E0,-2.3656788E0,-1.1343517E0,-2.7071009E0,-2.6541824E0,-2.6302643E0,-2.6170578E0,-2.570877E0,-2.2533855E0,7.801093E-3,1.8190218E-2,-2.7392254E0,6.3780854E-3,-2.6624365E0,-2.647132E0,-7.6996735E-3,2.0974905E-3,-1.5815495E-2,-6.1103133E-3,3.7777368E-3,-2.5468388E0,-2.343216E0,-2.106924E0,-6.8825916E-3,-1.5196827E-2,-1.5360619E-2,-3.1936396E-2,-6.2761083E-3,-1.8364131E-2,-7.7642524E-3,-2.8560539E-3,2.2550598E-3,-9.153943E-4,2.5887743E-3,6.670132E-4],"split_indices":[0,0,0,0,0,0,0,0,0,0,0,0,0,0,0,0,0,0,0,0,0,0,0,0,0,0,0,0,0,0,0,0,0,0,0,0,0,0,0],"split_type":[0,0,0,0,0,0,0,0,0,0,0,0,0,0,0,0,0,0,0,0,0,0,0,0,0,0,0,0,0,0,0,0,0,0,0,0,0,0,0],"sum_hessian":[7.2E1,3.8E1,3.4E1,2.8E1,1E1,2.3E1,1.1E1,8E0,2E1,4E0,6E0,1.2E1,1.1E1,8E0,3E0,7E0,1E0,1.3E1,7E0,2E0,2E0,2E0,4E0,1E0,1.1E1,7E0,4E0,3E0,4E0,1.1E1,2E0,5E0,2E0,2E0,9E0,1E0,6E0,3E0,1E0],"tree_param":{"num_deleted":"0","num_feature":"1","num_nodes":"39","size_leaf_vector":"0"}},{"base_weights":[-1.18371546E-1,-2.6258773E-1,7.461131E-2,-3.0678877E-1,-1.5227216E-1,4.968549E-3,2.8291854E-1,-1.9334553E-1,-3.4079835E-1,-6.498532E-2,-1.8068837E-1,-3.4130692E-2,7.827061E-2,-2.4860689E-1,1.2437266E-1,-3.8356376E-1,-2.2335902E-1,-1.4886035E-1,4.0551484E-2,-3.057662E-1,-1.1119813E-1,5.2534714E-2,-4.28307E-2,2.2764781E-2,9.08773E-2,-1.3248989E-1,-2.917791E-1,-2.9313183E-1,-6.1743695E-1,-1.20292075E-1,-3.5503992E-1,-7.3209725E-2,-1.5010889E-1,-1.4111638E-1,-2.687056E-2],"categories":[],"categories_nodes":[],"categories_segments":[],"categories_sizes":[],"default_left":[1,1,1,1,1,1,0,1,1,1,1,1,1,1,0,1,1,0,0,0,1,0,1,0,0,0,0,0,0,0,0,0,0,0,0],"id":32,"left_children":[1,3,5,7,9,11,-1,13,15,17,19,21,23,25,-1,27,29,-1,-1,-1,31,-1,33,-1,-1,-1,-1,-1,-1,-1,-1,-1,-1,-1,-1],"loss_changes":[2.0512733E0,1.5807939E-1,4.628212E-1,4.599452E-2,2.2982955E-2,7.43228E-2,0E0,1.8893775E-1,1.9797087E-2,5.0296023E-2,5.291629E-2,1.5067924E-2,4.228901E-3,1.4464557E-3,0E0,1.1510396E-1,6.5867096E-2,0E0,0E0,0E0,8.358285E-4,0E0,2.1306574E-2,0E0,0E0,0E0,0E0,0E0,0E0,0E0,0E0,0E0,0E0,0E0,0E0],"parents":[2147483647,0,0,1,1,2,2,3,3,4,4,5,5,7,7,8,8,9,9,10,10,11,11,12,12,13,13,15,15,16,16,20,20,22,22],"right_children":[2,4,6,8,10,12,-1,14,16,18,20,22,24,26,-1,28,30,-1,-1,-1,32,-1,34,-1,-1,-1,-1,-1,-1,-1,-1,-1,-1,-1,-1],"split_conditions":[-2.5468388E0,-2.6457272E0,-1.8871975E0,-2.7000723E0,-2.6269732E0,-2.2533855E0,1.41459275E-2,-2.7071009E0,-2.6541824E0,-2.6302643E0,-2.6170578E0,-2.5232105E0,-2.171197E0,-2.7392254E0,6.218633E-3,-2.6624365E0,-2.647132E0,-7.443018E-3,2.0275742E-3,-1.528831E-2,-2.570877E0,2.6267357E-3,-2.499588E0,1.138239E-3,4.543865E-3,-6.6244947E-3,-1.4588955E-2,-1.4656591E-2,-3.0871848E-2,-6.0146037E-3,-1.7751997E-2,-3.6604863E-3,-7.5054443E-3,-7.055819E-3,-1.343528E-3],"split_indices":[0,0,0,0,0,0,0,0,0,0,0,0,0,0,0,0,0,0,0,0,0,0,0,0,0,0,0,0,0,0,0,0,0,0,0],"split_type":[0,0,0,0,0,0,0,0,0,0,0,0,0,0,0,0,0,0,0,0,0,0,0,0,0,0,0,0,0,0,0,0,0,0,0],"sum_hessian":[7.2E1,4.1E1,3.1E1,2.8E1,1.3E1,2.4E1,7E0,8E0,2E1,4E0,9E0,1.6E1,8E0,7E0,1E0,1.3E1,7E0,2E0,2E0,2E0,7E0,1E0,1.5E1,2E0,6E0,3E0,4E0,1.1E1,2E0,5E0,2E0,5E0,2E0,1E0,1.4E1],"tree_param":{"num_deleted":"0","num_feature":"1","num_nodes":"35","size_leaf_vector":"0"}},{"base_weights":[-1.1385166E-1,-2.6433554E-1,5.70833E-2,-2.9435587E-1,-1.6116053E-1,-1.6279053E-2,2.4211709E-1,-1.8534435E-1,-3.2705817E-1,-6.2819146E-2,-2.0838144E-1,-5.1593672E-2,4.538371E-2,1.5185176E-1,3.3955216E-1,-2.3882823E-1,1.2126334E-1,-3.676376E-1,-2.1516189E-1,-1.4389835E-1,3.919977E-2,-2.9557398E-1,-1.1438963E-1,7.549611E-2,-6.425529E-2,1.6967237E-2,7.0406735E-2,-1.5816624E-1,-3.2054278E-1,-2.796966E-1,-5.968557E-1,-1.1527991E-1,-3.432052E-1,-1.2161E-1,-3.5002887E-2,4.678391E-2,1.6471207E-3],"categories":[],"categories_nodes":[],"categories_segments":[],"categories_sizes":[],"default_left":[1,1,1,1,1,1,1,1,1,1,1,1,1,0,0,1,0,1,1,0,0,0,0,0,1,1,0,0,0,0,0,0,0,0,0,0,0],"id":33,"left_children":[1,3,5,7,9,11,13,15,17,19,21,23,25,-1,-1,27,-1,29,31,-1,-1,-1,-1,-1,33,35,-1,-1,-1,-1,-1,-1,-1,-1,-1,-1,-1],"loss_changes":[1.8928648E0,7.335806E-2,4.790494E-1,4.2764425E-2,3.7991136E-2,5.8959033E-2,3.6388516E-2,1.7654821E-1,1.6252756E-2,4.699884E-2,2.3557127E-2,3.220678E-2,5.9160516E-3,0E0,0E0,2.0309985E-3,0E0,1.15268946E-1,6.274912E-2,0E0,0E0,0E0,0E0,0E0,2.2587515E-2,2.663711E-3,0E0,0E0,0E0,0E0,0E0,0E0,0E0,0E0,0E0,0E0,0E0],"parents":[2147483647,0,0,1,1,2,2,3,3,4,4,5,5,6,6,7,7,8,8,9,9,10,10,11,11,12,12,15,15,17,17,18,18,24,24,25,25],"right_children":[2,4,6,8,10,12,14,16,18,20,22,24,26,-1,-1,28,-1,30,32,-1,-1,-1,-1,-1,34,36,-1,-1,-1,-1,-1,-1,-1,-1,-1,-1,-1],"split_conditions":[-2.5905256E0,-2.6457272E0,-1.9580832E0,-2.7000723E0,-2.6269732E0,-2.318428E0,-1.1343517E0,-2.7071009E0,-2.6541824E0,-2.6302643E0,-2.6170578E0,-2.570877E0,-2.171197E0,7.592588E-3,1.6977608E-2,-2.713376E0,6.063167E-3,-2.6624365E0,-2.647132E0,-7.1949176E-3,1.9599886E-3,-1.4778699E-2,-5.7194815E-3,3.7748055E-3,-2.499588E0,-2.2951984E0,3.5203367E-3,-7.908313E-3,-1.602714E-2,-1.3984831E-2,-2.9842785E-2,-5.763996E-3,-1.7160261E-2,-6.0805003E-3,-1.7501444E-3,2.3391955E-3,8.235603E-5],"split_indices":[0,0,0,0,0,0,0,0,0,0,0,0,0,0,0,0,0,0,0,0,0,0,0,0,0,0,0,0,0,0,0,0,0,0,0,0,0],"split_type":[0,0,0,0,0,0,0,0,0,0,0,0,0,0,0,0,0,0,0,0,0,0,0,0,0,0,0,0,0,0,0,0,0,0,0,0,0],"sum_hessian":[7.2E1,3.8E1,3.4E1,2.8E1,1E1,2.5E1,9E0,8E0,2E1,4E0,6E0,1.6E1,9E0,6E0,3E0,7E0,1E0,1.3E1,7E0,2E0,2E0,2E0,4E0,1E0,1.5E1,5E0,4E0,5E0,2E0,1.1E1,2E0,5E0,2E0,4E0,1.1E1,1E0,4E0],"tree_param":{"num_deleted":"0","num_feature":"1","num_nodes":"37","size_leaf_vector":"0"}},{"base_weights":[-1.093084E-1,-2.5394845E-1,5.498503E-2,-2.8255618E-1,-1.5544188E-1,-1.5392556E-2,2.3246826E-1,-1.7806295E-1,-3.1388393E-1,-6.0725182E-2,-2.0089068E-1,-4.925257E-2,4.370872E-2,1.4534386E-1,3.268189E-1,-2.2987875E-1,1.1823176E-1,-4.3141794E-1,-2.6085132E-1,-1.3910174E-1,3.7893105E-2,-2.857215E-1,-1.0981404E-1,7.3608704E-2,-6.1531942E-2,1.1645669E-2,6.314314E-2,-1.51576E-1,-3.09858E-1,1.4833127E-1,-3.2529774E-1,-1.4105158E-1,-4.0096883E-2,4.5614302E-2,-8.250065E-3],"categories":[],"categories_nodes":[],"categories_segments":[],"categories_sizes":[],"default_left":[1,1,1,1,1,1,1,1,1,1,1,1,1,0,0,1,0,0,1,0,0,0,0,0,1,1,0,0,0,0,0,0,0,0,0],"id":34,"left_children":[1,3,5,7,9,11,13,15,17,19,21,23,25,-1,-1,27,-1,-1,29,-1,-1,-1,-1,-1,31,33,-1,-1,-1,-1,-1,-1,-1,-1,-1],"loss_changes":[1.748692E0,6.598306E-2,4.4075775E-1,3.904152E-2,3.515324E-2,5.418319E-2,3.4701347E-2,1.6535372E-1,1.8359661E-2,4.391781E-2,2.2706509E-2,3.0176498E-2,5.4959245E-3,0E0,0E0,3.1337142E-3,0E0,0E0,4.9654806E-1,0E0,0E0,0E0,0E0,0E0,2.1616403E-2,3.7554754E-3,0E0,0E0,0E0,0E0,0E0,0E0,0E0,0E0,0E0],"parents":[2147483647,0,0,1,1,2,2,3,3,4,4,5,5,6,6,7,7,8,8,9,9,10,10,11,11,12,12,15,15,18,18,24,24,25,25],"right_children":[2,4,6,8,10,12,14,16,18,20,22,24,26,-1,-1,28,-1,-1,30,-1,-1,-1,-1,-1,32,34,-1,-1,-1,-1,-1,-1,-1,-1,-1],"split_conditions":[-2.5905256E0,-2.6457272E0,-1.9580832E0,-2.7000723E0,-2.6269732E0,-2.318428E0,-1.1343517E0,-2.7071009E0,-2.6895247E0,-2.6302643E0,-2.6170578E0,-2.570877E0,-2.224306E0,7.267193E-3,1.6340947E-2,-2.713376E0,5.911588E-3,-2.1570897E-2,-2.681243E0,-6.955087E-3,1.8946553E-3,-1.4286076E-2,-5.490702E-3,3.6804352E-3,-2.5468388E0,-2.2951984E0,3.1571572E-3,-7.5788E-3,-1.54929E-2,7.4165636E-3,-1.6264888E-2,-7.052579E-3,-2.0048441E-3,2.2807152E-3,-4.1250326E-4],"split_indices":[0,0,0,0,0,0,0,0,0,0,0,0,0,0,0,0,0,0,0,0,0,0,0,0,0,0,0,0,0,0,0,0,0,0,0],"split_type":[0,0,0,0,0,0,0,0,0,0,0,0,0,0,0,0,0,0,0,0,0,0,0,0,0,0,0,0,0,0,0,0,0,0,0],"sum_hessian":[7.2E1,3.8E1,3.4E1,2.8E1,1E1,2.5E1,9E0,8E0,2E1,4E0,6E0,1.6E1,9E0,6E0,3E0,7E0,1E0,4E0,1.6E1,2E0,2E0,2E0,4E0,1E0,1.5E1,4E0,5E0,5E0,2E0,2E0,1.4E1,2E0,1.3E1,1E0,3E0],"tree_param":{"num_deleted":"0","num_feature":"1","num_nodes":"35","size_leaf_vector":"0"}},{"base_weights":[-1.0451641E-1,-2.4310786E-1,5.2900244E-2,-2.858046E-1,-1.7741697E-1,-1.4636455E-2,2.2320564E-1,-2.2946745E-1,-5.661173E-1,-9.692251E-2,-2.0092079E-1,-4.7106244E-2,4.202583E-2,1.3911481E-1,3.1456318E-1,-2.8428707E-1,6.0882717E-2,-3.209218E-1,-1.4992772E-1,7.1768485E-2,-5.9021443E-2,1.5822405E-2,6.506477E-2,-2.1201624E-1,-5.508788E-1,2.5528044E-1,-8.901E-2,-5.870101E-2,-1.936714E-1,-1.3634987E-1,-3.823525E-2,4.4473946E-2,1.1973083E-3],"categories":[],"categories_nodes":[],"categories_segments":[],"categories_sizes":[],"default_left":[1,1,1,1,1,1,1,1,0,0,1,1,1,0,0,1,1,0,1,0,1,1,0,0,0,0,0,0,0,0,0,0,0],"id":35,"left_children":[1,3,5,7,9,11,13,15,-1,-1,17,19,21,-1,-1,23,25,-1,27,-1,29,31,-1,-1,-1,-1,-1,-1,-1,-1,-1,-1,-1],"loss_changes":[1.6054723E0,5.8680058E-2,4.058322E-1,2.175188E-1,1.4580965E-2,4.9814805E-2,3.3062935E-2,3.3564568E-1,0E0,0E0,3.1434774E-2,2.831496E-2,5.007511E-3,0E0,0E0,2.1074045E-1,1.3927771E-1,0E0,3.252782E-2,0E0,2.0504445E-2,2.4609407E-3,0E0,0E0,0E0,0E0,0E0,0E0,0E0,0E0,0E0,0E0,0E0],"parents":[2147483647,0,0,1,1,2,2,3,3,4,4,5,5,6,6,7,7,10,10,11,11,12,12,15,15,16,16,18,18,20,20,21,21],"right_children":[2,4,6,8,10,12,14,16,-1,-1,18,20,22,-1,-1,24,26,-1,28,-1,30,32,-1,-1,-1,-1,-1,-1,-1,-1,-1,-1,-1],"split_conditions":[-2.5905256E0,-2.6541824E0,-1.9580832E0,-2.6624365E0,-2.647132E0,-2.318428E0,-1.1343517E0,-2.6756E0,-2.8305864E-2,-4.8461254E-3,-2.6457272E0,-2.570877E0,-2.171197E0,6.9557405E-3,1.5728159E-2,-2.681243E0,-2.6704407E0,-1.604609E-2,-2.6269732E0,3.5884243E-3,-2.5468388E0,-2.2951984E0,3.2532387E-3,-1.0600812E-2,-2.7543942E-2,1.2764022E-2,-4.4505E-3,-2.9350505E-3,-9.683571E-3,-6.8174936E-3,-1.9117625E-3,2.2236973E-3,5.9865415E-5],"split_indices":[0,0,0,0,0,0,0,0,0,0,0,0,0,0,0,0,0,0,0,0,0,0,0,0,0,0,0,0,0,0,0,0,0],"split_type":[0,0,0,0,0,0,0,0,0,0,0,0,0,0,0,0,0,0,0,0,0,0,0,0,0,0,0,0,0,0,0,0,0],"sum_hessian":[7.2E1,3.8E1,3.4E1,2.1E1,1.7E1,2.5E1,9E0,1.9E1,2E0,5E0,1.2E1,1.6E1,9E0,6E0,3E0,1.6E1,3E0,2E0,1E1,1E0,1.5E1,5E0,4E0,1.4E1,2E0,1E0,2E0,4E0,6E0,2E0,1.3E1,1E0,4E0],"tree_param":{"num_deleted":"0","num_feature":"1","num_nodes":"33","size_leaf_vector":"0"}},{"base_weights":[-1.00229874E-1,-2.1606818E-1,7.300731E-2,-2.5538567E-1,-1.135746E-1,1.1317181E-2,2.4124052E-1,-1.6164353E-1,-2.8096363E-1,3.8586706E-2,-1.4215037E-1,-2.188121E-2,6.539037E-2,1.4377114E-1,3.027671E-1,-2.1199307E-1,1.2057637E-1,-4.0568057E-1,-2.3335584E-1,-2.6974174E-1,-8.9657925E-2,1.13905445E-1,-3.971636E-2,2.0996293E-2,7.507492E-2,-1.3642633E-1,-2.924622E-1,1.504541E-1,-2.873602E-1,-1.3359475E-1,-1.2937064E-2],"categories":[],"categories_nodes":[],"categories_segments":[],"categories_sizes":[],"default_left":[1,1,1,1,1,1,1,1,1,0,1,1,1,0,0,1,0,0,1,0,0,0,1,0,0,0,0,0,0,0,0],"id":36,"left_children":[1,3,5,7,9,11,13,15,17,-1,19,21,23,-1,-1,25,-1,-1,27,-1,-1,-1,29,-1,-1,-1,-1,-1,-1,-1,-1],"loss_changes":[1.4807022E0,1.4830565E-1,3.0861968E-1,2.8913736E-2,6.635891E-2,4.2719103E-2,4.4464767E-3,1.5344813E-1,4.1894674E-2,0E0,5.6186527E-2,4.0850542E-2,2.2931397E-3,0E0,0E0,8.746773E-3,0E0,0E0,4.3705523E-1,0E0,0E0,0E0,3.3467636E-2,0E0,0E0,0E0,0E0,0E0,0E0,0E0,0E0],"parents":[2147483647,0,0,1,1,2,2,3,3,4,4,5,5,6,6,7,7,8,8,10,10,11,11,12,12,15,15,18,18,22,22],"right_children":[2,4,6,8,10,12,14,16,18,-1,20,22,24,-1,-1,26,-1,-1,28,-1,-1,-1,30,-1,-1,-1,-1,-1,-1,-1,-1],"split_conditions":[-2.499588E0,-2.6302643E0,-1.8871975E0,-2.7000723E0,-2.6269732E0,-2.2533855E0,-1.1343517E0,-2.7071009E0,-2.6895247E0,1.9293353E-3,-2.6170578E0,-2.4763641E0,-2.171197E0,7.188557E-3,1.5138355E-2,-2.713376E0,6.0288184E-3,-2.0284029E-2,-2.681243E0,-1.3487088E-2,-4.4828965E-3,5.6952722E-3,-2.4523325E0,1.0498146E-3,3.753746E-3,-6.8213167E-3,-1.462311E-2,7.5227055E-3,-1.436801E-2,-6.6797375E-3,-6.4685324E-4],"split_indices":[0,0,0,0,0,0,0,0,0,0,0,0,0,0,0,0,0,0,0,0,0,0,0,0,0,0,0,0,0,0,0],"split_type":[0,0,0,0,0,0,0,0,0,0,0,0,0,0,0,0,0,0,0,0,0,0,0,0,0,0,0,0,0,0,0],"sum_hessian":[7.2E1,4.3E1,2.9E1,3E1,1.3E1,2.2E1,7E0,8E0,2.2E1,2E0,1.1E1,1.4E1,8E0,4E0,3E0,7E0,1E0,4E0,1.8E1,2E0,9E0,1E0,1.3E1,2E0,6E0,5E0,2E0,2E0,1.6E1,2E0,1.1E1],"tree_param":{"num_deleted":"0","num_feature":"1","num_nodes":"31","size_leaf_vector":"0"}},{"base_weights":[-9.567162E-2,-2.2319087E-1,4.915474E-2,-2.6397556E-1,-1.6094343E-1,-4.8335292E-3,2.3196934E-1,-2.097229E-1,-5.37668E-1,-8.091073E-2,-1.8550134E-1,-4.2979598E-2,4.960953E-2,1.380203E-1,2.914133E-1,-2.6336646E-1,7.069297E-2,-3.0064574E-1,-1.3723455E-1,7.221572E-2,-5.469279E-2,1.5385374E-2,7.1857445E-2,-1.938945E-1,-5.229375E-1,2.5608245E-1,-7.646433E-2,-5.1377498E-2,-1.7895609E-1,-1.2881628E-1,-3.4902554E-2,4.3685526E-2,9.882391E-4],"categories":[],"categories_nodes":[],"categories_segments":[],"categories_sizes":[],"default_left":[1,1,1,1,1,1,1,1,0,0,1,1,1,0,0,1,1,0,1,0,1,1,0,0,0,0,0,0,0,0,0,0,0],"id":37,"left_children":[1,3,5,7,9,11,13,15,-1,-1,17,19,21,-1,-1,23,25,-1,27,-1,29,31,-1,-1,-1,-1,-1,-1,-1,-1,-1,-1,-1],"loss_changes":[1.3591456E0,5.6525826E-2,3.4656578E-1,2.1390665E-1,2.0368814E-2,6.028228E-2,4.456669E-3,3.1946838E-1,0E0,0E0,3.0990452E-2,2.6887856E-2,8.031437E-3,0E0,0E0,2.0516467E-1,1.2870684E-1,0E0,3.0208677E-2,0E0,1.8974721E-2,2.4014749E-3,0E0,0E0,0E0,0E0,0E0,0E0,0E0,0E0,0E0,0E0,0E0],"parents":[2147483647,0,0,1,1,2,2,3,3,4,4,5,5,6,6,7,7,10,10,11,11,12,12,15,15,16,16,18,18,20,20,21,21],"right_children":[2,4,6,8,10,12,14,16,-1,-1,18,20,22,-1,-1,24,26,-1,28,-1,30,32,-1,-1,-1,-1,-1,-1,-1,-1,-1,-1,-1],"split_conditions":[-2.5905256E0,-2.6541824E0,-1.8871975E0,-2.6624365E0,-2.647132E0,-2.318428E0,-1.1343517E0,-2.6756E0,-2.68834E-2,-4.0455363E-3,-2.6457272E0,-2.570877E0,-2.171197E0,6.9010155E-3,1.4570666E-2,-2.681243E0,-2.6704407E0,-1.5032287E-2,-2.6269732E0,3.610786E-3,-2.5468388E0,-2.2951984E0,3.5928723E-3,-9.694725E-3,-2.6146874E-2,1.2804123E-2,-3.8232168E-3,-2.568875E-3,-8.947805E-3,-6.440814E-3,-1.7451277E-3,2.1842762E-3,4.9411956E-5],"split_indices":[0,0,0,0,0,0,0,0,0,0,0,0,0,0,0,0,0,0,0,0,0,0,0,0,0,0,0,0,0,0,0,0,0],"split_type":[0,0,0,0,0,0,0,0,0,0,0,0,0,0,0,0,0,0,0,0,0,0,0,0,0,0,0,0,0,0,0,0,0],"sum_hessian":[7.2E1,3.8E1,3.4E1,2.1E1,1.7E1,2.7E1,7E0,1.9E1,2E0,5E0,1.2E1,1.6E1,1.1E1,4E0,3E0,1.6E1,3E0,2E0,1E1,1E0,1.5E1,5E0,6E0,1.4E1,2E0,1E0,2E0,4E0,6E0,2E0,1.3E1,1E0,4E0],"tree_param":{"num_deleted":"0","num_feature":"1","num_nodes":"33","size_leaf_vector":"0"}},{"base_weights":[-9.1732085E-2,-1.9833161E-1,6.767163E-2,-2.2625457E-1,-8.0768086E-2,1.0683057E-2,2.2305481E-1,-9.5568575E-2,-2.3551987E-1,-4.8971612E-2,-1.0277024E-1,-1.976834E-2,6.0248382E-2,1.3249949E-1,2.8048527E-1,-2.7308205E-1,-1.6771977E-1,-8.693007E-2,7.0410326E-2,-1.24522395E-1,-4.6761334E-2,1.1193037E-1,-3.7170418E-2,2.0263473E-2,6.877786E-2,-2.134895E-1,-5.1974577E-1,-7.753945E-2,-2.0920445E-1,5.9333906E-2,-1.294759E-1,-1.2797816E-1,-1.1370947E-2],"categories":[],"categories_nodes":[],"categories_segments":[],"categories_sizes":[],"default_left":[1,1,1,1,1,1,1,0,1,1,1,1,1,0,0,1,1,0,0,0,1,0,1,0,0,0,0,0,0,0,0,0,0],"id":38,"left_children":[1,3,5,7,9,11,13,-1,15,17,19,21,23,-1,-1,25,27,-1,-1,-1,29,-1,31,-1,-1,-1,-1,-1,-1,-1,-1,-1,-1],"loss_changes":[1.2538637E0,1.2616575E-1,2.6326907E-1,1.9871116E-2,1.9630864E-3,3.590568E-2,4.4409037E-3,0E0,3.5693765E-2,3.3310097E-2,2.68735E-4,3.8537964E-2,1.6757771E-3,0E0,0E0,1.6832685E-1,3.6153823E-2,0E0,0E0,0E0,3.400918E-2,0E0,3.1343855E-2,0E0,0E0,0E0,0E0,0E0,0E0,0E0,0E0,0E0,0E0],"parents":[2147483647,0,0,1,1,2,2,3,3,4,4,5,5,6,6,8,8,9,9,10,10,11,11,12,12,15,15,16,16,20,20,22,22],"right_children":[2,4,6,8,10,12,14,-1,16,18,20,22,24,-1,-1,26,28,-1,-1,-1,30,-1,32,-1,-1,-1,-1,-1,-1,-1,-1,-1,-1],"split_conditions":[-2.499588E0,-2.6170578E0,-1.8871975E0,-2.7392254E0,-2.570877E0,-2.2533855E0,-1.1343517E0,-4.778429E-3,-2.6541824E0,-2.5905256E0,-2.5468388E0,-2.4763641E0,-2.171197E0,6.6249743E-3,1.4024264E-2,-2.6624365E0,-2.647132E0,-4.3465034E-3,3.5205164E-3,-6.22612E-3,-2.5232105E0,5.5965185E-3,-2.4523325E0,1.0131736E-3,3.438893E-3,-1.0674476E-2,-2.5987288E-2,-3.8769727E-3,-1.0460223E-2,2.9666952E-3,-6.4737955E-3,-6.3989083E-3,-5.6854734E-4],"split_indices":[0,0,0,0,0,0,0,0,0,0,0,0,0,0,0,0,0,0,0,0,0,0,0,0,0,0,0,0,0,0,0,0,0],"split_type":[0,0,0,0,0,0,0,0,0,0,0,0,0,0,0,0,0,0,0,0,0,0,0,0,0,0,0,0,0,0,0,0,0],"sum_hessian":[7.2E1,4.3E1,2.9E1,3.4E1,9E0,2.2E1,7E0,3E0,3.1E1,5E0,4E0,1.4E1,8E0,4E0,3E0,1.8E1,1.3E1,4E0,1E0,2E0,2E0,1E0,1.3E1,2E0,6E0,1.6E1,2E0,5E0,8E0,1E0,1E0,2E0,1.1E1],"tree_param":{"num_deleted":"0","num_feature":"1","num_nodes":"33","size_leaf_vector":"0"}},{"base_weights":[-8.7729126E-2,-1.8992268E-1,6.507906E-2,-2.2494408E-1,-9.880938E-2,1.0282867E-2,2.1448325E-1,-1.391336E-1,-2.4874192E-1,4.598655E-2,-1.2677425E-1,-1.8871324E-2,5.773064E-2,1.2719953E-1,2.6996708E-1,-1.8846193E-1,1.2774655E-1,-3.7315798E-1,-2.0290917E-1,-2.4781166E-1,-7.77856E-2,1.0913211E-1,-3.5809577E-2,1.9588033E-2,6.583024E-2,-1.167156E-1,-2.6913396E-1,1.5901846E-1,-2.5484294E-1,-4.6660695E-2,-9.9578366E-2,-1.2371222E-1,-1.0849784E-2],"categories":[],"categories_nodes":[],"categories_segments":[],"categories_sizes":[],"default_left":[1,1,1,1,1,1,1,1,1,0,1,1,1,0,0,1,0,0,1,0,1,0,1,0,0,0,0,0,0,0,0,0,0],"id":39,"left_children":[1,3,5,7,9,11,13,15,17,-1,19,21,23,-1,-1,25,-1,-1,27,-1,29,-1,31,-1,-1,-1,-1,-1,-1,-1,-1,-1,-1],"loss_changes":[1.1523287E0,1.1817372E-1,2.4339792E-1,2.8696895E-2,6.25187E-2,3.2905385E-2,4.4029653E-3,1.4255816E-1,5.5436373E-2,0E0,5.1877335E-2,3.643029E-2,1.4909729E-3,0E0,0E0,1.4891267E-2,0E0,0E0,3.976537E-1,0E0,2.136577E-3,0E0,2.9374197E-2,0E0,0E0,0E0,0E0,0E0,0E0,0E0,0E0,0E0,0E0],"parents":[2147483647,0,0,1,1,2,2,3,3,4,4,5,5,6,6,7,7,8,8,10,10,11,11,12,12,15,15,18,18,20,20,22,22],"right_children":[2,4,6,8,10,12,14,16,18,-1,20,22,24,-1,-1,26,-1,-1,28,-1,30,-1,32,-1,-1,-1,-1,-1,-1,-1,-1,-1,-1],"split_conditions":[-2.499588E0,-2.6302643E0,-1.8871975E0,-2.7000723E0,-2.6269732E0,-2.2533855E0,-1.1343517E0,-2.7071009E0,-2.6895247E0,2.2993276E-3,-2.6170578E0,-2.4763641E0,-2.171197E0,6.3599767E-3,1.3498354E-2,-2.713376E0,6.387328E-3,-1.8657899E-2,-2.681243E0,-1.2390583E-2,-2.570877E0,5.4566055E-3,-2.4523325E0,9.794016E-4,3.291512E-3,-5.8357804E-3,-1.3456698E-2,7.950923E-3,-1.2742147E-2,-2.3330348E-3,-4.9789185E-3,-6.1856112E-3,-5.4248923E-4],"split_indices":[0,0,0,0,0,0,0,0,0,0,0,0,0,0,0,0,0,0,0,0,0,0,0,0,0,0,0,0,0,0,0,0,0],"split_type":[0,0,0,0,0,0,0,0,0,0,0,0,0,0,0,0,0,0,0,0,0,0,0,0,0,0,0,0,0,0,0,0,0],"sum_hessian":[7.2E1,4.3E1,2.9E1,3E1,1.3E1,2.2E1,7E0,8E0,2.2E1,2E0,1.1E1,1.4E1,8E0,4E0,3E0,7E0,1E0,4E0,1.8E1,2E0,9E0,1E0,1.3E1,2E0,6E0,5E0,2E0,2E0,1.6E1,5E0,4E0,2E0,1.1E1],"tree_param":{"num_deleted":"0","num_feature":"1","num_nodes":"33","size_leaf_vector":"0"}},{"base_weights":[-8.376595E-2,-1.9626108E-1,4.3979097E-2,-2.3345917E-1,-1.3989335E-1,-3.952248E-3,2.0624141E-1,-1.8271618E-1,-4.9392614E-1,-6.369019E-2,-1.6430302E-1,-3.7706107E-2,4.4195075E-2,1.2211158E-1,2.5984335E-1,-2.3542279E-1,8.696602E-2,-2.75156E-1,-1.1913376E-1,6.981658E-2,-4.878981E-2,1.4879708E-2,6.300895E-2,-1.6883348E-1,-4.8989514E-1,2.613887E-1,-5.830443E-2,-3.6777087E-2,-1.6094086E-1,-1.17052376E-1,-3.0677134E-2,4.3148905E-2,5.960882E-4],"categories":[],"categories_nodes":[],"categories_segments":[],"categories_sizes":[],"default_left":[1,1,1,1,1,1,1,1,0,0,1,1,1,0,0,1,1,0,1,0,1,1,0,0,0,0,0,0,0,0,0,0,0],"id":40,"left_children":[1,3,5,7,9,11,13,15,-1,-1,17,19,21,-1,-1,23,25,-1,27,-1,29,31,-1,-1,-1,-1,-1,-1,-1,-1,-1,-1,-1],"loss_changes":[1.0576922E0,4.9114704E-2,2.7302593E-1,2.0052302E-1,2.3017198E-2,4.7170844E-2,4.346311E-3,3.0475456E-1,0E0,0E0,3.2312512E-2,2.3666084E-2,5.680872E-3,0E0,0E0,2.0535666E-1,1.1659396E-1,0E0,3.1955093E-2,0E0,1.6191855E-2,2.3969982E-3,0E0,0E0,0E0,0E0,0E0,0E0,0E0,0E0,0E0,0E0,0E0],"parents":[2147483647,0,0,1,1,2,2,3,3,4,4,5,5,6,6,7,7,10,10,11,11,12,12,15,15,16,16,18,18,20,20,21,21],"right_children":[2,4,6,8,10,12,14,16,-1,-1,18,20,22,-1,-1,24,26,-1,28,-1,30,32,-1,-1,-1,-1,-1,-1,-1,-1,-1,-1,-1],"split_conditions":[-2.5905256E0,-2.6541824E0,-1.8871975E0,-2.6624365E0,-2.647132E0,-2.318428E0,-1.1343517E0,-2.6756E0,-2.4696307E-2,-3.1845097E-3,-2.6457272E0,-2.570877E0,-2.171197E0,6.105579E-3,1.2992168E-2,-2.681243E0,-2.6704407E0,-1.37578E-2,-2.6269732E0,3.4908291E-3,-2.5468388E0,-2.2951984E0,3.1504475E-3,-8.4416745E-3,-2.4494758E-2,1.3069435E-2,-2.9152215E-3,-1.8388544E-3,-8.047043E-3,-5.8526187E-3,-1.5338567E-3,2.1574453E-3,2.9804409E-5],"split_indices":[0,0,0,0,0,0,0,0,0,0,0,0,0,0,0,0,0,0,0,0,0,0,0,0,0,0,0,0,0,0,0,0,0],"split_type":[0,0,0,0,0,0,0,0,0,0,0,0,0,0,0,0,0,0,0,0,0,0,0,0,0,0,0,0,0,0,0,0,0],"sum_hessian":[7.2E1,3.8E1,3.4E1,2.1E1,1.7E1,2.7E1,7E0,1.9E1,2E0,5E0,1.2E1,1.6E1,1.1E1,4E0,3E0,1.6E1,3E0,2E0,1E1,1E0,1.5E1,5E0,6E0,1.4E1,2E0,1E0,2E0,4E0,6E0,2E0,1.3E1,1E0,4E0],"tree_param":{"num_deleted":"0","num_feature":"1","num_nodes":"33","size_leaf_vector":"0"}},{"base_weights":[-8.0314174E-2,-1.7438273E-1,6.0330193E-2,-2.0659724E-1,-9.059471E-2,9.711876E-3,1.9831659E-1,-1.2610711E-1,-2.291109E-1,4.567957E-2,-1.1711372E-1,-1.703549E-2,5.3211723E-2,1.1722715E-1,2.5009924E-1,-1.7406392E-1,1.2877373E-1,-3.5147828E-1,-1.8485048E-1,-2.3418657E-1,-7.0280485E-2,1.07170746E-1,-3.3562418E-2,1.8915216E-2,6.030855E-2,-1.0481772E-1,-2.5453505E-1,1.5934564E-1,-2.3471741E-1,-5.075996E-2,-1.2298262E-1,-1.18565895E-1,-9.514679E-3],"categories":[],"categories_nodes":[],"categories_segments":[],"categories_sizes":[],"default_left":[1,1,1,1,1,1,1,1,1,0,1,1,1,0,0,1,0,0,1,0,1,0,1,0,0,0,0,0,0,0,0,0,0],"id":41,"left_children":[1,3,5,7,9,11,13,15,17,-1,19,21,23,-1,-1,25,-1,-1,27,-1,29,-1,31,-1,-1,-1,-1,-1,-1,-1,-1,-1,-1],"loss_changes":[9.763261E-1,1.0004771E-1,2.0761314E-1,2.728355E-2,5.5943727E-2,2.7667133E-2,4.2737722E-3,1.3242435E-1,5.959785E-2,0E0,4.9336046E-2,3.4388117E-2,1.0498203E-3,0E0,0E0,1.7898768E-2,0E0,0E0,3.6351734E-1,0E0,4.0451437E-3,0E0,2.7489861E-2,0E0,0E0,0E0,0E0,0E0,0E0,0E0,0E0,0E0,0E0],"parents":[2147483647,0,0,1,1,2,2,3,3,4,4,5,5,6,6,7,7,8,8,10,10,11,11,12,12,15,15,18,18,20,20,22,22],"right_children":[2,4,6,8,10,12,14,16,18,-1,20,22,24,-1,-1,26,-1,-1,28,-1,30,-1,32,-1,-1,-1,-1,-1,-1,-1,-1,-1,-1],"split_conditions":[-2.499588E0,-2.6302643E0,-1.8871975E0,-2.7000723E0,-2.6269732E0,-2.2533855E0,-1.1343517E0,-2.7071009E0,-2.6895247E0,2.2839785E-3,-2.6170578E0,-2.4763641E0,-2.171197E0,5.861358E-3,1.2504962E-2,-2.713376E0,6.438687E-3,-1.7573914E-2,-2.681243E0,-1.1709329E-2,-2.5232105E0,5.358537E-3,-2.4523325E0,9.457608E-4,3.0154276E-3,-5.240886E-3,-1.2726753E-2,7.967282E-3,-1.17358705E-2,-2.5379981E-3,-6.1491313E-3,-5.9282947E-3,-4.7573398E-4],"split_indices":[0,0,0,0,0,0,0,0,0,0,0,0,0,0,0,0,0,0,0,0,0,0,0,0,0,0,0,0,0,0,0,0,0],"split_type":[0,0,0,0,0,0,0,0,0,0,0,0,0,0,0,0,0,0,0,0,0,0,0,0,0,0,0,0,0,0,0,0,0],"sum_hessian":[7.2E1,4.3E1,2.9E1,3E1,1.3E1,2.2E1,7E0,8E0,2.2E1,2E0,1.1E1,1.4E1,8E0,4E0,3E0,7E0,1E0,4E0,1.8E1,2E0,9E0,1E0,1.3E1,2E0,6E0,5E0,2E0,2E0,1.6E1,8E0,1E0,2E0,1.1E1],"tree_param":{"num_deleted":"0","num_feature":"1","num_nodes":"33","size_leaf_vector":"0"}},{"base_weights":[-7.6705344E-2,-1.6682233E-1,5.8023088E-2,-2.156838E-1,-1.1283213E-1,9.353059E-3,1.9069654E-1,-1.6680649E-1,-4.6963796E-1,-1.3549814E-1,-6.2518544E-2,-1.6253415E-2,5.099129E-2,1.12538025E-1,2.4072054E-1,-2.1835074E-1,9.395817E-2,-5.125655E-2,-1.7249326E-1,-2.2645365E-2,-8.988802E-2,1.0449147E-1,-3.2341726E-2,1.8284718E-2,5.772392E-2,-1.5431589E-1,-4.657414E-1,2.6072192E-1,-4.8537057E-2,-6.503471E-2,-2.810879E-2,-2.581602E-1,-1.1880652E-1,-6.297679E-2,6.934017E-2,-1.1145863E-1,-3.8354736E-2,-1.1461369E-1,-9.078592E-3],"categories":[],"categories_nodes":[],"categories_segments":[],"categories_sizes":[],"default_left":[1,1,1,1,1,1,1,1,0,1,1,1,1,0,0,1,1,1,1,1,1,0,1,0,0,0,0,0,0,0,0,0,0,0,0,0,0,0,0],"id":42,"left_children":[1,3,5,7,9,11,13,15,-1,17,19,21,23,-1,-1,25,27,29,31,33,35,-1,37,-1,-1,-1,-1,-1,-1,-1,-1,-1,-1,-1,-1,-1,-1,-1,-1],"loss_changes":[8.9599586E-1,9.173775E-2,1.9193304E-1,1.947385E-1,1.775825E-2,2.5351575E-2,4.18821E-3,2.8933418E-1,0E0,3.7906528E-2,7.786222E-3,3.2518156E-2,9.263456E-4,0E0,0E0,1.9743621E-1,1.0770683E-1,8.555502E-5,1.53206885E-2,2.291636E-2,1.283057E-3,0E0,2.5754124E-2,0E0,0E0,0E0,0E0,0E0,0E0,0E0,0E0,0E0,0E0,0E0,0E0,0E0,0E0,0E0,0E0],"parents":[2147483647,0,0,1,1,2,2,3,3,4,4,5,5,6,6,7,7,9,9,10,10,11,11,12,12,15,15,16,16,17,17,18,18,19,19,20,20,22,22],"right_children":[2,4,6,8,10,12,14,16,-1,18,20,22,24,-1,-1,26,28,30,32,34,36,-1,38,-1,-1,-1,-1,-1,-1,-1,-1,-1,-1,-1,-1,-1,-1,-1,-1],"split_conditions":[-2.499588E0,-2.6541824E0,-1.8871975E0,-2.6624365E0,-2.6055908E0,-2.2533855E0,-1.1343517E0,-2.6756E0,-2.3481898E-2,-2.647132E0,-2.570877E0,-2.4763641E0,-2.171197E0,5.6269015E-3,1.2036027E-2,-2.681243E0,-2.6704407E0,-2.6507492E0,-2.6457272E0,-2.5905256E0,-2.5468388E0,5.224574E-3,-2.4523325E0,9.142359E-4,2.8861961E-3,-7.7157947E-3,-2.328707E-2,1.30360965E-2,-2.426853E-3,-3.2517356E-3,-1.4054396E-3,-1.2908011E-2,-5.940326E-3,-3.1488396E-3,3.4670085E-3,-5.5729314E-3,-1.9177368E-3,-5.7306844E-3,-4.5392962E-4],"split_indices":[0,0,0,0,0,0,0,0,0,0,0,0,0,0,0,0,0,0,0,0,0,0,0,0,0,0,0,0,0,0,0,0,0,0,0,0,0,0,0],"split_type":[0,0,0,0,0,0,0,0,0,0,0,0,0,0,0,0,0,0,0,0,0,0,0,0,0,0,0,0,0,0,0,0,0,0,0,0,0,0,0],"sum_hessian":[7.2E1,4.3E1,2.9E1,2.1E1,2.2E1,2.2E1,7E0,1.9E1,2E0,1.4E1,8E0,1.4E1,8E0,4E0,3E0,1.6E1,3E0,5E0,9E0,4E0,4E0,1E0,1.3E1,2E0,6E0,1.4E1,2E0,1E0,2E0,2E0,3E0,2E0,7E0,3E0,1E0,2E0,2E0,2E0,1.1E1],"tree_param":{"num_deleted":"0","num_feature":"1","num_nodes":"39","size_leaf_vector":"0"}},{"base_weights":[-7.361049E-2,-1.601756E-1,5.5805374E-2,-2.0689395E-1,-1.08524345E-1,9.008905E-3,1.8336955E-1,-1.5948583E-1,-4.539834E-1,-1.3029027E-1,-6.018956E-2,-1.5504753E-2,4.8864014E-2,1.08036496E-1,2.3169348E-1,-2.0925689E-1,9.191257E-2,-4.9469914E-2,-1.6575345E-1,-2.1449458E-2,-8.689175E-2,1.0187918E-1,-3.1166404E-2,1.7675241E-2,5.5250056E-2,-1.4711447E-1,-4.5021668E-1,2.5420386E-1,-4.691915E-2,-6.286689E-2,-2.7054708E-2,-2.4955487E-1,-1.1360873E-1,-6.061516E-2,6.760667E-2,-1.0774334E-1,-3.7076246E-2,-1.1079323E-1,-8.662497E-3],"categories":[],"categories_nodes":[],"categories_segments":[],"categories_sizes":[],"default_left":[1,1,1,1,1,1,1,1,0,1,1,1,1,0,0,1,1,1,1,1,1,0,1,0,0,0,0,0,0,0,0,0,0,0,0,0,0,0,0],"id":43,"left_children":[1,3,5,7,9,11,13,15,-1,17,19,21,23,-1,-1,25,27,29,31,33,35,-1,37,-1,-1,-1,-1,-1,-1,-1,-1,-1,-1,-1,-1,-1,-1,-1,-1],"loss_changes":[8.2675034E-1,8.372176E-2,1.7743465E-1,1.85305E-1,1.6355067E-2,2.3228498E-2,4.0917397E-3,2.694806E-1,0E0,3.4792393E-2,7.4462295E-3,3.07516E-2,8.1599876E-4,0E0,0E0,1.8832165E-1,1.0205175E-1,1.0093022E-4,1.5346408E-2,2.1537717E-2,1.1989437E-3,0E0,2.4127062E-2,0E0,0E0,0E0,0E0,0E0,0E0,0E0,0E0,0E0,0E0,0E0,0E0,0E0,0E0,0E0,0E0],"parents":[2147483647,0,0,1,1,2,2,3,3,4,4,5,5,6,6,7,7,9,9,10,10,11,11,12,12,15,15,16,16,17,17,18,18,19,19,20,20,22,22],"right_children":[2,4,6,8,10,12,14,16,-1,18,20,22,24,-1,-1,26,28,30,32,34,36,-1,38,-1,-1,-1,-1,-1,-1,-1,-1,-1,-1,-1,-1,-1,-1,-1,-1],"split_conditions":[-2.499588E0,-2.6541824E0,-1.8871975E0,-2.6624365E0,-2.6055908E0,-2.2533855E0,-1.1343517E0,-2.6756E0,-2.269917E-2,-2.647132E0,-2.570877E0,-2.4763641E0,-2.171197E0,5.401825E-3,1.1584674E-2,-2.681243E0,-2.6704407E0,-2.6507492E0,-2.6457272E0,-2.5905256E0,-2.5468388E0,5.093959E-3,-2.4523325E0,8.837621E-4,2.7625028E-3,-7.3557235E-3,-2.2510834E-2,1.2710193E-2,-2.3459576E-3,-3.1433445E-3,-1.3527354E-3,-1.2477743E-2,-5.6804367E-3,-3.0307581E-3,3.3803338E-3,-5.387167E-3,-1.8538124E-3,-5.5396617E-3,-4.3312483E-4],"split_indices":[0,0,0,0,0,0,0,0,0,0,0,0,0,0,0,0,0,0,0,0,0,0,0,0,0,0,0,0,0,0,0,0,0,0,0,0,0,0,0],"split_type":[0,0,0,0,0,0,0,0,0,0,0,0,0,0,0,0,0,0,0,0,0,0,0,0,0,0,0,0,0,0,0,0,0,0,0,0,0,0,0],"sum_hessian":[7.2E1,4.3E1,2.9E1,2.1E1,2.2E1,2.2E1,7E0,1.9E1,2E0,1.4E1,8E0,1.4E1,8E0,4E0,3E0,1.6E1,3E0,5E0,9E0,4E0,4E0,1E0,1.3E1,2E0,6E0,1.4E1,2E0,1E0,2E0,2E0,3E0,2E0,7E0,3E0,1E0,2E0,2E0,2E0,1.1E1],"tree_param":{"num_deleted":"0","num_feature":"1","num_nodes":"39","size_leaf_vector":"0"}},{"base_weights":[-7.0642196E-2,-1.5379745E-1,5.3673565E-2,-1.8539546E-1,-8.691368E-2,8.678777E-3,1.7632438E-1,-1.0768583E-1,-2.0987125E-1,-2.2228634E-2,-1.0662298E-1,-1.4788109E-2,4.6825945E-2,1.0371502E-1,2.23005E-1,-1.544191E-1,1.3309015E-1,-3.253619E-1,-1.6355804E-1,-8.8951826E-2,5.19041E-2,-2.1863317E-1,-6.235762E-2,9.93322E-2,-3.0034717E-2,2.5516212E-2,5.877049E-2,-8.78907E-2,-2.3600285E-1,1.6408183E-1,-2.1818213E-1,-4.3059073E-2,-1.1802228E-1,-1.0710013E-1,-8.26547E-3,3.548339E-2,-7.17625E-3,6.4926535E-2,1.7073154E-2],"categories":[],"categories_nodes":[],"categories_segments":[],"categories_sizes":[],"default_left":[1,1,1,1,1,1,1,1,1,1,1,1,1,0,0,1,0,0,1,0,0,0,1,0,1,1,1,0,0,0,0,0,0,0,0,0,0,0,0],"id":44,"left_children":[1,3,5,7,9,11,13,15,17,19,21,23,25,-1,-1,27,-1,-1,29,-1,-1,-1,31,-1,33,35,37,-1,-1,-1,-1,-1,-1,-1,-1,-1,-1,-1,-1],"loss_changes":[7.6289296E-1,7.6875925E-2,1.6402915E-1,3.2557964E-2,1.8028274E-2,2.1281958E-2,3.9866418E-3,1.2182189E-1,5.910808E-2,2.9348828E-2,4.5864612E-2,2.908263E-2,7.9121813E-4,0E0,0E0,2.2678629E-2,0E0,0E0,3.4004924E-1,0E0,0E0,0E0,5.6605414E-3,0E0,2.2601953E-2,1.8838956E-3,1.7495267E-4,0E0,0E0,0E0,0E0,0E0,0E0,0E0,0E0,0E0,0E0,0E0,0E0],"parents":[2147483647,0,0,1,1,2,2,3,3,4,4,5,5,6,6,7,7,8,8,9,9,10,10,11,11,12,12,15,15,18,18,22,22,24,24,25,25,26,26],"right_children":[2,4,6,8,10,12,14,16,18,20,22,24,26,-1,-1,28,-1,-1,30,-1,-1,-1,32,-1,34,36,38,-1,-1,-1,-1,-1,-1,-1,-1,-1,-1,-1,-1],"split_conditions":[-2.499588E0,-2.6457272E0,-1.8871975E0,-2.7000723E0,-2.6269732E0,-2.2533855E0,-1.1343517E0,-2.7071009E0,-2.6895247E0,-2.6302643E0,-2.6170578E0,-2.4763641E0,-2.0592117E0,5.185751E-3,1.115025E-2,-2.713376E0,6.654508E-3,-1.6268095E-2,-2.681243E0,-4.4475915E-3,2.595205E-3,-1.0931659E-2,-2.5232105E0,4.96661E-3,-2.4523325E0,-2.106924E0,-1.9108286E0,-4.394535E-3,-1.1800143E-2,8.204091E-3,-1.0909107E-2,-2.1529538E-3,-5.901114E-3,-5.3550065E-3,-4.1327352E-4,1.7741695E-3,-3.588125E-4,3.2463267E-3,8.536577E-4],"split_indices":[0,0,0,0,0,0,0,0,0,0,0,0,0,0,0,0,0,0,0,0,0,0,0,0,0,0,0,0,0,0,0,0,0,0,0,0,0,0,0],"split_type":[0,0,0,0,0,0,0,0,0,0,0,0,0,0,0,0,0,0,0,0,0,0,0,0,0,0,0,0,0,0,0,0,0,0,0,0,0,0,0],"sum_hessian":[7.2E1,4.3E1,2.9E1,2.8E1,1.5E1,2.2E1,7E0,8E0,2E1,4E0,1.1E1,1.4E1,8E0,4E0,3E0,7E0,1E0,4E0,1.6E1,2E0,2E0,2E0,9E0,1E0,1.3E1,4E0,4E0,5E0,2E0,2E0,1.4E1,8E0,1E0,2E0,1.1E1,3E0,1E0,3E0,1E0],"tree_param":{"num_deleted":"0","num_feature":"1","num_nodes":"39","size_leaf_vector":"0"}},{"base_weights":[-6.749778E-2,-1.5187185E-1,4.5352478E-2,-1.9101539E-1,-1.0363234E-1,3.7951148E-3,1.6955018E-1,-1.4538024E-1,-4.3157792E-1,-3.8654845E-2,-1.21521875E-1,-2.4755958E-2,3.678844E-2,9.956644E-2,2.1464232E-1,-1.9411553E-1,9.808983E-2,-5.3498585E-2,-1.7858326E-2,-2.3396365E-1,-8.874708E-2,1.7454207E-2,-5.859536E-2,1.3882324E-2,5.1166765E-2,1.0943931E-1,3.0037463E-2,-1.3441026E-1,-4.2793676E-1,2.5330332E-1,-3.808244E-2,3.185463E-2,-4.504752E-2,-2.1487683E-2,-1.1350206E-1,-3.6059942E-2,1.6926955E-1,-1.1439631E-1,-2.2355258E-3,4.295823E-2,-5.24503E-4],"categories":[],"categories_nodes":[],"categories_segments":[],"categories_sizes":[],"default_left":[1,1,1,1,1,1,1,1,0,1,1,1,1,1,0,1,1,0,1,0,1,1,1,1,0,0,0,0,0,0,0,0,0,0,0,0,0,0,0,0,0],"id":45,"left_children":[1,3,5,7,9,11,13,15,-1,17,19,21,23,25,-1,27,29,-1,31,-1,33,35,37,39,-1,-1,-1,-1,-1,-1,-1,-1,-1,-1,-1,-1,-1,-1,-1,-1,-1],"loss_changes":[7.019672E-1,5.951178E-2,1.6451907E-1,1.7877543E-1,1.9713357E-2,2.4460606E-2,3.8745552E-3,2.5635248E-1,0E0,8.9679286E-4,3.8200513E-2,2.101987E-2,3.241904E-3,1.449734E-4,0E0,1.7980707E-1,9.41895E-2,0E0,6.8415934E-3,0E0,2.0871185E-2,6.297373E-2,2.4903726E-2,2.535881E-3,0E0,0E0,0E0,0E0,0E0,0E0,0E0,0E0,0E0,0E0,0E0,0E0,0E0,0E0,0E0,0E0,0E0],"parents":[2147483647,0,0,1,1,2,2,3,3,4,4,5,5,6,6,7,7,9,9,10,10,11,11,12,12,13,13,15,15,16,16,18,18,20,20,21,21,22,22,23,23],"right_children":[2,4,6,8,10,12,14,16,-1,18,20,22,24,26,-1,28,30,-1,32,-1,34,36,38,40,-1,-1,-1,-1,-1,-1,-1,-1,-1,-1,-1,-1,-1,-1,-1,-1,-1],"split_conditions":[-2.5468388E0,-2.6541824E0,-1.8871975E0,-2.6624365E0,-2.647132E0,-2.318428E0,-1.1343517E0,-2.6756E0,-2.1578897E-2,-2.6507492E0,-2.6457272E0,-2.4298706E0,-2.171197E0,-1.3233738E0,1.0732116E-2,-2.681243E0,-2.6704407E0,-2.6749293E-3,-2.648861E0,-1.1698183E-2,-2.6269732E0,-2.4523325E0,-2.3656788E0,-2.2951984E0,2.5583382E-3,5.4719658E-3,1.5018731E-3,-6.720513E-3,-2.1396838E-2,1.26651665E-2,-1.904122E-3,1.5927315E-3,-2.2523762E-3,-1.0743842E-3,-5.675103E-3,-1.8029971E-3,8.463478E-3,-5.719816E-3,-1.1177629E-4,2.1479116E-3,-2.622515E-5],"split_indices":[0,0,0,0,0,0,0,0,0,0,0,0,0,0,0,0,0,0,0,0,0,0,0,0,0,0,0,0,0,0,0,0,0,0,0,0,0,0,0,0,0],"split_type":[0,0,0,0,0,0,0,0,0,0,0,0,0,0,0,0,0,0,0,0,0,0,0,0,0,0,0,0,0,0,0,0,0,0,0,0,0,0,0,0,0],"sum_hessian":[7.2E1,4.1E1,3.1E1,2.1E1,2E1,2.4E1,7E0,1.9E1,2E0,5E0,1.5E1,1.3E1,1.1E1,4E0,3E0,1.6E1,3E0,2E0,3E0,2E0,1.3E1,6E0,7E0,5E0,6E0,3E0,1E0,1.4E1,2E0,1E0,2E0,1E0,2E0,4E0,9E0,5E0,1E0,3E0,4E0,1E0,4E0],"tree_param":{"num_deleted":"0","num_feature":"1","num_nodes":"41","size_leaf_vector":"0"}},{"base_weights":[-6.463663E-2,-1.5290424E-1,3.5565473E-2,-1.8323441E-1,-1.0733938E-1,-8.219584E-3,1.4585008E-1,-1.3897905E-1,-4.1719198E-1,-3.7277862E-2,-1.3141859E-1,-3.652564E-2,1.8651724E-2,9.0304E-2,2.0659319E-1,-1.8606372E-1,9.5875606E-2,-5.1715296E-2,-1.7130323E-2,-2.2616486E-1,-9.363155E-2,-3.4407512E-3,-1.1010645E-1,4.4938126E-3,3.677997E-2,-1.2813778E-1,-4.136722E-1,2.4697074E-1,-3.681302E-2,3.1058267E-2,-4.3545943E-2,-2.0628178E-2,-1.3240089E-1,-4.0498126E-2,1.6503781E-1,5.0941154E-2,-7.6797493E-3,4.0540196E-2,8.9894235E-3],"categories":[],"categories_nodes":[],"categories_segments":[],"categories_sizes":[],"default_left":[1,1,1,1,1,1,1,1,0,1,1,1,1,0,0,1,1,0,1,0,1,1,0,1,1,0,0,0,0,0,0,0,0,0,0,0,0,0,0],"id":46,"left_children":[1,3,5,7,9,11,13,15,-1,17,19,21,23,-1,-1,25,27,-1,29,-1,31,33,-1,35,37,-1,-1,-1,-1,-1,-1,-1,-1,-1,-1,-1,-1,-1,-1],"loss_changes":[6.5109396E-1,3.422928E-2,1.7020744E-1,1.698044E-1,2.546747E-2,2.0457406E-2,1.5084207E-2,2.3900011E-1,0E0,8.593723E-4,2.5366187E-2,3.126852E-2,3.4279316E-3,0E0,0E0,1.7112839E-1,8.928616E-2,0E0,6.444187E-3,0E0,2.8402016E-2,6.911745E-2,0E0,5.480082E-3,2.625594E-4,0E0,0E0,0E0,0E0,0E0,0E0,0E0,0E0,0E0,0E0,0E0,0E0,0E0,0E0],"parents":[2147483647,0,0,1,1,2,2,3,3,4,4,5,5,6,6,7,7,9,9,10,10,11,11,12,12,15,15,16,16,18,18,20,20,21,21,23,23,24,24],"right_children":[2,4,6,8,10,12,14,16,-1,18,20,22,24,-1,-1,26,28,-1,30,-1,32,34,-1,36,38,-1,-1,-1,-1,-1,-1,-1,-1,-1,-1,-1,-1,-1,-1],"split_conditions":[-2.5905256E0,-2.6541824E0,-1.9580832E0,-2.6624365E0,-2.647132E0,-2.3656788E0,-1.1343517E0,-2.6756E0,-2.08596E-2,-2.6507492E0,-2.6457272E0,-2.4298706E0,-2.224306E0,4.5152004E-3,1.0329659E-2,-2.681243E0,-2.6704407E0,-2.5857647E-3,-2.648861E0,-1.13082435E-2,-2.6269732E0,-2.4523325E0,-5.505323E-3,-2.343216E0,-2.0053396E0,-6.4068893E-3,-2.068361E-2,1.2348537E-2,-1.840651E-3,1.5529133E-3,-2.1772971E-3,-1.0314089E-3,-6.6200444E-3,-2.0249065E-3,8.251891E-3,2.5470578E-3,-3.8398747E-4,2.0270098E-3,4.4947118E-4],"split_indices":[0,0,0,0,0,0,0,0,0,0,0,0,0,0,0,0,0,0,0,0,0,0,0,0,0,0,0,0,0,0,0,0,0,0,0,0,0,0,0],"split_type":[0,0,0,0,0,0,0,0,0,0,0,0,0,0,0,0,0,0,0,0,0,0,0,0,0,0,0,0,0,0,0,0,0,0,0,0,0,0,0],"sum_hessian":[7.2E1,3.8E1,3.4E1,2.1E1,1.7E1,2.5E1,9E0,1.9E1,2E0,5E0,1.2E1,1.2E1,1.3E1,6E0,3E0,1.6E1,3E0,2E0,3E0,2E0,1E1,9E0,3E0,8E0,5E0,1.4E1,2E0,1E0,2E0,1E0,2E0,4E0,6E0,8E0,1E0,1E0,7E0,4E0,1E0],"tree_param":{"num_deleted":"0","num_feature":"1","num_nodes":"39","size_leaf_vector":"0"}},{"base_weights":[-6.1944604E-2,-1.4678754E-1,3.4364518E-2,-1.7577459E-1,-1.03204064E-1,-1.9456962E-3,1.5715471E-1,-1.3285922E-1,-4.032856E-1,-3.594899E-2,-1.263061E-1,-2.7205624E-2,3.4001343E-2,9.237075E-2,1.9884598E-1,-1.7835408E-1,9.37088E-2,-4.9991447E-2,-1.6429901E-2,-2.1862602E-1,-8.9645565E-2,7.084299E-2,-3.776135E-2,1.3459966E-2,4.6750903E-2,1.0194898E-1,2.7028918E-2,-1.22158006E-1,-3.9988315E-1,2.4079648E-1,-3.558592E-2,3.0281812E-2,-4.209441E-2,-1.9803053E-2,-1.2672655E-1,-9.758326E-2,-2.224513E-2,4.207626E-2,-6.785452E-4,5.0172865E-2,1.3109565E-2],"categories":[],"categories_nodes":[],"categories_segments":[],"categories_sizes":[],"default_left":[1,1,1,1,1,1,1,1,0,1,1,1,1,1,0,1,1,0,1,0,1,0,1,1,1,0,0,0,0,0,0,0,0,0,0,0,0,0,0,0,0],"id":47,"left_children":[1,3,5,7,9,11,13,15,-1,17,19,21,23,25,-1,27,29,-1,31,-1,33,-1,35,37,39,-1,-1,-1,-1,-1,-1,-1,-1,-1,-1,-1,-1,-1,-1,-1,-1],"loss_changes":[6.015382E-1,3.1130254E-2,1.563546E-1,1.6122162E-1,2.3426533E-2,2.6349576E-2,3.23987E-3,2.2286701E-1,0E0,8.2322164E-4,2.4399638E-2,2.0269688E-2,2.513458E-3,3.7372112E-4,0E0,1.6278517E-1,8.463961E-2,0E0,6.0700276E-3,0E0,2.597855E-2,0E0,1.2680607E-2,2.4561016E-3,1.4809147E-4,0E0,0E0,0E0,0E0,0E0,0E0,0E0,0E0,0E0,0E0,0E0,0E0,0E0,0E0,0E0,0E0],"parents":[2147483647,0,0,1,1,2,2,3,3,4,4,5,5,6,6,7,7,9,9,10,10,11,11,12,12,13,13,15,15,16,16,18,18,20,20,22,22,23,23,24,24],"right_children":[2,4,6,8,10,12,14,16,-1,18,20,22,24,26,-1,28,30,-1,32,-1,34,-1,36,38,40,-1,-1,-1,-1,-1,-1,-1,-1,-1,-1,-1,-1,-1,-1,-1,-1],"split_conditions":[-2.5905256E0,-2.6541824E0,-1.8871975E0,-2.6624365E0,-2.647132E0,-2.318428E0,-1.1343517E0,-2.6756E0,-2.016428E-2,-2.6507492E0,-2.6457272E0,-2.570877E0,-2.171197E0,-1.3233738E0,9.9423E-3,-2.681243E0,-2.6704407E0,-2.4995725E-3,-2.648861E0,-1.0931301E-2,-2.6269732E0,3.5421494E-3,-2.5468388E0,-2.2951984E0,-1.9108286E0,5.097449E-3,1.3514459E-3,-6.1079003E-3,-1.9994158E-2,1.2039824E-2,-1.7792961E-3,1.5140906E-3,-2.1047206E-3,-9.901527E-4,-6.3363276E-3,-4.879163E-3,-1.1122565E-3,2.103813E-3,-3.3927263E-5,2.5086433E-3,6.554783E-4],"split_indices":[0,0,0,0,0,0,0,0,0,0,0,0,0,0,0,0,0,0,0,0,0,0,0,0,0,0,0,0,0,0,0,0,0,0,0,0,0,0,0,0,0],"split_type":[0,0,0,0,0,0,0,0,0,0,0,0,0,0,0,0,0,0,0,0,0,0,0,0,0,0,0,0,0,0,0,0,0,0,0,0,0,0,0,0,0],"sum_hessian":[7.2E1,3.8E1,3.4E1,2.1E1,1.7E1,2.7E1,7E0,1.9E1,2E0,5E0,1.2E1,1.6E1,1.1E1,4E0,3E0,1.6E1,3E0,2E0,3E0,2E0,1E1,1E0,1.5E1,5E0,6E0,3E0,1E0,1.4E1,2E0,1E0,2E0,1E0,2E0,4E0,6E0,2E0,1.3E1,1E0,4E0,5E0,1E0],"tree_param":{"num_deleted":"0","num_feature":"1","num_nodes":"41","size_leaf_vector":"0"}},{"base_weights":[-5.9370354E-2,-1.4791158E-1,2.6073186E-2,-6.819914E-2,-1.5856846E-1,-1.2413967E-2,1.3507861E-1,-1.7743036E-2,-7.474176E-2,-2.3149654E-1,-1.2765208E-1,-3.7822414E-2,1.751097E-2,8.360415E-2,1.9138926E-1,-1.3301286E-1,-3.5129842E-1,1.7143601E-1,-1.6263445E-1,-1.4198887E-2,-1.0514327E-1,4.7813356E-3,3.3686925E-2,-2.1531248E-1,-3.8034923E-2,-3.8655373E-1,-1.2091483E-1,-4.229346E-2,1.6146798E-1,5.0223753E-2,-7.1769357E-3,3.7420165E-2,7.510364E-3],"categories":[],"categories_nodes":[],"categories_segments":[],"categories_sizes":[],"default_left":[1,1,1,1,1,1,1,0,0,1,1,1,1,0,0,1,0,0,1,1,0,1,1,0,0,0,0,0,0,0,0,0,0],"id":48,"left_children":[1,3,5,7,9,11,13,-1,-1,15,17,19,21,-1,-1,23,-1,-1,25,27,-1,29,31,-1,-1,-1,-1,-1,-1,-1,-1,-1,-1],"loss_changes":[5.561217E-1,1.9767225E-2,1.6109858E-1,6.545428E-4,4.034382E-2,2.2712346E-2,1.2984663E-2,0E0,0E0,4.7661036E-2,2.789888E-1,2.3952778E-2,2.7217278E-3,0E0,0E0,3.8710497E-2,0E0,0E0,1.587801E-1,7.098775E-2,0E0,5.2511673E-3,3.0530104E-4,0E0,0E0,0E0,0E0,0E0,0E0,0E0,0E0,0E0,0E0],"parents":[2147483647,0,0,1,1,2,2,3,3,4,4,5,5,6,6,9,9,10,10,11,11,12,12,15,15,18,18,19,19,21,21,22,22],"right_children":[2,4,6,8,10,12,14,-1,-1,16,18,20,22,-1,-1,24,-1,-1,26,28,-1,30,32,-1,-1,-1,-1,-1,-1,-1,-1,-1,-1],"split_conditions":[-2.6055908E0,-2.713376E0,-1.9580832E0,-2.7580395E0,-2.6895247E0,-2.3656788E0,-1.1343517E0,-8.871518E-4,-3.737088E-3,-2.6958103E0,-2.681243E0,-2.4298706E0,-2.224306E0,4.1802074E-3,9.569463E-3,-2.7071009E0,-1.756492E-2,8.571801E-3,-2.6756E0,-2.4523325E0,-5.2571637E-3,-2.343216E0,-2.0053396E0,-1.0765624E-2,-1.9017461E-3,-1.9327687E-2,