{"learner":{"attributes":{"best_iteration":"199","best_ntree_limit":"200","scikit_learn":"{\"n_estimators\": 200, \"objective\": \"reg:squarederror\", \"max_depth\": 5, \"max_leaves\": null, \"max_bin\": null, \"grow_policy\": null, \"learning_rate\": 0.05, \"verbosity\": null, \"booster\": null, \"tree_method\": null, \"gamma\": null, \"min_child_weight\": null, \"max_delta_step\": null, \"subsample\": null, \"sampling_method\": null, \"colsample_bytree\": null, \"colsample_bylevel\": null, \"colsample_bynode\": null, \"reg_alpha\": null, \"reg_lambda\": null, \"scale_pos_weight\": null, \"base_score\": null, \"missing\": NaN, \"num_parallel_tree\": null, \"random_state\": null, \"n_jobs\": null, \"monotone_constraints\": null, \"interaction_constraints\": null, \"importance_type\": null, \"gpu_id\": null, \"validate_parameters\": null, \"predictor\": null, \"enable_categorical\": false, \"feature_types\": null, \"max_cat_to_onehot\": null, \"max_cat_threshold\": null, \"eval_metric\": null, \"early_stopping_rounds\": null, \"callbacks\": null, \"_estimator_type\": \"regressor\"}"},"feature_names":[],"feature_types":[],"gradient_booster":{"model":{"gbtree_model_param":{"num_parallel_tree":"1","num_trees":"200","size_leaf_vector":"0"},"tree_info":[0,0,0,0,0,0,0,0,0,0,0,0,0,0,0,0,0,0,0,0,0,0,0,0,0,0,0,0,0,0,0,0,0,0,0,0,0,0,0,0,0,0,0,0,0,0,0,0,0,0,0,0,0,0,0,0,0,0,0,0,0,0,0,0,0,0,0,0,0,0,0,0,0,0,0,0,0,0,0,0,0,0,0,0,0,0,0,0,0,0,0,0,0,0,0,0,0,0,0,0,0,0,0,0,0,0,0,0,0,0,0,0,0,0,0,0,0,0,0,0,0,0,0,0,0,0,0,0,0,0,0,0,0,0,0,0,0,0,0,0,0,0,0,0,0,0,0,0,0,0,0,0,0,0,0,0,0,0,0,0,0,0,0,0,0,0,0,0,0,0,0,0,0,0,0,0,0,0,0,0,0,0,0,0,0,0,0,0,0,0,0,0,0,0,0,0,0,0,0,0],"trees":[{"base_weights":[-5.971336E-1,-1.5354426E0,1.9708662E-1,-2.0898366E0,-1.1043699E0,-2.2129053E-1,9.3356866E-1,-1.26095E0,-8.200493E-1,-4.7702777E-1,3.3068847E-2,5.639522E-1,1.191665E0,-5.0553036E-1,-2.676119E-1,-9.21773E-2,2.0085278E-1,-1.6202357E-1,-4.105181E-2,2.1160263E-1,4.6677172E-2],"categories":[],"categories_nodes":[],"categories_segments":[],"categories_sizes":[],"default_left":[1,1,1,0,1,1,1,0,0,1,1,0,0,0,0,1,1,0,0,0,0],"id":0,"left_children":[1,3,5,-1,7,9,11,-1,-1,13,15,-1,-1,-1,-1,17,19,-1,-1,-1,-1],"loss_changes":[1.0090785E2,1.2509048E1,2.3008007E1,0E0,6.131592E-1,3.1381345E0,1.9036694E0,0E0,0E0,7.967472E-3,5.438714E-1,0E0,0E0,0E0,0E0,4.6912506E-2,8.353949E-3,0E0,0E0,0E0,0E0],"parents":[2147483647,0,0,1,1,2,2,4,4,5,5,6,6,9,9,10,10,15,15,16,16],"right_children":[2,4,6,-1,8,10,12,-1,-1,14,16,-1,-1,-1,-1,18,20,-1,-1,-1,-1],"split_conditions":[-1.418565E-1,-1.2186474E0,8.1294334E-1,-1.0449183E-1,-5.5509216E-1,2.9868588E-1,1.3859761E0,-6.30475E-2,-4.1002464E-2,1.19781554E-1,5.707228E-1,2.819761E-2,5.9583254E-2,-2.5276517E-2,-1.3380595E-2,4.084033E-1,7.9053557E-1,-8.101179E-3,-2.0525905E-3,1.0580132E-2,2.3338587E-3],"split_indices":[0,0,0,0,0,0,0,0,0,0,0,0,0,0,0,0,0,0,0,0,0],"split_type":[0,0,0,0,0,0,0,0,0,0,0,0,0,0,0,0,0,0,0,0,0],"sum_hessian":[1.34E2,6.1E1,7.3E1,2.5E1,3.6E1,4.7E1,2.6E1,2.1E1,1.5E1,2.3E1,2.4E1,1.2E1,1.4E1,1.9E1,4E0,1.4E1,1E1,5E0,9E0,9E0,1E0],"tree_param":{"num_deleted":"0","num_feature":"1","num_nodes":"21","size_leaf_vector":"0"}},{"base_weights":[-5.6843734E-1,-1.4620341E0,1.8793342E-1,-1.9893638E0,-1.0519636E0,-2.1097386E-1,8.901414E-1,-1.2007682E0,-7.816095E-1,-4.547871E-1,3.1525817E-2,5.379237E-1,1.136054E0,-4.6998766E-1,-1.9172062E-1,-8.824535E-2,1.9198415E-1,-1.552726E-1,-3.9204463E-2,2.0208052E-1,4.5510232E-2],"categories":[],"categories_nodes":[],"categories_segments":[],"categories_sizes":[],"default_left":[1,1,1,0,1,1,1,0,0,1,1,0,0,0,0,1,1,0,0,0,0],"id":1,"left_children":[1,3,5,-1,7,9,11,-1,-1,13,15,-1,-1,-1,-1,17,19,-1,-1,-1,-1],"loss_changes":[9.151997E1,1.131427E1,2.091637E1,0E0,5.4997635E-1,2.8523202E0,1.7274895E0,0E0,0E0,5.8636665E-3,4.973987E-1,0E0,0E0,0E0,0E0,4.321876E-2,7.0706904E-3,0E0,0E0,0E0,0E0],"parents":[2147483647,0,0,1,1,2,2,4,4,5,5,6,6,9,9,10,10,15,15,16,16],"right_children":[2,4,6,-1,8,10,12,-1,-1,14,16,-1,-1,-1,-1,18,20,-1,-1,-1,-1],"split_conditions":[-1.418565E-1,-1.2186474E0,8.1294334E-1,-9.9468194E-2,-5.5509216E-1,2.9868588E-1,1.3859761E0,-6.0038414E-2,-3.9080475E-2,1.8306853E-1,5.707228E-1,2.6896184E-2,5.68027E-2,-2.3499383E-2,-9.586032E-3,4.084033E-1,7.9053557E-1,-7.7636302E-3,-1.9602233E-3,1.0104026E-2,2.2755116E-3],"split_indices":[0,0,0,0,0,0,0,0,0,0,0,0,0,0,0,0,0,0,0,0,0],"split_type":[0,0,0,0,0,0,0,0,0,0,0,0,0,0,0,0,0,0,0,0,0],"sum_hessian":[1.34E2,6.1E1,7.3E1,2.5E1,3.6E1,4.7E1,2.6E1,2.1E1,1.5E1,2.3E1,2.4E1,1.2E1,1.4E1,2.1E1,2E0,1.4E1,1E1,5E0,9E0,9E0,1E0],"tree_param":{"num_deleted":"0","num_feature":"1","num_nodes":"21","size_leaf_vector":"0"}},{"base_weights":[-5.4109186E-1,-1.3921354E0,1.792566E-1,-1.8937212E0,-1.0020443E0,-2.0105912E-1,8.487343E-1,-1.1834289E0,-7.8869593E-1,-3.8948447E-1,8.221057E-2,5.1309645E-1,1.0830381E0,-4.4755647E-1,-1.811009E-1,-3.7440266E-2,1.8351038E-1,2.9796842E-1,5.756013E-1,-6.2602386E-2,1.5953511E-2,1.9298692E-1,4.437247E-2],"categories":[],"categories_nodes":[],"categories_segments":[],"categories_sizes":[],"default_left":[1,1,1,0,1,1,1,0,0,1,1,1,0,0,0,1,1,0,0,0,0,0,0],"id":2,"left_children":[1,3,5,-1,7,9,11,-1,-1,13,15,17,-1,-1,-1,19,21,-1,-1,-1,-1,-1,-1],"loss_changes":[8.301102E1,1.0233589E1,1.9012001E1,0E0,4.984665E-1,2.5940285E0,1.5676098E0,0E0,0E0,2.6988316E-1,2.492828E-1,3.293991E-3,0E0,0E0,0E0,1.4433735E-2,5.9407055E-3,0E0,0E0,0E0,0E0,0E0,0E0],"parents":[2147483647,0,0,1,1,2,2,4,4,5,5,6,6,9,9,10,10,11,11,15,15,16,16],"right_children":[2,4,6,-1,8,10,12,-1,-1,14,16,18,-1,-1,-1,20,22,-1,-1,-1,-1,-1,-1],"split_conditions":[-1.418565E-1,-1.2186474E0,8.1294334E-1,-9.468606E-2,-6.663734E-1,4.084033E-1,1.3859761E0,-5.9171446E-2,-3.9434798E-2,1.8306853E-1,5.707228E-1,9.66499E-1,5.4151904E-2,-2.2377824E-2,-9.055045E-3,4.3530273E-1,7.9053557E-1,1.4898421E-2,2.8780064E-2,-3.1301193E-3,7.976756E-4,9.649347E-3,2.2186234E-3],"split_indices":[0,0,0,0,0,0,0,0,0,0,0,0,0,0,0,0,0,0,0,0,0,0,0],"split_type":[0,0,0,0,0,0,0,0,0,0,0,0,0,0,0,0,0,0,0,0,0,0,0],"sum_hessian":[1.34E2,6.1E1,7.3E1,2.5E1,3.6E1,4.7E1,2.6E1,1.7E1,1.9E1,2.8E1,1.9E1,1.2E1,1.4E1,2.1E1,7E0,9E0,1E1,4E0,8E0,6E0,3E0,9E0,1E0],"tree_param":{"num_deleted":"0","num_feature":"1","num_nodes":"23","size_leaf_vector":"0"}},{"base_weights":[-5.1490664E-1,-1.3256462E0,1.713199E-1,-1.7715795E0,-9.31024E-1,-1.9146235E-1,8.0992097E-1,-2.049165E0,-1.3943943E0,-1.0628909E0,-7.0800143E-1,-3.710941E-1,7.857682E-2,5.7904685E-1,1.1445022E0,-4.3793434E-1,-2.0030428E-1,-3.5801508E-2,1.7541377E-1,2.860497E-1,6.423282E-1,-5.991944E-2,1.5355244E-2,1.8430251E-1,4.3263167E-2],"categories":[],"categories_nodes":[],"categories_segments":[],"categories_sizes":[],"default_left":[1,1,1,1,1,1,1,0,0,0,0,1,1,1,0,0,0,1,1,0,0,0,0,0,0],"id":3,"left_children":[1,3,5,7,9,11,13,-1,-1,-1,-1,15,17,19,-1,-1,-1,21,23,-1,-1,-1,-1,-1,-1],"loss_changes":[7.5334496E1,9.261078E0,1.7298882E1,7.4287415E-2,2.7679634E-1,2.3575249E0,1.422924E0,0E0,0E0,0E0,0E0,2.433331E-1,2.2780104E-1,1.5000439E-1,0E0,0E0,0E0,1.3258025E-2,4.947692E-3,0E0,0E0,0E0,0E0,0E0,0E0],"parents":[2147483647,0,0,1,1,2,2,3,3,4,4,5,5,6,6,11,11,12,12,13,13,17,17,18,18],"right_children":[2,4,6,8,10,12,14,-1,-1,-1,-1,16,18,20,-1,-1,-1,22,24,-1,-1,-1,-1,-1,-1],"split_conditions":[-1.418565E-1,-1.0820148E0,8.1294334E-1,-1.5469434E0,-5.5509216E-1,4.084033E-1,1.5332572E0,-1.0245825E-1,-6.971972E-2,-5.3144544E-2,-3.5400074E-2,1.19781554E-1,5.707228E-1,9.66499E-1,5.722511E-2,-2.1896718E-2,-1.0015215E-2,4.3530273E-1,7.9053557E-1,1.4302485E-2,3.211641E-2,-2.995972E-3,7.6776225E-4,9.215126E-3,2.1631585E-3],"split_indices":[0,0,0,0,0,0,0,0,0,0,0,0,0,0,0,0,0,0,0,0,0,0,0,0,0],"split_type":[0,0,0,0,0,0,0,0,0,0,0,0,0,0,0,0,0,0,0,0,0,0,0,0,0],"sum_hessian":[1.34E2,6.1E1,7.3E1,2.7E1,3.4E1,4.7E1,2.6E1,1.3E1,1.4E1,1.9E1,1.5E1,2.8E1,1.9E1,1.7E1,9E0,1.9E1,9E0,9E0,1E1,4E0,1.3E1,6E0,3E0,9E0,1E0],"tree_param":{"num_deleted":"0","num_feature":"1","num_nodes":"25","size_leaf_vector":"0"}},{"base_weights":[-4.9049342E-1,-1.2635691E0,1.6384691E-1,-1.7192695E0,-9.091967E-1,-1.8236345E-1,7.732636E-1,-1.075511E0,-7.140539E-1,-3.9408705E-1,2.8185742E-2,4.666368E-1,9.8745584E-1,-4.1713247E-1,-2.2308794E-1,-7.598725E-2,1.6767748E-1,-9.9910535E-2,1.4779419E-2,1.7600891E-1,4.218158E-2],"categories":[],"categories_nodes":[],"categories_segments":[],"categories_sizes":[],"default_left":[1,1,1,0,1,1,1,0,0,1,1,0,0,0,0,1,1,0,0,0,0],"id":4,"left_children":[1,3,5,-1,7,9,11,-1,-1,13,15,-1,-1,-1,-1,17,19,-1,-1,-1,-1],"loss_changes":[6.8497406E1,8.449074E0,1.5754004E1,0E0,4.3286514E-1,2.1508627E0,1.3125E0,0E0,0E0,1.5203953E-3,3.7602314E-1,0E0,0E0,0E0,0E0,3.404817E-2,4.0768385E-3,0E0,0E0,0E0,0E0],"parents":[2147483647,0,0,1,1,2,2,4,4,5,5,6,6,9,9,10,10,15,15,16,16],"right_children":[2,4,6,-1,8,10,12,-1,-1,14,16,-1,-1,-1,-1,18,20,-1,-1,-1,-1],"split_conditions":[-1.418565E-1,-1.2186474E0,8.1294334E-1,-8.596348E-2,-6.663734E-1,2.9868588E-1,1.3859761E0,-5.377555E-2,-3.5702698E-2,1.19781554E-1,5.707228E-1,2.3331841E-2,4.9372792E-2,-2.0856624E-2,-1.1154397E-2,4.3530273E-1,7.9053557E-1,-4.9955267E-3,7.3897094E-4,8.800446E-3,2.1090792E-3],"split_indices":[0,0,0,0,0,0,0,0,0,0,0,0,0,0,0,0,0,0,0,0,0],"split_type":[0,0,0,0,0,0,0,0,0,0,0,0,0,0,0,0,0,0,0,0,0],"sum_hessian":[1.34E2,6.1E1,7.3E1,2.5E1,3.6E1,4.7E1,2.6E1,1.7E1,1.9E1,2.3E1,2.4E1,1.2E1,1.4E1,1.9E1,4E0,1.4E1,1E1,1.1E1,3E0,9E0,1E0],"tree_param":{"num_deleted":"0","num_feature":"1","num_nodes":"21","size_leaf_vector":"0"}},{"base_weights":[-4.669176E-1,-1.2032204E0,1.5629438E-1,-1.524388E0,-7.587887E-1,-1.7377357E-1,7.372932E-1,-1.8742019E0,-1.2324888E0,-3.3757532E-1,7.242764E-2,5.234041E-1,1.0485641E0,-3.8734797E-1,-1.5850362E-1,-3.145864E-2,1.6028538E-1,2.5594223E-1,5.815402E-1,-5.3069588E-2,1.4225185E-2,1.6808851E-1,4.1127056E-2],"categories":[],"categories_nodes":[],"categories_segments":[],"categories_sizes":[],"default_left":[1,1,1,1,0,1,1,0,0,1,1,1,0,0,0,1,1,0,0,0,0,0,0],"id":5,"left_children":[1,3,5,7,-1,9,11,-1,-1,13,15,17,-1,-1,-1,19,21,-1,-1,-1,-1,-1,-1],"loss_changes":[6.213587E1,7.6930084E0,1.4319035E1,1.2639236E0,0E0,1.9602027E0,1.2487679E0,0E0,0E0,1.9707727E-1,1.8758664E-1,1.3104486E-1,0E0,0E0,0E0,1.0627633E-2,3.3148825E-3,0E0,0E0,0E0,0E0,0E0,0E0],"parents":[2147483647,0,0,1,1,2,2,3,3,5,5,6,6,9,9,10,10,11,11,15,15,16,16],"right_children":[2,4,6,8,-1,10,12,-1,-1,14,16,18,-1,-1,-1,20,22,-1,-1,-1,-1,-1,-1],"split_conditions":[-1.418565E-1,-8.565159E-1,8.1294334E-1,-1.5469434E0,-3.7939437E-2,4.084033E-1,1.5332572E0,-9.3710095E-2,-6.1624438E-2,1.8306853E-1,5.707228E-1,9.66499E-1,5.2428205E-2,-1.9367399E-2,-7.925182E-3,4.3530273E-1,7.9053557E-1,1.2797112E-2,2.9077012E-2,-2.6534793E-3,7.1125926E-4,8.404425E-3,2.0563528E-3],"split_indices":[0,0,0,0,0,0,0,0,0,0,0,0,0,0,0,0,0,0,0,0,0,0,0],"split_type":[0,0,0,0,0,0,0,0,0,0,0,0,0,0,0,0,0,0,0,0,0,0,0],"sum_hessian":[1.34E2,6.1E1,7.3E1,3.4E1,2.7E1,4.7E1,2.6E1,1.3E1,2.1E1,2.8E1,1.9E1,1.7E1,9E0,2.1E1,7E0,9E0,1E1,4E0,1.3E1,6E0,3E0,9E0,1E0],"tree_param":{"num_deleted":"0","num_feature":"1","num_nodes":"23","size_leaf_vector":"0"}},{"base_weights":[-4.444439E-1,-1.1461767E0,1.4950031E-1,-1.534235E0,-8.029821E-1,-1.6547601E-1,7.039212E-1,-1.7871854E0,-1.1958655E0,-9.2059916E-1,-6.0577434E-1,-3.2163766E-1,6.923218E-2,4.9956027E-1,1.0013788E0,-3.7891963E-1,-1.7490996E-1,-3.0079927E-2,1.5322208E-1,2.4570455E-1,5.5454016E-1,-5.0795175E-2,1.3691738E-2,1.6052452E-1,4.0098876E-2],"categories":[],"categories_nodes":[],"categories_segments":[],"categories_sizes":[],"default_left":[1,1,1,1,1,1,1,0,0,0,0,1,1,1,0,0,0,1,1,0,0,0,0,0,0],"id":6,"left_children":[1,3,5,7,9,11,13,-1,-1,-1,-1,15,17,19,-1,-1,-1,21,23,-1,-1,-1,-1,-1,-1],"loss_changes":[5.643802E1,7.0251617E0,1.3039062E1,2.5930786E-1,2.5414848E-1,1.7815839E0,1.1410456E0,0E0,0E0,0E0,0E0,1.7746377E-1,1.714332E-1,1.14972115E-1,0E0,0E0,0E0,9.762885E-3,2.649963E-3,0E0,0E0,0E0,0E0,0E0,0E0],"parents":[2147483647,0,0,1,1,2,2,3,3,4,4,5,5,6,6,11,11,12,12,13,13,17,17,18,18],"right_children":[2,4,6,8,10,12,14,-1,-1,-1,-1,16,18,20,-1,-1,-1,22,24,-1,-1,-1,-1,-1,-1],"split_conditions":[-1.418565E-1,-1.0820148E0,8.1294334E-1,-1.5469434E0,-5.5509216E-1,4.084033E-1,1.5332572E0,-8.9359276E-2,-5.9793275E-2,-4.602996E-2,-3.0288717E-2,1.19781554E-1,5.707228E-1,9.66499E-1,5.006894E-2,-1.8945983E-2,-8.745498E-3,4.3530273E-1,7.9053557E-1,1.2285228E-2,2.7727008E-2,-2.5397588E-3,6.8458694E-4,8.026226E-3,2.0049438E-3],"split_indices":[0,0,0,0,0,0,0,0,0,0,0,0,0,0,0,0,0,0,0,0,0,0,0,0,0],"split_type":[0,0,0,0,0,0,0,0,0,0,0,0,0,0,0,0,0,0,0,0,0,0,0,0,0],"sum_hessian":[1.34E2,6.1E1,7.3E1,2.7E1,3.4E1,4.7E1,2.6E1,1.3E1,1.4E1,1.9E1,1.5E1,2.8E1,1.9E1,1.7E1,9E0,1.9E1,9E0,9E0,1E1,4E0,1.3E1,6E0,3E0,9E0,1E0],"tree_param":{"num_deleted":"0","num_feature":"1","num_nodes":"25","size_leaf_vector":"0"}},{"base_weights":[-4.2336917E-1,-1.0925045E0,1.4297889E-1,-1.3862928E0,-6.8625104E-1,-1.5760879E-1,6.720615E-1,-1.704209E0,-1.1209692E0,-3.4165308E-1,2.5378086E-2,4.7680515E-1,9.563167E-1,-3.7863854E-1,-2.3793972E-1,-6.5116644E-2,1.4647289E-1,2.3587635E-1,5.2879363E-1,-8.578857E-2,1.3178296E-2,5.980448E-2,1.590876E-1],"categories":[],"categories_nodes":[],"categories_segments":[],"categories_sizes":[],"default_left":[1,1,1,1,0,1,1,0,0,1,1,1,0,0,0,1,1,0,0,0,0,0,0],"id":7,"left_children":[1,3,5,7,-1,9,11,-1,-1,13,15,17,-1,-1,-1,19,21,-1,-1,-1,-1,-1,-1],"loss_changes":[5.1316265E1,6.448517E0,1.1874566E1,1.0419083E0,0E0,1.6251997E0,1.042593E0,0E0,0E0,1.967907E-3,2.8349888E-1,1.0072994E-1,0E0,0E0,0E0,2.5408156E-2,2.5121272E-3,0E0,0E0,0E0,0E0,0E0,0E0],"parents":[2147483647,0,0,1,1,2,2,3,3,5,5,6,6,9,9,10,10,11,11,15,15,16,16],"right_children":[2,4,6,8,-1,10,12,-1,-1,14,16,18,-1,-1,-1,20,22,-1,-1,-1,-1,-1,-1],"split_conditions":[-1.418565E-1,-8.565159E-1,8.1294334E-1,-1.5469434E0,-3.4312554E-2,2.9868588E-1,1.5332572E0,-8.521045E-2,-5.604846E-2,7.9494745E-2,5.707228E-1,9.66499E-1,4.7815837E-2,-1.8931927E-2,-1.1896986E-2,4.3530273E-1,7.091788E-1,1.1793817E-2,2.6439682E-2,-4.2894287E-3,6.5891485E-4,2.9902242E-3,7.9543805E-3],"split_indices":[0,0,0,0,0,0,0,0,0,0,0,0,0,0,0,0,0,0,0,0,0,0,0],"split_type":[0,0,0,0,0,0,0,0,0,0,0,0,0,0,0,0,0,0,0,0,0,0,0],"sum_hessian":[1.34E2,6.1E1,7.3E1,3.4E1,2.7E1,4.7E1,2.6E1,1.3E1,2.1E1,2.3E1,2.4E1,1.7E1,9E0,1.5E1,8E0,1.4E1,1E1,4E0,1.3E1,1.1E1,3E0,2E0,8E0],"tree_param":{"num_deleted":"0","num_feature":"1","num_nodes":"23","size_leaf_vector":"0"}},{"base_weights":[-4.0303802E-1,-1.040711E0,1.3667502E-1,-1.4205649E0,-7.4565935E-1,-1.5021823E-1,6.4164543E-1,-8.9809585E-1,-5.8675075E-1,-2.926968E-1,6.388659E-2,3.8252637E-1,8.234389E-1,-3.3555064E-1,-1.3826165E-1,-2.6385471E-2,1.4014423E-1,-4.49416E-2,1.2684122E-2,1.471348E-1,3.5119236E-2],"categories":[],"categories_nodes":[],"categories_segments":[],"categories_sizes":[],"default_left":[1,1,1,0,1,1,1,0,0,1,1,0,0,0,0,1,1,0,0,0,0],"id":8,"left_children":[1,3,5,-1,7,9,11,-1,-1,13,15,-1,-1,-1,-1,17,19,-1,-1,-1,-1],"loss_changes":[4.6603897E1,5.889488E0,1.0816959E1,0E0,3.6931038E-1,1.4829562E0,9.568796E-1,0E0,0E0,1.4553213E-1,1.4137645E-1,0E0,0E0,0E0,0E0,7.819847E-3,2.9087812E-3,0E0,0E0,0E0,0E0],"parents":[2147483647,0,0,1,1,2,2,4,4,5,5,6,6,9,9,10,10,15,15,16,16],"right_children":[2,4,6,-1,8,10,12,-1,-1,14,16,-1,-1,-1,-1,18,20,-1,-1,-1,-1],"split_conditions":[-1.418565E-1,-1.2186474E0,8.1294334E-1,-7.102825E-2,-7.217313E-1,4.084033E-1,1.3859761E0,-4.4904795E-2,-2.9337538E-2,1.8306853E-1,5.707228E-1,1.9126318E-2,4.1171946E-2,-1.6777532E-2,-6.913082E-3,4.3530273E-1,7.9053557E-1,-2.24708E-3,6.342061E-4,7.35674E-3,1.7559618E-3],"split_indices":[0,0,0,0,0,0,0,0,0,0,0,0,0,0,0,0,0,0,0,0,0],"split_type":[0,0,0,0,0,0,0,0,0,0,0,0,0,0,0,0,0,0,0,0,0],"sum_hessian":[1.34E2,6.1E1,7.3E1,2.5E1,3.6E1,4.7E1,2.6E1,1.6E1,2E1,2.8E1,1.9E1,1.2E1,1.4E1,2.1E1,7E0,9E0,1E1,6E0,3E0,9E0,1E0],"tree_param":{"num_deleted":"0","num_feature":"1","num_nodes":"21","size_leaf_vector":"0"}},{"base_weights":[-3.8363546E-1,-9.9101853E-1,1.3043731E-1,-1.2587327E0,-6.2098235E-1,-1.4304464E-1,6.1179644E-1,-1.5591301E0,-1.0103556E0,-2.7887887E-1,6.106724E-2,4.3090147E-1,8.762277E-1,-3.2840395E-1,-1.5194084E-1,-2.522749E-2,1.3396542E-1,2.1114029E-1,4.7860894E-1,-4.3015543E-2,1.2208477E-2,5.2906472E-2,1.4610003E-1],"categories":[],"categories_nodes":[],"categories_segments":[],"categories_sizes":[],"default_left":[1,1,1,1,0,1,1,0,0,1,1,1,0,0,0,1,1,0,0,0,0,0,0],"id":9,"left_children":[1,3,5,7,-1,9,11,-1,-1,13,15,17,-1,-1,-1,19,21,-1,-1,-1,-1,-1,-1],"loss_changes":[4.2281548E1,5.3603096E0,9.829098E0,1.0361404E0,0E0,1.3478487E0,9.1395664E-1,0E0,0E0,1.3241386E-1,1.2919417E-1,8.7662935E-2,0E0,0E0,0E0,7.184284E-3,3.090158E-3,0E0,0E0,0E0,0E0,0E0,0E0],"parents":[2147483647,0,0,1,1,2,2,3,3,5,5,6,6,9,9,10,10,11,11,15,15,16,16],"right_children":[2,4,6,8,-1,10,12,-1,-1,14,16,18,-1,-1,-1,20,22,-1,-1,-1,-1,-1,-1],"split_conditions":[-1.418565E-1,-8.565159E-1,8.1294334E-1,-1.5469434E0,-3.1049117E-2,4.084033E-1,1.5332572E0,-7.7956505E-2,-5.051778E-2,1.19781554E-1,5.707228E-1,9.66499E-1,4.3811385E-2,-1.6420199E-2,-7.597042E-3,4.3530273E-1,7.091788E-1,1.05570145E-2,2.3930447E-2,-2.1507773E-3,6.1042386E-4,2.6453238E-3,7.3050014E-3],"split_indices":[0,0,0,0,0,0,0,0,0,0,0,0,0,0,0,0,0,0,0,0,0,0,0],"split_type":[0,0,0,0,0,0,0,0,0,0,0,0,0,0,0,0,0,0,0,0,0,0,0],"sum_hessian":[1.34E2,6.1E1,7.3E1,3.4E1,2.7E1,4.7E1,2.6E1,1.3E1,2.1E1,2.8E1,1.9E1,1.7E1,9E0,1.9E1,9E0,9E0,1E1,4E0,1.3E1,6E0,3E0,2E0,8E0],"tree_param":{"num_deleted":"0","num_feature":"1","num_nodes":"23","size_leaf_vector":"0"}},{"base_weights":[-3.6517096E-1,-8.2865953E-1,2.4591026E-1,-1.1994667E0,-5.075686E-1,-6.7215636E-3,6.4162624E-1,-1.4867419E0,-9.62134E-1,-6.0421884E-1,-3.3976454E-1,-1.298093E-1,1.4572339E-1,4.5638782E-1,8.3679736E-1,-2.0396902E-1,-6.848263E-2,4.1472815E-2,1.7461027E-1,-9.918957E-2,-3.6892097E-2,1.797843E-2,5.114293E-2,9.993529E-2,1.9669522E-1],"categories":[],"categories_nodes":[],"categories_segments":[],"categories_sizes":[],"default_left":[1,1,1,1,1,1,1,0,0,0,0,1,1,0,0,0,1,1,1,0,0,0,0,0,0],"id":10,"left_children":[1,3,5,7,9,11,13,-1,-1,-1,-1,15,17,-1,-1,-1,19,21,23,-1,-1,-1,-1,-1,-1],"loss_changes":[3.8439716E1,8.559025E0,5.902569E0,9.558487E-1,4.92095E-1,7.131881E-1,4.4962025E-1,0E0,0E0,0E0,0E0,8.1539005E-2,4.395348E-2,0E0,0E0,0E0,8.9513175E-3,2.1649711E-4,1.7827153E-3,0E0,0E0,0E0,0E0,0E0,0E0],"parents":[2147483647,0,0,1,1,2,2,3,3,4,4,5,5,6,6,11,11,12,12,16,16,17,17,18,18],"right_children":[2,4,6,8,10,12,14,-1,-1,-1,-1,16,18,-1,-1,-1,20,22,24,-1,-1,-1,-1,-1,-1],"split_conditions":[7.9494745E-2,-8.565159E-1,9.66499E-1,-1.5469434E0,-3.1170824E-1,4.7728205E-1,1.5332572E0,-7.4337095E-2,-4.81067E-2,-3.0210942E-2,-1.6988227E-2,2.9868588E-1,7.091788E-1,2.281939E-2,4.1839868E-2,-1.0198451E-2,4.084033E-1,5.707228E-1,7.786609E-1,-4.9594785E-3,-1.8446048E-3,8.989215E-4,2.5571466E-3,4.996765E-3,9.834762E-3],"split_indices":[0,0,0,0,0,0,0,0,0,0,0,0,0,0,0,0,0,0,0,0,0,0,0,0,0],"split_type":[0,0,0,0,0,0,0,0,0,0,0,0,0,0,0,0,0,0,0,0,0,0,0,0,0],"sum_hessian":[1.34E2,7.6E1,5.8E1,3.4E1,4.2E1,3.6E1,2.2E1,1.3E1,2.1E1,2.5E1,1.7E1,2E1,1.6E1,1.3E1,9E0,8E0,1.2E1,4E0,1.2E1,5E0,7E0,2E0,2E0,4E0,8E0],"tree_param":{"num_deleted":"0","num_feature":"1","num_nodes":"25","size_leaf_vector":"0"}},{"base_weights":[-3.4768057E-1,-7.894297E-1,2.3473245E-1,-1.1338607E0,-4.7540724E-1,-6.350757E-3,6.123562E-1,-1.4177146E0,-9.117818E-1,-5.656057E-1,-3.237201E-1,-1.2412848E-1,1.3951296E-1,4.351984E-1,7.991415E-1,-1.9490373E-1,-6.558189E-2,4.0090393E-2,1.6702063E-1,-9.505668E-2,-3.527806E-2,1.7379165E-2,4.943816E-2,9.593787E-2,1.879532E-1],"categories":[],"categories_nodes":[],"categories_segments":[],"categories_sizes":[],"default_left":[1,1,1,1,1,1,1,0,0,0,0,1,1,0,0,0,1,1,1,0,0,0,0,0,0],"id":11,"left_children":[1,3,5,7,9,11,13,-1,-1,-1,-1,15,17,-1,-1,-1,19,21,23,-1,-1,-1,-1,-1,-1],"loss_changes":[3.4918167E1,7.7892036E0,5.3751745E0,9.767227E-1,3.915434E-1,6.529589E-1,4.1329575E-1,0E0,0E0,0E0,0E0,7.4234486E-2,3.9797097E-2,0E0,0E0,0E0,8.258175E-3,2.0230189E-4,1.311481E-3,0E0,0E0,0E0,0E0,0E0,0E0],"parents":[2147483647,0,0,1,1,2,2,3,3,4,4,5,5,6,6,11,11,12,12,16,16,17,17,18,18],"right_children":[2,4,6,8,10,12,14,-1,-1,-1,-1,16,18,-1,-1,-1,20,22,24,-1,-1,-1,-1,-1,-1],"split_conditions":[7.9494745E-2,-8.3440995E-1,9.66499E-1,-1.5469434E0,-3.1170824E-1,4.7728205E-1,1.5332572E0,-7.088573E-2,-4.558909E-2,-2.8280286E-2,-1.6186005E-2,2.9868588E-1,7.091788E-1,2.175992E-2,3.9957076E-2,-9.745187E-3,4.084033E-1,5.707228E-1,7.786609E-1,-4.7528343E-3,-1.763903E-3,8.6895825E-4,2.471908E-3,4.796894E-3,9.39766E-3],"split_indices":[0,0,0,0,0,0,0,0,0,0,0,0,0,0,0,0,0,0,0,0,0,0,0,0,0],"split_type":[0,0,0,0,0,0,0,0,0,0,0,0,0,0,0,0,0,0,0,0,0,0,0,0,0],"sum_hessian":[1.34E2,7.6E1,5.8E1,3.5E1,4.1E1,3.6E1,2.2E1,1.3E1,2.2E1,2.4E1,1.7E1,2E1,1.6E1,1.3E1,9E0,8E0,1.2E1,4E0,1.2E1,5E0,7E0,2E0,2E0,4E0,8E0],"tree_param":{"num_deleted":"0","num_feature":"1","num_nodes":"25","size_leaf_vector":"0"}},{"base_weights":[-3.3102208E-1,-7.520484E-1,2.2406346E-1,-1.0893093E0,-4.6004418E-1,-5.99881E-3,5.8442175E-1,-1.3518921E0,-8.726972E-1,-5.4731154E-1,-3.0843332E-1,-1.1869644E-1,1.3356878E-1,4.1499275E-1,7.631802E-1,-1.8624136E-1,-6.280407E-2,3.8754035E-2,1.5976146E-1,-9.109598E-2,-3.373464E-2,1.6799847E-2,4.779021E-2,9.210034E-2,1.795997E-1],"categories":[],"categories_nodes":[],"categories_segments":[],"categories_sizes":[],"default_left":[1,1,1,1,1,1,1,0,0,0,0,1,1,0,0,0,1,1,1,0,0,0,0,0,0],"id":12,"left_children":[1,3,5,7,9,11,13,-1,-1,-1,-1,15,17,-1,-1,-1,19,21,23,-1,-1,-1,-1,-1,-1],"loss_changes":[3.1718765E1,7.081955E0,4.8948917E0,8.109627E-1,4.0011024E-1,5.978248E-1,3.798833E-1,0E0,0E0,0E0,0E0,6.758341E-2,3.6027282E-2,0E0,0E0,0E0,7.618498E-3,1.8904079E-4,9.084642E-4,0E0,0E0,0E0,0E0,0E0,0E0],"parents":[2147483647,0,0,1,1,2,2,3,3,4,4,5,5,6,6,11,11,12,12,16,16,17,17,18,18],"right_children":[2,4,6,8,10,12,14,-1,-1,-1,-1,16,18,-1,-1,-1,20,22,24,-1,-1,-1,-1,-1,-1],"split_conditions":[7.9494745E-2,-8.565159E-1,9.66499E-1,-1.5469434E0,-3.1170824E-1,4.7728205E-1,1.5332572E0,-6.759461E-2,-4.3634858E-2,-2.7365578E-2,-1.5421666E-2,2.9868588E-1,7.091788E-1,2.0749638E-2,3.815901E-2,-9.312068E-3,4.084033E-1,5.707228E-1,7.786609E-1,-4.554799E-3,-1.6867319E-3,8.3999237E-4,2.3895106E-3,4.605017E-3,8.9799855E-3],"split_indices":[0,0,0,0,0,0,0,0,0,0,0,0,0,0,0,0,0,0,0,0,0,0,0,0,0],"split_type":[0,0,0,0,0,0,0,0,0,0,0,0,0,0,0,0,0,0,0,0,0,0,0,0,0],"sum_hessian":[1.34E2,7.6E1,5.8E1,3.4E1,4.2E1,3.6E1,2.2E1,1.3E1,2.1E1,2.5E1,1.7E1,2E1,1.6E1,1.3E1,9E0,8E0,1.2E1,4E0,1.2E1,5E0,7E0,2E0,2E0,4E0,8E0],"tree_param":{"num_deleted":"0","num_feature":"1","num_nodes":"25","size_leaf_vector":"0"}},{"base_weights":[-3.1516615E-1,-7.164462E-1,2.138801E-1,-1.0297801E0,-4.3081602E-1,-5.6647877E-3,5.577619E-1,-1.4344516E0,-8.8263696E-1,-5.1218563E-1,-2.9386842E-1,-1.13502264E-1,1.2787944E-1,3.9572522E-1,7.288371E-1,-1.7796397E-1,-6.0143992E-2,3.7462234E-2,1.5281841E-1,-8.730031E-2,-3.2258756E-2,1.6239842E-2,4.6197217E-2,8.841634E-2,1.7161751E-1],"categories":[],"categories_nodes":[],"categories_segments":[],"categories_sizes":[],"default_left":[1,1,1,1,1,1,1,0,0,0,0,1,1,0,0,0,1,1,1,0,0,0,0,0,0],"id":13,"left_children":[1,3,5,7,9,11,13,-1,-1,-1,-1,15,17,-1,-1,-1,19,21,23,-1,-1,-1,-1,-1,-1],"loss_changes":[2.8813152E1,6.447674E0,4.4575114E0,8.7750626E-1,3.175068E-1,5.473543E-1,3.4915113E-1,0E0,0E0,0E0,0E0,6.15274E-2,3.26086E-2,0E0,0E0,0E0,7.028181E-3,1.7665047E-4,5.6532025E-4,0E0,0E0,0E0,0E0,0E0,0E0],"parents":[2147483647,0,0,1,1,2,2,3,3,4,4,5,5,6,6,11,11,12,12,16,16,17,17,18,18],"right_children":[2,4,6,8,10,12,14,-1,-1,-1,-1,16,18,-1,-1,-1,20,22,24,-1,-1,-1,-1,-1,-1],"split_conditions":[7.9494745E-2,-8.3440995E-1,9.66499E-1,-2.0402842E0,-3.1170824E-1,4.7728205E-1,1.5332572E0,-7.172258E-2,-4.413185E-2,-2.5609283E-2,-1.4693421E-2,2.9868588E-1,7.091788E-1,1.9786261E-2,3.6441855E-2,-8.898199E-3,4.084033E-1,5.707228E-1,7.786609E-1,-4.3650153E-3,-1.6129379E-3,8.1199215E-4,2.309861E-3,4.420817E-3,8.580876E-3],"split_indices":[0,0,0,0,0,0,0,0,0,0,0,0,0,0,0,0,0,0,0,0,0,0,0,0,0],"split_type":[0,0,0,0,0,0,0,0,0,0,0,0,0,0,0,0,0,0,0,0,0,0,0,0,0],"sum_hessian":[1.34E2,7.6E1,5.8E1,3.5E1,4.1E1,3.6E1,2.2E1,7E0,2.8E1,2.4E1,1.7E1,2E1,1.6E1,1.3E1,9E0,8E0,1.2E1,4E0,1.2E1,5E0,7E0,2E0,2E0,4E0,8E0],"tree_param":{"num_deleted":"0","num_feature":"1","num_nodes":"25","size_leaf_vector":"0"}},{"base_weights":[-3.0013883E-1,-6.8265194E-1,2.0416029E-1,-9.8963284E-1,-4.1690812E-1,-5.3478316E-3,5.3231853E-1,-1.3716944E0,-8.4512836E-1,-5.3631556E-1,-3.182065E-1,-1.0853554E-1,1.22433916E-1,3.773523E-1,6.9603944E-1,-1.7005445E-1,-5.759663E-2,3.6213495E-2,1.4617762E-1,-8.3662786E-2,-3.0847441E-2,1.5698513E-2,4.465731E-2,8.487968E-2,1.6399008E-1],"categories":[],"categories_nodes":[],"categories_segments":[],"categories_sizes":[],"default_left":[1,1,1,1,1,1,1,0,0,0,0,1,1,0,0,0,1,1,1,0,0,0,0,0,0],"id":14,"left_children":[1,3,5,7,9,11,13,-1,-1,-1,-1,15,17,-1,-1,-1,19,21,23,-1,-1,-1,-1,-1,-1],"loss_changes":[2.6181007E1,5.8689423E0,4.059204E0,7.7308273E-1,3.3612633E-1,5.0115216E-1,3.2088566E-1,0E0,0E0,0E0,0E0,5.601327E-2,2.950865E-2,0E0,0E0,0E0,6.483447E-3,1.650704E-4,2.7486682E-4,0E0,0E0,0E0,0E0,0E0,0E0],"parents":[2147483647,0,0,1,1,2,2,3,3,4,4,5,5,6,6,11,11,12,12,16,16,17,17,18,18],"right_children":[2,4,6,8,10,12,14,-1,-1,-1,-1,16,18,-1,-1,-1,20,22,24,-1,-1,-1,-1,-1,-1],"split_conditions":[7.9494745E-2,-8.565159E-1,9.66499E-1,-2.0402842E0,-4.561877E-1,4.7728205E-1,1.5332572E0,-6.8584725E-2,-4.225642E-2,-2.6815778E-2,-1.5910326E-2,2.9868588E-1,7.091788E-1,1.8867616E-2,3.480197E-2,-8.502723E-3,4.084033E-1,5.707228E-1,7.786609E-1,-4.183139E-3,-1.542372E-3,7.8492565E-4,2.2328654E-3,4.2439844E-3,8.199505E-3],"split_indices":[0,0,0,0,0,0,0,0,0,0,0,0,0,0,0,0,0,0,0,0,0,0,0,0,0],"split_type":[0,0,0,0,0,0,0,0,0,0,0,0,0,0,0,0,0,0,0,0,0,0,0,0,0],"sum_hessian":[1.34E2,7.6E1,5.8E1,3.4E1,4.2E1,3.6E1,2.2E1,7E0,2.7E1,1.7E1,2.5E1,2E1,1.6E1,1.3E1,9E0,8E0,1.2E1,4E0,1.2E1,5E0,7E0,2E0,2E0,4E0,8E0],"tree_param":{"num_deleted":"0","num_feature":"1","num_nodes":"25","size_leaf_vector":"0"}},{"base_weights":[-2.858627E-1,-7.4195606E-1,1.00132555E-1,-1.0225999E0,-5.2469397E-1,-1.0642756E-1,4.6364194E-1,-1.3116827E0,-8.4705985E-1,-6.120421E-1,-3.717969E-1,-2.0799333E-1,4.616419E-2,2.6906323E-1,6.0136735E-1,-2.3793972E-1,-9.9641584E-2,-1.9045735E-2,1.0124919E-1,-3.3928704E-2,1.1760898E-2,1.0975564E-1,8.092344E-3],"categories":[],"categories_nodes":[],"categories_segments":[],"categories_sizes":[],"default_left":[1,1,1,1,1,1,1,0,0,0,0,1,1,0,0,0,0,1,1,0,0,0,0],"id":15,"left_children":[1,3,5,7,9,11,13,-1,-1,-1,-1,15,17,-1,-1,-1,-1,19,21,-1,-1,-1,-1],"loss_changes":[2.384103E1,3.2437897E0,5.605747E0,2.0831299E-1,2.6659107E-1,7.535106E-1,5.6175184E-1,0E0,0E0,0E0,0E0,7.038891E-2,7.3770136E-2,0E0,0E0,0E0,0E0,4.9839737E-3,7.828601E-3,0E0,0E0,0E0,0E0],"parents":[2147483647,0,0,1,1,2,2,3,3,4,4,5,5,6,6,11,11,12,12,17,17,18,18],"right_children":[2,4,6,8,10,12,14,-1,-1,-1,-1,16,18,-1,-1,-1,-1,20,22,-1,-1,-1,-1],"split_conditions":[-1.418565E-1,-1.2186474E0,8.1294334E-1,-2.0402842E0,-5.5509216E-1,4.084033E-1,1.3859761E0,-6.558414E-2,-4.2352993E-2,-3.0602107E-2,-1.8589845E-2,1.8306853E-1,5.707228E-1,1.3453162E-2,3.0068368E-2,-1.1896986E-2,-4.9820794E-3,4.3530273E-1,7.9053557E-1,-1.6964352E-3,5.8804493E-4,5.4877824E-3,4.046172E-4],"split_indices":[0,0,0,0,0,0,0,0,0,0,0,0,0,0,0,0,0,0,0,0,0,0,0],"split_type":[0,0,0,0,0,0,0,0,0,0,0,0,0,0,0,0,0,0,0,0,0,0,0],"sum_hessian":[1.34E2,6.1E1,7.3E1,2.5E1,3.6E1,4.7E1,2.6E1,7E0,1.8E1,2.1E1,1.5E1,2.8E1,1.9E1,1.2E1,1.4E1,2.1E1,7E0,9E0,1E1,6E0,3E0,9E0,1E0],"tree_param":{"num_deleted":"0","num_feature":"1","num_nodes":"23","size_leaf_vector":"0"}},{"base_weights":[-2.7250072E-1,-7.0739263E-1,9.55506E-2,-9.756214E-1,-4.997888E-1,-1.0135817E-1,4.420717E-1,-1.2542967E0,-8.0693597E-1,-5.82831E-1,-3.5436893E-1,-1.981757E-1,4.409517E-2,2.566449E-1,5.733035E-1,-2.3277159E-1,-1.0916636E-1,-1.820429E-2,9.6722394E-2,-3.2474615E-2,1.1319853E-2,1.0481662E-1,7.890046E-3],"categories":[],"categories_nodes":[],"categories_segments":[],"categories_sizes":[],"default_left":[1,1,1,1,1,1,1,0,0,0,0,1,1,0,0,0,0,1,1,0,0,0,0],"id":16,"left_children":[1,3,5,7,9,11,13,-1,-1,-1,-1,15,17,-1,-1,-1,-1,19,21,-1,-1,-1,-1],"loss_changes":[2.1676033E1,2.9648838E0,5.0940523E0,2.1008492E-1,2.4027443E-1,6.846955E-1,5.0988007E-1,0E0,0E0,0E0,0E0,6.389046E-2,6.73337E-2,0E0,0E0,0E0,0E0,4.5807995E-3,7.0823133E-3,0E0,0E0,0E0,0E0],"parents":[2147483647,0,0,1,1,2,2,3,3,4,4,5,5,6,6,11,11,12,12,17,17,18,18],"right_children":[2,4,6,8,10,12,14,-1,-1,-1,-1,16,18,-1,-1,-1,-1,20,22,-1,-1,-1,-1],"split_conditions":[-1.418565E-1,-1.2186474E0,8.1294334E-1,-2.0402842E0,-5.5509216E-1,4.084033E-1,1.3859761E0,-6.271484E-2,-4.0346798E-2,-2.914155E-2,-1.7718447E-2,1.19781554E-1,5.707228E-1,1.2832246E-2,2.8665176E-2,-1.163858E-2,-5.458318E-3,4.3530273E-1,7.9053557E-1,-1.6237308E-3,5.6599267E-4,5.240831E-3,3.9450228E-4],"split_indices":[0,0,0,0,0,0,0,0,0,0,0,0,0,0,0,0,0,0,0,0,0,0,0],"split_type":[0,0,0,0,0,0,0,0,0,0,0,0,0,0,0,0,0,0,0,0,0,0,0],"sum_hessian":[1.34E2,6.1E1,7.3E1,2.5E1,3.6E1,4.7E1,2.6E1,7E0,1.8E1,2.1E1,1.5E1,2.8E1,1.9E1,1.2E1,1.4E1,1.9E1,9E0,9E0,1E1,6E0,3E0,9E0,1E0],"tree_param":{"num_deleted":"0","num_feature":"1","num_nodes":"23","size_leaf_vector":"0"}},{"base_weights":[-2.597716E-1,-6.1225986E-1,1.5279062E-1,-8.597643E-1,-3.7444156E-1,-2.5035795E-2,4.6314245E-1,-1.0823563E0,-6.790346E-1,-4.6107483E-1,-2.8653973E-1,-1.1728307E-1,9.935145E-2,3.2383585E-1,6.118575E-1,-1.6679652E-1,-5.386991E-2,2.527172E-2,1.2589967E-1,-7.147649E-2,-3.1082856E-2,1.8192828E-4,3.0253291E-2,7.2901584E-2,1.413542E-1],"categories":[],"categories_nodes":[],"categories_segments":[],"categories_sizes":[],"default_left":[1,1,1,1,1,1,1,0,0,0,0,1,1,0,0,0,1,1,1,0,0,0,0,0,0],"id":17,"left_children":[1,3,5,7,9,11,13,-1,-1,-1,-1,15,17,-1,-1,-1,19,21,23,-1,-1,-1,-1,-1,-1],"loss_changes":[1.9725698E1,3.9749298E0,3.4884868E0,6.7305756E-1,1.6487741E-1,4.8210198E-1,2.783494E-1,0E0,0E0,0E0,0E0,6.636998E-2,3.221862E-2,0E0,0E0,0E0,2.5927313E-3,7.444157E-4,3.4284592E-4,0E0,0E0,0E0,0E0,0E0,0E0],"parents":[2147483647,0,0,1,1,2,2,3,3,4,4,5,5,6,6,11,11,12,12,16,16,17,17,18,18],"right_children":[2,4,6,8,10,12,14,-1,-1,-1,-1,16,18,-1,-1,-1,20,22,24,-1,-1,-1,-1,-1,-1],"split_conditions":[-3.9035928E-2,-8.565159E-1,9.66499E-1,-1.5469434E0,-4.561877E-1,4.3530273E-1,1.5332572E0,-5.4117817E-2,-3.395173E-2,-2.3053741E-2,-1.4326987E-2,2.9868588E-1,7.091788E-1,1.6191794E-2,3.0592874E-2,-8.339826E-3,4.084033E-1,4.7728205E-1,7.786609E-1,-3.5738244E-3,-1.5541428E-3,9.096414E-6,1.5126646E-3,3.6450792E-3,7.06771E-3],"split_indices":[0,0,0,0,0,0,0,0,0,0,0,0,0,0,0,0,0,0,0,0,0,0,0,0,0],"split_type":[0,0,0,0,0,0,0,0,0,0,0,0,0,0,0,0,0,0,0,0,0,0,0,0,0],"sum_hessian":[1.34E2,7.2E1,6.2E1,3.4E1,3.8E1,4E1,2.2E1,1.3E1,2.1E1,1.7E1,2.1E1,2.3E1,1.7E1,1.3E1,9E0,1.2E1,1.1E1,5E0,1.2E1,5E0,6E0,1E0,4E0,4E0,8E0],"tree_param":{"num_deleted":"0","num_feature":"1","num_nodes":"25","size_leaf_vector":"0"}},{"base_weights":[-2.4737483E-1,-6.4296204E-1,8.740598E-2,-8.880753E-1,-4.5334288E-1,-9.163529E-2,4.024643E-1,-1.152068E0,-7.3017967E-1,-5.5511963E-1,-3.4936446E-1,-1.7935495E-1,4.0139977E-2,2.790721E-1,5.843238E-1,-2.0508148E-1,-8.618762E-2,-1.677082E-2,8.822798E-2,1.6498564E-1,3.2236654E-1,-2.9750744E-2,1.0136753E-2,9.621899E-2,4.158914E-3],"categories":[],"categories_nodes":[],"categories_segments":[],"categories_sizes":[],"default_left":[1,1,1,1,1,1,1,0,0,0,0,1,1,1,0,0,0,1,1,0,0,0,0,0,0],"id":18,"left_children":[1,3,5,7,9,11,13,-1,-1,-1,-1,15,17,19,-1,-1,-1,21,23,-1,-1,-1,-1,-1,-1],"loss_changes":[1.7934925E1,2.4790401E0,4.2111044E0,2.425499E-1,1.9761705E-1,5.6204486E-1,4.4281292E-1,0E0,0E0,0E0,0E0,5.183381E-2,5.6214184E-2,3.572166E-2,0E0,0E0,0E0,3.794158E-3,6.9895983E-3,0E0,0E0,0E0,0E0,0E0,0E0],"parents":[2147483647,0,0,1,1,2,2,3,3,4,4,5,5,6,6,11,11,12,12,13,13,17,17,18,18],"right_children":[2,4,6,8,10,12,14,-1,-1,-1,-1,16,18,20,-1,-1,-1,22,24,-1,-1,-1,-1,-1,-1],"split_conditions":[-1.418565E-1,-1.2186474E0,8.1294334E-1,-2.0402842E0,-7.217313E-1,4.084033E-1,1.5332572E0,-5.76034E-2,-3.6508985E-2,-2.7755981E-2,-1.7468223E-2,1.8306853E-1,5.707228E-1,1.1932963E0,2.921619E-2,-1.0254074E-2,-4.3093814E-3,4.3530273E-1,7.9053557E-1,8.249282E-3,1.6118327E-2,-1.4875372E-3,5.068377E-4,4.8109493E-3,2.079457E-4],"split_indices":[0,0,0,0,0,0,0,0,0,0,0,0,0,0,0,0,0,0,0,0,0,0,0,0,0],"split_type":[0,0,0,0,0,0,0,0,0,0,0,0,0,0,0,0,0,0,0,0,0,0,0,0,0],"sum_hessian":[1.34E2,6.1E1,7.3E1,2.5E1,3.6E1,4.7E1,2.6E1,7E0,1.8E1,1.6E1,2E1,2.8E1,1.9E1,1.7E1,9E0,2.1E1,7E0,9E0,1E1,6E0,1.1E1,6E0,3E0,9E0,1E0],"tree_param":{"num_deleted":"0","num_feature":"1","num_nodes":"25","size_leaf_vector":"0"}},{"base_weights":[-2.3571926E-1,-5.564251E-1,1.3963383E-1,-7.7569056E-1,-3.3405712E-1,-2.2262678E-2,4.2216092E-1,-1.1016651E0,-6.590186E-1,-3.8160223E-1,-2.2529396E-1,-1.0607876E-1,9.0728916E-2,2.9495773E-1,5.580293E-1,-1.5054749E-1,-4.906441E-2,2.2404715E-2,1.1528401E-1,1.3812631E-3,-5.3775948E-2,-7.6040626E-5,2.6916075E-2,6.613679E-2,1.2977868E-1],"categories":[],"categories_nodes":[],"categories_segments":[],"categories_sizes":[],"default_left":[1,1,1,1,1,1,1,0,0,0,0,1,1,0,0,0,1,1,1,0,0,0,0,0,0],"id":19,"left_children":[1,3,5,7,9,11,13,-1,-1,-1,-1,15,17,-1,-1,-1,19,21,23,-1,-1,-1,-1,-1,-1],"loss_changes":[1.6328716E1,3.3001785E0,2.891028E0,6.431389E-1,1.1053085E-1,3.9791542E-1,2.3291159E-1,0E0,0E0,0E0,0E0,5.3462E-2,2.761583E-2,0E0,0E0,0E0,2.926398E-3,6.105595E-4,6.776899E-4,0E0,0E0,0E0,0E0,0E0,0E0],"parents":[2147483647,0,0,1,1,2,2,3,3,4,4,5,5,6,6,11,11,12,12,16,16,17,17,18,18],"right_children":[2,4,6,8,10,12,14,-1,-1,-1,-1,16,18,-1,-1,-1,20,22,24,-1,-1,-1,-1,-1,-1],"split_conditions":[-3.9035928E-2,-8.3440995E-1,9.66499E-1,-2.0402842E0,-3.1170824E-1,4.3530273E-1,1.5332572E0,-5.5083256E-2,-3.295093E-2,-1.9080112E-2,-1.1264699E-2,2.9868588E-1,7.091788E-1,1.4747887E-2,2.7901465E-2,-7.5273747E-3,3.2832623E-1,4.7728205E-1,7.786609E-1,6.906316E-5,-2.6887974E-3,-3.8020314E-6,1.3458038E-3,3.3068396E-3,6.488934E-3],"split_indices":[0,0,0,0,0,0,0,0,0,0,0,0,0,0,0,0,0,0,0,0,0,0,0,0,0],"split_type":[0,0,0,0,0,0,0,0,0,0,0,0,0,0,0,0,0,0,0,0,0,0,0,0,0],"sum_hessian":[1.34E2,7.2E1,6.2E1,3.5E1,3.7E1,4E1,2.2E1,7E0,2.8E1,2.4E1,1.3E1,2.3E1,1.7E1,1.3E1,9E0,1.2E1,1.1E1,5E0,1.2E1,1E0,1E1,1E0,4E0,4E0,8E0],"tree_param":{"num_deleted":"0","num_feature":"1","num_nodes":"25","size_leaf_vector":"0"}},{"base_weights":[-2.2448692E-1,-5.3022546E-1,1.3334486E-1,-7.941602E-1,-3.580429E-1,-2.112538E-2,4.0290722E-1,-1.0534673E0,-6.575594E-1,-4.6858296E-1,-2.629005E-1,-1.01197615E-1,8.681123E-2,2.812633E-1,5.32918E-1,-1.4359914E-1,-4.68295E-2,2.1508142E-2,1.1027333E-1,1.3467371E-3,-5.1331587E-2,-7.413328E-5,2.5839424E-2,6.34913E-2,1.24010764E-1],"categories":[],"categories_nodes":[],"categories_segments":[],"categories_sizes":[],"default_left":[1,1,1,1,1,1,1,0,0,0,0,1,1,0,0,0,1,1,1,0,0,0,0,0,0],"id":20,"left_children":[1,3,5,7,9,11,13,-1,-1,-1,-1,15,17,-1,-1,-1,19,21,23,-1,-1,-1,-1,-1,-1],"loss_changes":[1.4840103E1,3.0331402E0,2.6317914E0,2.9908562E-1,3.6059332E-1,3.6313683E-1,2.1385527E-1,0E0,0E0,0E0,0E0,4.8602283E-2,2.5206894E-2,0E0,0E0,0E0,2.6718527E-3,5.627889E-4,4.810393E-4,0E0,0E0,0E0,0E0,0E0,0E0],"parents":[2147483647,0,0,1,1,2,2,3,3,4,4,5,5,6,6,11,11,12,12,16,16,17,17,18,18],"right_children":[2,4,6,8,10,12,14,-1,-1,-1,-1,16,18,-1,-1,-1,20,22,24,-1,-1,-1,-1,-1,-1],"split_conditions":[-3.9035928E-2,-1.0820148E0,9.66499E-1,-2.0402842E0,-5.5509216E-1,4.3530273E-1,1.5332572E0,-5.2673366E-2,-3.287797E-2,-2.3429148E-2,-1.3145025E-2,2.9868588E-1,7.091788E-1,1.4063165E-2,2.6645899E-2,-7.179957E-3,3.2832623E-1,4.7728205E-1,7.786609E-1,6.7336856E-5,-2.5665795E-3,-3.7066638E-6,1.2919712E-3,3.174565E-3,6.2005385E-3],"split_indices":[0,0,0,0,0,0,0,0,0,0,0,0,0,0,0,0,0,0,0,0,0,0,0,0,0],"split_type":[0,0,0,0,0,0,0,0,0,0,0,0,0,0,0,0,0,0,0,0,0,0,0,0,0],"sum_hessian":[1.34E2,7.2E1,6.2E1,2.7E1,4.5E1,4E1,2.2E1,7E0,2E1,1.9E1,2.6E1,2.3E1,1.7E1,1.3E1,9E0,1.2E1,1.1E1,5E0,1.2E1,1E0,1E1,1E0,4E0,4E0,8E0],"tree_param":{"num_deleted":"0","num_feature":"1","num_nodes":"25","size_leaf_vector":"0"}},{"base_weights":[-2.1385837E-1,-5.5729896E-1,7.677916E-2,-9.0556496E-1,-4.4642094E-1,-7.8727275E-2,3.5039136E-1,-5.368148E-1,-3.0033317E-1,-1.5482455E-1,3.5550144E-2,1.9978E-1,4.575618E-1,-1.814495E-1,-8.60922E-2,-1.340394E-2,7.682203E-2,-2.397112E-2,8.439608E-3,8.496219E-2,-2.2898018E-3],"categories":[],"categories_nodes":[],"categories_segments":[],"categories_sizes":[],"default_left":[1,1,1,0,1,1,1,0,0,1,1,0,0,0,0,1,1,0,0,0,0],"id":21,"left_children":[1,3,5,-1,7,9,11,-1,-1,13,15,-1,-1,-1,-1,17,19,-1,-1,-1,-1],"loss_changes":[1.3518047E1,1.9898701E0,3.176171E0,0E0,4.858427E-1,4.2292166E-1,3.4439778E-1,0E0,0E0,3.7448525E-2,4.1438263E-2,0E0,0E0,0E0,0E0,2.5105535E-3,7.2783604E-3,0E0,0E0,0E0,0E0],"parents":[2147483647,0,0,1,1,2,2,4,4,5,5,6,6,9,9,10,10,15,15,16,16],"right_children":[2,4,6,-1,8,10,12,-1,-1,14,16,-1,-1,-1,-1,18,20,-1,-1,-1,-1],"split_conditions":[-1.418565E-1,-1.5469434E0,8.1294334E-1,-4.5278247E-2,-7.217313E-1,4.084033E-1,1.3859761E0,-2.684074E-2,-1.5016659E-2,1.19781554E-1,5.707228E-1,9.989E-3,2.287809E-2,-9.072475E-3,-4.3046097E-3,4.3530273E-1,7.9053557E-1,-1.198556E-3,4.219804E-4,4.2481096E-3,-1.14490096E-4],"split_indices":[0,0,0,0,0,0,0,0,0,0,0,0,0,0,0,0,0,0,0,0,0],"split_type":[0,0,0,0,0,0,0,0,0,0,0,0,0,0,0,0,0,0,0,0,0],"sum_hessian":[1.34E2,6.1E1,7.3E1,1.3E1,4.8E1,4.7E1,2.6E1,2.8E1,2E1,2.8E1,1.9E1,1.2E1,1.4E1,1.9E1,9E0,9E0,1E1,6E0,3E0,9E0,1E0],"tree_param":{"num_deleted":"0","num_feature":"1","num_nodes":"21","size_leaf_vector":"0"}},{"base_weights":[-2.0364165E-1,-5.407669E-1,6.518936E-2,-8.635209E-1,-4.3312174E-1,-8.1320286E-2,3.340891E-1,-5.108996E-1,-2.9161224E-1,-1.5305884E-1,3.39405E-2,2.2983007E-1,4.8834646E-1,-1.8850465E-1,-9.6552886E-2,-1.2811402E-2,7.335673E-2,1.3386996E-1,2.6665428E-1,-1.1163398E-1,-5.7839107E-2,-2.2943782E-2,8.123115E-3,8.113892E-2,-2.2325516E-3],"categories":[],"categories_nodes":[],"categories_segments":[],"categories_sizes":[],"default_left":[1,1,1,0,1,1,1,0,0,1,1,1,0,0,1,1,1,0,0,0,0,0,0,0,0],"id":22,"left_children":[1,3,5,-1,7,9,11,-1,-1,13,15,17,-1,-1,19,21,23,-1,-1,-1,-1,-1,-1,-1,-1],"loss_changes":[1.2270267E1,1.7105618E0,3.021295E0,0E0,3.6831188E-1,4.186271E-1,3.2199645E-1,0E0,0E0,4.3889165E-2,3.7795477E-2,2.7908802E-2,0E0,0E0,1.717031E-3,2.3075398E-3,6.6518933E-3,0E0,0E0,0E0,0E0,0E0,0E0,0E0,0E0],"parents":[2147483647,0,0,1,1,2,2,4,4,5,5,6,6,9,9,10,10,11,11,14,14,15,15,16,16],"right_children":[2,4,6,-1,8,10,12,-1,-1,14,16,18,-1,-1,20,22,24,-1,-1,-1,-1,-1,-1,-1,-1],"split_conditions":[-3.1170824E-1,-1.5469434E0,8.1294334E-1,-4.3176048E-2,-7.217313E-1,4.084033E-1,1.5332572E0,-2.554498E-2,-1.4580612E-2,7.9494745E-2,5.707228E-1,1.1932963E0,2.4417324E-2,-9.425233E-3,2.9868588E-1,4.3530273E-1,7.9053557E-1,6.693498E-3,1.3332714E-2,-5.581699E-3,-2.8919554E-3,-1.1471891E-3,4.0615574E-4,4.056946E-3,-1.1162758E-4],"split_indices":[0,0,0,0,0,0,0,0,0,0,0,0,0,0,0,0,0,0,0,0,0,0,0,0,0],"split_type":[0,0,0,0,0,0,0,0,0,0,0,0,0,0,0,0,0,0,0,0,0,0,0,0,0],"sum_hessian":[1.34E2,5.9E1,7.5E1,1.3E1,4.6E1,4.9E1,2.6E1,2.8E1,1.8E1,3E1,1.9E1,1.7E1,9E0,1.7E1,1.3E1,9E0,1E1,6E0,1.1E1,8E0,5E0,6E0,3E0,9E0,1E0],"tree_param":{"num_deleted":"0","num_feature":"1","num_nodes":"25","size_leaf_vector":"0"}},{"base_weights":[-1.9385625E-1,-5.057128E-1,7.0048675E-2,-8.2342887E-1,-4.0461615E-1,-7.146307E-2,3.190307E-1,-4.862355E-1,-2.7263626E-1,-1.4063108E-1,3.2403696E-2,2.3272021E-1,4.9492812E-1,-1.7410465E-1,-9.233051E-2,-1.2244937E-2,7.004757E-2,1.2813269E-1,2.683911E-1,-1.0667247E-1,-5.5429142E-2,8.330762E-3,-2.2253202E-2,7.748768E-2,-2.1767318E-3],"categories":[],"categories_nodes":[],"categories_segments":[],"categories_sizes":[],"default_left":[1,1,1,0,1,1,1,0,0,1,1,1,0,0,1,1,1,0,0,0,0,0,0,0,0],"id":23,"left_children":[1,3,5,-1,7,9,11,-1,-1,13,15,17,-1,-1,19,21,23,-1,-1,-1,-1,-1,-1,-1,-1],"loss_changes":[1.114599E1,1.6582689E0,2.6301064E0,0E0,3.9526844E-1,3.494013E-1,2.9472852E-1,0E0,0E0,3.0811846E-2,3.447268E-2,4.022491E-2,0E0,0E0,1.4965683E-3,2.244657E-3,6.079588E-3,0E0,0E0,0E0,0E0,0E0,0E0,0E0,0E0],"parents":[2147483647,0,0,1,1,2,2,4,4,5,5,6,6,9,9,10,10,11,11,14,14,15,15,16,16],"right_children":[2,4,6,-1,8,10,12,-1,-1,14,16,18,-1,-1,20,22,24,-1,-1,-1,-1,-1,-1,-1,-1],"split_conditions":[-1.418565E-1,-1.5469434E0,8.1294334E-1,-4.1171443E-2,-7.217313E-1,4.084033E-1,1.7630222E0,-2.4311775E-2,-1.3631813E-2,7.9494745E-2,5.707228E-1,1.1932963E0,2.4746407E-2,-8.705232E-3,2.9868588E-1,4.140984E-1,7.9053557E-1,6.4066346E-3,1.34195555E-2,-5.333624E-3,-2.7714572E-3,4.1653813E-4,-1.1126602E-3,3.8743839E-3,-1.0883659E-4],"split_indices":[0,0,0,0,0,0,0,0,0,0,0,0,0,0,0,0,0,0,0,0,0,0,0,0,0],"split_type":[0,0,0,0,0,0,0,0,0,0,0,0,0,0,0,0,0,0,0,0,0,0,0,0,0],"sum_hessian":[1.34E2,6.1E1,7.3E1,1.3E1,4.8E1,4.7E1,2.6E1,2.8E1,2E1,2.8E1,1.9E1,1.9E1,7E0,1.5E1,1.3E1,9E0,1E1,6E0,1.3E1,8E0,5E0,3E0,6E0,9E0,1E0],"tree_param":{"num_deleted":"0","num_feature":"1","num_nodes":"25","size_leaf_vector":"0"}},{"base_weights":[-1.845211E-1,-4.3708348E-1,1.1105947E-1,-6.589755E-1,-2.9251695E-1,-1.7243562E-2,3.349449E-1,-8.939556E-1,-5.3807944E-1,-3.8182974E-1,-2.1552537E-1,-8.338913E-2,7.1908504E-2,2.4484578E-1,4.73275E-1,-1.177682E-1,-3.9196044E-2,1.6729897E-2,9.184413E-2,6.2970966E-3,-4.390425E-2,6.9990754E-5,2.0047879E-2,5.120816E-2,1.0421476E-1],"categories":[],"categories_nodes":[],"categories_segments":[],"categories_sizes":[],"default_left":[1,1,1,1,1,1,1,0,0,0,0,1,1,0,0,0,1,1,1,0,0,0,0,0,0],"id":24,"left_children":[1,3,5,7,9,11,13,-1,-1,-1,-1,15,17,-1,-1,-1,19,21,23,-1,-1,-1,-1,-1,-1],"loss_changes":[1.0126634E1,2.1489458E0,1.815462E0,3.1440926E-1,2.340169E-1,2.4777396E-1,1.7077947E-1,0E0,0E0,0E0,0E0,3.1847566E-2,1.8263817E-2,0E0,0E0,0E0,2.8467607E-3,3.302605E-4,1.1983588E-3,0E0,0E0,0E0,0E0,0E0,0E0],"parents":[2147483647,0,0,1,1,2,2,3,3,4,4,5,5,6,6,11,11,12,12,16,16,17,17,18,18],"right_children":[2,4,6,8,10,12,14,-1,-1,-1,-1,16,18,-1,-1,-1,20,22,24,-1,-1,-1,-1,-1,-1],"split_conditions":[-3.9035928E-2,-1.0820148E0,9.66499E-1,-2.0402842E0,-5.5509216E-1,4.3530273E-1,1.7630222E0,-4.469778E-2,-2.6903972E-2,-1.9091487E-2,-1.0776269E-2,2.9868588E-1,7.091788E-1,1.2242289E-2,2.366375E-2,-5.88841E-3,3.2832623E-1,4.7728205E-1,7.786609E-1,3.1485484E-4,-2.1952125E-3,3.4995378E-6,1.002394E-3,2.560408E-3,5.210738E-3],"split_indices":[0,0,0,0,0,0,0,0,0,0,0,0,0,0,0,0,0,0,0,0,0,0,0,0,0],"split_type":[0,0,0,0,0,0,0,0,0,0,0,0,0,0,0,0,0,0,0,0,0,0,0,0,0],"sum_hessian":[1.34E2,7.2E1,6.2E1,2.7E1,4.5E1,4E1,2.2E1,7E0,2E1,1.9E1,2.6E1,2.3E1,1.7E1,1.5E1,7E0,1.2E1,1.1E1,5E0,1.2E1,1E0,1E1,1E0,4E0,4E0,8E0],"tree_param":{"num_deleted":"0","num_feature":"1","num_nodes":"25","size_leaf_vector":"0"}},{"base_weights":[-1.7577322E-1,-4.6819818E-1,5.7401385E-2,-7.513191E-1,-3.7390262E-1,-6.990164E-2,2.9102173E-1,-4.4055733E-1,-2.5248736E-1,-1.3199662E-1,2.9840667E-2,1.6302894E-1,3.8254738E-1,-1.6174264E-1,-8.43234E-2,-1.0586003E-2,6.38794E-2,2.6470715E-1,4.5256922E-1,-2.0691738E-2,-8.762647E-2,9.664759E-3,-2.064558E-2,7.121287E-2,-4.7276914E-3],"categories":[],"categories_nodes":[],"categories_segments":[],"categories_sizes":[],"default_left":[1,1,1,0,1,1,1,0,0,1,1,0,1,0,1,1,1,0,0,0,0,0,0,0,0],"id":25,"left_children":[1,3,5,-1,7,9,11,-1,-1,13,15,-1,17,-1,19,21,23,-1,-1,-1,-1,-1,-1,-1,-1],"loss_changes":[9.231995E0,1.3209028E0,2.2806268E0,0E0,2.6913118E-1,3.1361377E-1,2.5392842E-1,0E0,0E0,3.0322015E-2,2.819768E-2,0E0,3.9725304E-3,0E0,1.1293814E-3,2.2366755E-3,5.8710836E-3,0E0,0E0,0E0,0E0,0E0,0E0,0E0,0E0],"parents":[2147483647,0,0,1,1,2,2,4,4,5,5,6,6,9,9,10,10,12,12,14,14,15,15,16,16],"right_children":[2,4,6,-1,8,10,12,-1,-1,14,16,-1,18,-1,20,22,24,-1,-1,-1,-1,-1,-1,-1,-1],"split_conditions":[-3.1170824E-1,-1.5469434E0,8.1294334E-1,-3.7565958E-2,-7.217313E-1,4.084033E-1,1.3859761E0,-2.2027867E-2,-1.2624368E-2,7.9494745E-2,5.707228E-1,8.151447E-3,1.7630222E0,-8.087132E-3,8.981553E-2,4.140984E-1,7.9053557E-1,1.3235358E-2,2.2628462E-2,-1.0345869E-3,-4.3813237E-3,4.8323796E-4,-1.032279E-3,3.5606436E-3,-2.3638457E-4],"split_indices":[0,0,0,0,0,0,0,0,0,0,0,0,0,0,0,0,0,0,0,0,0,0,0,0,0],"split_type":[0,0,0,0,0,0,0,0,0,0,0,0,0,0,0,0,0,0,0,0,0,0,0,0,0],"sum_hessian":[1.34E2,5.9E1,7.5E1,1.3E1,4.6E1,4.9E1,2.6E1,2.8E1,1.8E1,3E1,1.9E1,1.2E1,1.4E1,1.7E1,1.3E1,9E0,1E1,7E0,7E0,1E0,1.2E1,3E0,6E0,9E0,1E0],"tree_param":{"num_deleted":"0","num_feature":"1","num_nodes":"25","size_leaf_vector":"0"}},{"base_weights":[-1.6727294E-1,-4.459919E-1,5.4969314E-2,-7.1643645E-1,-3.5594478E-1,-6.662111E-2,2.7810088E-1,-4.1928908E-1,-2.4052744E-1,-1.2583236E-1,2.848739E-2,1.5550454E-1,3.6581096E-1,-1.541048E-1,-8.0494076E-2,-3.7062217E-3,6.824694E-2,2.531262E-1,4.3276936E-1,-9.317468E-2,-4.805748E-2,-1.9545231E-2,1.5390326E-2,7.793018E-2,-4.6094954E-3],"categories":[],"categories_nodes":[],"categories_segments":[],"categories_sizes":[],"default_left":[1,1,1,0,1,1,1,0,0,1,1,0,1,0,1,1,1,0,0,0,0,0,0,0,0],"id":26,"left_children":[1,3,5,-1,7,9,11,-1,-1,13,15,-1,17,-1,19,21,23,-1,-1,-1,-1,-1,-1,-1,-1],"loss_changes":[8.386839E0,1.2061539E0,2.0804574E0,0E0,2.4276829E-1,2.851593E-1,2.3344398E-1,0E0,0E0,2.7332038E-2,2.5853008E-2,0E0,3.6325455E-3,0E0,1.2806728E-3,3.9304527E-3,6.7085996E-3,0E0,0E0,0E0,0E0,0E0,0E0,0E0,0E0],"parents":[2147483647,0,0,1,1,2,2,4,4,5,5,6,6,9,9,10,10,12,12,14,14,15,15,16,16],"right_children":[2,4,6,-1,8,10,12,-1,-1,14,16,-1,18,-1,20,22,24,-1,-1,-1,-1,-1,-1,-1,-1],"split_conditions":[-3.1170824E-1,-1.5469434E0,8.1294334E-1,-3.582182E-2,-7.217313E-1,4.084033E-1,1.3859761E0,-2.0964455E-2,-1.2026372E-2,7.9494745E-2,7.091788E-1,7.775227E-3,1.7630222E0,-7.70524E-3,2.9868588E-1,4.3530273E-1,7.9053557E-1,1.2656311E-2,2.1638468E-2,-4.658734E-3,-2.4028742E-3,-9.772616E-4,7.6951634E-4,3.896509E-3,-2.3047478E-4],"split_indices":[0,0,0,0,0,0,0,0,0,0,0,0,0,0,0,0,0,0,0,0,0,0,0,0,0],"split_type":[0,0,0,0,0,0,0,0,0,0,0,0,0,0,0,0,0,0,0,0,0,0,0,0,0],"sum_hessian":[1.34E2,5.9E1,7.5E1,1.3E1,4.6E1,4.9E1,2.6E1,2.8E1,1.8E1,3E1,1.9E1,1.2E1,1.4E1,1.7E1,1.3E1,1.1E1,8E0,7E0,7E0,8E0,5E0,6E0,5E0,7E0,1E0],"tree_param":{"num_deleted":"0","num_feature":"1","num_nodes":"25","size_leaf_vector":"0"}},{"base_weights":[-1.5919116E-1,-4.170505E-1,5.900439E-2,-5.8529794E-1,-2.8755093E-1,-4.5569304E-2,2.9286647E-1,-7.906308E-1,-4.680369E-1,-3.3524454E-1,-2.0400025E-1,-1.1564658E-1,4.1006118E-2,2.1407771E-1,4.1383564E-1,-1.3528247E-1,-6.481011E-2,-3.5382237E-3,7.896965E-2,-1.870759E-2,1.4749075E-2,4.3194056E-2,9.0070575E-2],"categories":[],"categories_nodes":[],"categories_segments":[],"categories_sizes":[],"default_left":[1,1,1,1,1,1,1,0,0,0,0,1,1,0,0,0,0,1,1,0,0,0,0],"id":27,"left_children":[1,3,5,7,9,11,13,-1,-1,-1,-1,15,17,-1,-1,-1,-1,19,21,-1,-1,-1,-1],"loss_changes":[7.6202154E0,1.1825523E0,1.8230764E0,2.559719E-1,7.904911E-2,3.202246E-1,1.3062024E-1,0E0,0E0,0E0,0E0,2.0180702E-2,4.0864863E-2,0E0,0E0,0E0,0E0,3.6048007E-3,1.2723431E-3,0E0,0E0,0E0,0E0],"parents":[2147483647,0,0,1,1,2,2,3,3,4,4,5,5,6,6,11,11,12,12,17,17,18,18],"right_children":[2,4,6,8,10,12,14,-1,-1,-1,-1,16,18,-1,-1,-1,-1,20,22,-1,-1,-1,-1],"split_conditions":[-1.418565E-1,-1.2186474E0,9.66499E-1,-2.0402842E0,-5.5509216E-1,4.084033E-1,1.7630222E0,-3.953154E-2,-2.3401845E-2,-1.6762227E-2,-1.02000125E-2,1.19781554E-1,7.091788E-1,1.0703886E-2,2.0691782E-2,-6.7641237E-3,-3.2405057E-3,4.3530273E-1,7.786609E-1,-9.3537953E-4,7.3745375E-4,2.1597028E-3,4.503529E-3],"split_indices":[0,0,0,0,0,0,0,0,0,0,0,0,0,0,0,0,0,0,0,0,0,0,0],"split_type":[0,0,0,0,0,0,0,0,0,0,0,0,0,0,0,0,0,0,0,0,0,0,0],"sum_hessian":[1.34E2,6.1E1,7.3E1,2.5E1,3.6E1,5.1E1,2.2E1,7E0,1.8E1,2.1E1,1.5E1,2.8E1,2.3E1,1.5E1,7E0,1.9E1,9E0,1.1E1,1.2E1,6E0,5E0,4E0,8E0],"tree_param":{"num_deleted":"0","num_feature":"1","num_nodes":"23","size_leaf_vector":"0"}},{"base_weights":[-1.5169115E-1,-4.0512985E-1,5.038796E-2,-6.533782E-1,-3.2256377E-1,-4.8167456E-2,2.7958816E-1,-3.801159E-1,-2.1774398E-1,-1.1427249E-1,3.9225195E-2,2.0404279E-1,3.9573038E-1,-1.4005752E-1,-7.295799E-2,-3.3778E-3,7.553371E-2,8.558837E-2,2.148514E-1,-1.4463015E-2,-7.6345064E-2,-1.790584E-2,1.4134546E-2,4.1466285E-2,8.606742E-2],"categories":[],"categories_nodes":[],"categories_segments":[],"categories_sizes":[],"default_left":[1,1,1,0,1,1,1,0,0,1,1,1,0,0,1,1,1,0,0,0,0,0,0,0,0],"id":28,"left_children":[1,3,5,-1,7,9,11,-1,-1,13,15,17,-1,-1,19,21,23,-1,-1,-1,-1,-1,-1,-1,-1],"loss_changes":[6.934394E0,1.0190573E0,1.7302251E0,0E0,2.0076418E-1,3.1644544E-1,1.210562E-1,0E0,0E0,2.280584E-2,3.7379574E-2,2.0964146E-3,0E0,0E0,1.6696006E-3,3.3061316E-3,1.0962412E-3,0E0,0E0,0E0,0E0,0E0,0E0,0E0,0E0],"parents":[2147483647,0,0,1,1,2,2,4,4,5,5,6,6,9,9,10,10,11,11,14,14,15,15,16,16],"right_children":[2,4,6,-1,8,10,12,-1,-1,14,16,18,-1,-1,20,22,24,-1,-1,-1,-1,-1,-1,-1,-1],"split_conditions":[-3.1170824E-1,-1.5469434E0,9.66499E-1,-3.266891E-2,-7.217313E-1,4.084033E-1,1.7630222E0,-1.9005796E-2,-1.0887199E-2,7.9494745E-2,7.091788E-1,1.1932963E0,1.978652E-2,-7.002876E-3,8.981553E-2,4.3530273E-1,7.786609E-1,4.279419E-3,1.074257E-2,-7.2315073E-4,-3.8172533E-3,-8.9529203E-4,7.067273E-4,2.0733143E-3,4.303371E-3],"split_indices":[0,0,0,0,0,0,0,0,0,0,0,0,0,0,0,0,0,0,0,0,0,0,0,0,0],"split_type":[0,0,0,0,0,0,0,0,0,0,0,0,0,0,0,0,0,0,0,0,0,0,0,0,0],"sum_hessian":[1.34E2,5.9E1,7.5E1,1.3E1,4.6E1,5.3E1,2.2E1,2.8E1,1.8E1,3E1,2.3E1,1.5E1,7E0,1.7E1,1.3E1,1.1E1,1.2E1,2E0,1.3E1,1E0,1.2E1,6E0,5E0,4E0,8E0],"tree_param":{"num_deleted":"0","num_feature":"1","num_nodes":"25","size_leaf_vector":"0"}},{"base_weights":[-1.4435184E-1,-3.43632E-1,8.8851415E-2,-5.333472E-1,-2.3371063E-1,-6.929419E-3,2.8074306E-1,-7.274553E-1,-4.2354655E-1,-3.029475E-1,-1.6863945E-1,-6.270831E-2,6.682857E-2,2.0487617E-1,3.784172E-1,-9.2742465E-2,-2.7850447E-2,3.126187E-2,8.985328E-2,1.3060644E-2,-3.2348093E-2,1.003484E-2,3.5893183E-2],"categories":[],"categories_nodes":[],"categories_segments":[],"categories_sizes":[],"default_left":[1,1,1,1,1,1,1,0,0,0,0,1,1,0,0,0,1,1,0,0,0,0,0],"id":29,"left_children":[1,3,5,7,9,11,13,-1,-1,-1,-1,15,17,-1,-1,-1,19,21,-1,-1,-1,-1,-1],"loss_changes":[6.3043585E0,1.3976755E0,1.1598566E0,2.4603224E-1,1.6516662E-1,1.810987E-1,7.808614E-2,0E0,0E0,0E0,0E0,2.3590237E-2,1.2750357E-2,0E0,0E0,0E0,2.8145332E-3,5.245982E-4,0E0,0E0,0E0,0E0,0E0],"parents":[2147483647,0,0,1,1,2,2,3,3,4,4,5,5,6,6,11,11,12,12,16,16,17,17],"right_children":[2,4,6,8,10,12,14,-1,-1,-1,-1,16,18,-1,-1,-1,20,22,-1,-1,-1,-1,-1],"split_conditions":[-3.9035928E-2,-1.2186474E0,1.1932963E0,-2.0402842E0,-5.5509216E-1,4.7728205E-1,1.7630222E0,-3.6372766E-2,-2.1177327E-2,-1.5147375E-2,-8.431973E-3,2.9868588E-1,7.786609E-1,1.0243809E-2,1.892086E-2,-4.6371236E-3,3.2832623E-1,5.707228E-1,4.4926642E-3,6.530322E-4,-1.6174046E-3,5.01742E-4,1.7946592E-3],"split_indices":[0,0,0,0,0,0,0,0,0,0,0,0,0,0,0,0,0,0,0,0,0,0,0],"split_type":[0,0,0,0,0,0,0,0,0,0,0,0,0,0,0,0,0,0,0,0,0,0,0],"sum_hessian":[1.34E2,7.2E1,6.2E1,2.5E1,4.7E1,4.2E1,2E1,7E0,1.8E1,2.1E1,2.6E1,2.4E1,1.8E1,1.3E1,7E0,1.2E1,1.2E1,8E0,1E1,1E0,1.1E1,2E0,6E0],"tree_param":{"num_deleted":"0","num_feature":"1","num_nodes":"23","size_leaf_vector":"0"}},{"base_weights":[-1.3751037E-1,-3.6819085E-1,4.6415146E-2,-6.956291E-1,-3.118192E-1,-4.3364048E-2,2.5518304E-1,-3.8159275E-1,-2.184091E-1,-1.0341259E-1,3.600549E-2,1.740373E-1,3.4326878E-1,-1.2025337E-1,-5.6021623E-2,-2.6638731E-3,6.893063E-2,-1.5752103E-2,1.3049707E-2,3.8371943E-2,7.8248724E-2],"categories":[],"categories_nodes":[],"categories_segments":[],"categories_sizes":[],"default_left":[1,1,1,0,1,1,1,0,0,1,1,0,0,0,0,1,1,0,0,0,0],"id":30,"left_children":[1,3,5,-1,7,9,11,-1,-1,13,15,-1,-1,-1,-1,17,19,-1,-1,-1,-1],"loss_changes":[5.744873E0,8.9058304E-1,1.4355347E0,0E0,2.6208735E-1,2.610888E-1,1.0465741E-1,0E0,0E0,1.8004328E-2,3.0740293E-2,0E0,0E0,0E0,0E0,2.6735156E-3,6.9917366E-4,0E0,0E0,0E0,0E0],"parents":[2147483647,0,0,1,1,2,2,4,4,5,5,6,6,9,9,10,10,15,15,16,16],"right_children":[2,4,6,-1,8,10,12,-1,-1,14,16,-1,-1,-1,-1,18,20,-1,-1,-1,-1],"split_conditions":[-3.1170824E-1,-2.0402842E0,9.66499E-1,-3.4781456E-2,-8.3440995E-1,4.084033E-1,1.5332572E0,-1.9079639E-2,-1.0920456E-2,1.19781554E-1,7.091788E-1,8.701865E-3,1.7163439E-2,-6.0126684E-3,-2.8010812E-3,4.3530273E-1,7.786609E-1,-7.876052E-4,6.5248535E-4,1.9185971E-3,3.9124363E-3],"split_indices":[0,0,0,0,0,0,0,0,0,0,0,0,0,0,0,0,0,0,0,0,0],"split_type":[0,0,0,0,0,0,0,0,0,0,0,0,0,0,0,0,0,0,0,0,0],"sum_hessian":[1.34E2,5.9E1,7.5E1,7E0,5.2E1,5.3E1,2.2E1,2.8E1,2.4E1,3E1,2.3E1,1.3E1,9E0,2.1E1,9E0,1.1E1,1.2E1,6E0,5E0,4E0,8E0],"tree_param":{"num_deleted":"0","num_feature":"1","num_nodes":"21","size_leaf_vector":"0"}},{"base_weights":[-1.3094622E-1,-3.444378E-1,4.969466E-2,-6.6519535E-1,-2.9151967E-1,-3.7004024E-2,2.4354844E-1,-3.6317104E-1,-2.0376374E-1,-9.485622E-2,3.444254E-2,1.7667916E-1,3.4684342E-1,-1.05400436E-1,-3.6869954E-2,-2.541937E-3,6.593263E-2,7.3939085E-2,1.8607496E-1,-1.1675767E-1,-7.349865E-2,1.4134675E-2,-4.9897812E-2,-1.5077003E-2,1.2505963E-2,3.6837053E-2,7.4770994E-2],"categories":[],"categories_nodes":[],"categories_segments":[],"categories_sizes":[],"default_left":[1,1,1,0,1,1,1,0,0,1,1,1,0,1,1,1,1,0,0,0,0,0,0,0,0,0,0],"id":31,"left_children":[1,3,5,-1,7,9,11,-1,-1,13,15,17,-1,19,21,23,25,-1,-1,-1,-1,-1,-1,-1,-1,-1,-1],"loss_changes":[5.223433E0,8.5846376E-1,1.2527206E0,0E0,2.7183008E-1,2.1820079E-1,9.758687E-2,0E0,0E0,1.3845086E-2,2.8119069E-2,1.6869903E-3,0E0,1.14023685E-4,4.6921773E-3,2.4520697E-3,5.887002E-4,0E0,0E0,0E0,0E0,0E0,0E0,0E0,0E0,0E0,0E0],"parents":[2147483647,0,0,1,1,2,2,4,4,5,5,6,6,9,9,10,10,11,11,13,13,14,14,15,15,16,16],"right_children":[2,4,6,-1,8,10,12,-1,-1,14,16,18,-1,20,22,24,26,-1,-1,-1,-1,-1,-1,-1,-1,-1,-1],"split_conditions":[-1.418565E-1,-2.0402842E0,9.66499E-1,-3.3259768E-2,-8.3440995E-1,4.084033E-1,1.7630222E0,-1.8158553E-2,-1.01881875E-2,2.9868588E-1,7.091788E-1,1.1932963E0,1.734217E-2,7.9494745E-2,3.2832623E-1,4.3530273E-1,7.786609E-1,3.6969543E-3,9.303748E-3,-5.8378833E-3,-3.6749325E-3,7.067338E-4,-2.4948907E-3,-7.5385015E-4,6.252982E-4,1.8418527E-3,3.7385498E-3],"split_indices":[0,0,0,0,0,0,0,0,0,0,0,0,0,0,0,0,0,0,0,0,0,0,0,0,0,0,0],"split_type":[0,0,0,0,0,0,0,0,0,0,0,0,0,0,0,0,0,0,0,0,0,0,0,0,0,0,0],"sum_hessian":[1.34E2,6.1E1,7.3E1,7E0,5.4E1,5.1E1,2.2E1,2.8E1,2.6E1,2.8E1,2.3E1,1.5E1,7E0,2.3E1,5E0,1.1E1,1.2E1,2E0,1.3E1,1.5E1,8E0,1E0,4E0,6E0,5E0,4E0,8E0],"tree_param":{"num_deleted":"0","num_feature":"1","num_nodes":"27","size_leaf_vector":"0"}},{"base_weights":[-1.24673806E-1,-3.344314E-1,4.2564753E-2,-6.360931E-1,-2.8258756E-1,-4.9451634E-2,2.11389E-1,-3.4563863E-1,-1.981448E-1,-9.965543E-2,1.3816092E-2,1.14040725E-1,2.816649E-1,-1.1464791E-1,-6.6062674E-2,-1.9915186E-2,4.1295167E-2,-3.093046E-2,-1.1775303E-1,-6.939076E-3,-7.128113E-2,2.046825E-2,-2.6000354E-2,4.723135E-2,-1.4969528E-2],"categories":[],"categories_nodes":[],"categories_segments":[],"categories_sizes":[],"default_left":[1,1,1,0,1,1,1,0,0,1,1,0,0,1,1,1,1,0,0,0,0,0,0,0,0],"id":32,"left_children":[1,3,5,-1,7,9,11,-1,-1,13,15,-1,-1,17,19,21,23,-1,-1,-1,-1,-1,-1,-1,-1],"loss_changes":[4.749975E0,7.5860643E-1,1.191083E0,0E0,2.1369648E-1,1.6019082E-1,1.5259206E-1,0E0,0E0,6.5279603E-3,2.21412E-2,0E0,0E0,1.0369718E-3,2.8992519E-3,3.2353215E-3,5.0489977E-3,0E0,0E0,0E0,0E0,0E0,0E0,0E0,0E0],"parents":[2147483647,0,0,1,1,2,2,4,4,5,5,6,6,9,9,10,10,13,13,14,14,15,15,16,16],"right_children":[2,4,6,-1,8,10,12,-1,-1,14,16,-1,-1,18,20,22,24,-1,-1,-1,-1,-1,-1,-1,-1],"split_conditions":[-3.1170824E-1,-2.0402842E0,8.1294334E-1,-3.1804655E-2,-8.3440995E-1,3.6210552E-1,1.3859761E0,-1.7281933E-2,-9.90724E-3,7.9494745E-2,4.7728205E-1,5.7020364E-3,1.4083246E-2,-2.2341454E-1,8.981553E-2,3.97822E-1,7.9053557E-1,-1.546523E-3,-5.8876514E-3,-3.469538E-4,-3.5640565E-3,1.0234126E-3,-1.3000177E-3,2.3615675E-3,-7.484764E-4],"split_indices":[0,0,0,0,0,0,0,0,0,0,0,0,0,0,0,0,0,0,0,0,0,0,0,0,0],"split_type":[0,0,0,0,0,0,0,0,0,0,0,0,0,0,0,0,0,0,0,0,0,0,0,0,0],"sum_hessian":[1.34E2,5.9E1,7.5E1,7E0,5.2E1,4.9E1,2.6E1,2.8E1,2.4E1,2.7E1,2.2E1,1.2E1,1.4E1,1.7E1,1E1,1E1,1.2E1,1E0,1.6E1,1E0,9E0,1E0,9E0,1.1E1,1E0],"tree_param":{"num_deleted":"0","num_feature":"1","num_nodes":"25","size_leaf_vector":"0"}},{"base_weights":[-1.1880469E-1,-3.4483653E-1,2.2534132E-2,-6.0826397E-1,-2.9034197E-1,-7.0928045E-2,1.846123E-1,-3.3144304E-1,-2.1027683E-1,-1.10729136E-1,-3.11065E-3,9.97161E-2,2.6852053E-1,-1.2616758E-1,-7.608492E-2,-2.4704834E-2,2.3113435E-2,6.8209596E-2,1.20143026E-1,1.8412983E-1,3.1934613E-1,-2.7728504E-2,-8.235622E-2,1.5563339E-2,-2.9780425E-2,5.6042224E-3,2.981678E-2],"categories":[],"categories_nodes":[],"categories_segments":[],"categories_sizes":[],"default_left":[1,1,1,0,1,1,1,0,0,1,1,1,1,0,1,1,1,0,0,0,0,0,0,0,0,0,0],"id":33,"left_children":[1,3,5,-1,7,9,11,-1,-1,13,15,17,19,-1,21,23,25,-1,-1,-1,-1,-1,-1,-1,-1,-1,-1],"loss_changes":[4.3206253E0,5.6987476E-1,1.2855412E0,0E0,7.8389406E-2,1.4541271E-1,1.9405222E-1,0E0,0E0,8.585542E-3,1.24630565E-2,2.745971E-3,5.537033E-3,0E0,1.6587377E-3,2.916101E-3,1.0066028E-3,0E0,0E0,0E0,0E0,0E0,0E0,0E0,0E0,0E0,0E0],"parents":[2147483647,0,0,1,1,2,2,4,4,5,5,6,6,9,9,10,10,11,11,12,12,14,14,15,15,16,16],"right_children":[2,4,6,-1,8,10,12,-1,-1,14,16,18,20,-1,22,24,26,-1,-1,-1,-1,-1,-1,-1,-1,-1,-1],"split_conditions":[-4.561877E-1,-2.0402842E0,7.786609E-1,-3.04132E-2,-8.565159E-1,2.9868588E-1,1.3859761E0,-1.6572153E-2,-1.0513841E-2,-3.9035928E-2,4.3530273E-1,9.66499E-1,1.7630222E0,-6.308379E-3,3.3341408E-2,3.2832623E-1,5.707228E-1,3.4104798E-3,6.007151E-3,9.2064915E-3,1.5967308E-2,-1.3864252E-3,-4.117811E-3,7.78167E-4,-1.4890212E-3,2.8021113E-4,1.4908391E-3],"split_indices":[0,0,0,0,0,0,0,0,0,0,0,0,0,0,0,0,0,0,0,0,0,0,0,0,0,0,0],"split_type":[0,0,0,0,0,0,0,0,0,0,0,0,0,0,0,0,0,0,0,0,0,0,0,0,0,0,0],"sum_hessian":[1.34E2,5.1E1,8.3E1,7E0,4.4E1,5.3E1,3E1,2.7E1,1.7E1,3.3E1,2E1,1.6E1,1.4E1,2.1E1,1.2E1,1.1E1,9E0,8E0,8E0,7E0,7E0,2E0,1E1,1E0,1E1,3E0,6E0],"tree_param":{"num_deleted":"0","num_feature":"1","num_nodes":"27","size_leaf_vector":"0"}},{"base_weights":[-1.1311379E-1,-3.2870048E-1,2.1691224E-2,-5.8165246E-1,-2.7642676E-1,-6.758076E-2,1.7649753E-1,-3.3186597E-1,-2.1880077E-1,-1.05540104E-1,-2.9046324E-3,9.528426E-2,2.5677276E-1,-1.2014594E-1,-7.270407E-2,-2.1694737E-2,2.4559366E-2,6.5178074E-2,1.148033E-1,1.7607412E-1,3.053748E-1,-2.6804218E-2,-7.861275E-2,1.5174255E-2,-2.6031673E-2,1.19252205E-2,3.2281637E-2],"categories":[],"categories_nodes":[],"categories_segments":[],"categories_sizes":[],"default_left":[1,1,1,0,1,1,1,0,0,1,1,1,1,0,1,1,1,0,0,0,0,0,0,0,0,0,0],"id":34,"left_children":[1,3,5,-1,7,9,11,-1,-1,13,15,17,19,-1,21,23,25,-1,-1,-1,-1,-1,-1,-1,-1,-1,-1],"loss_changes":[3.9305222E0,5.267978E-1,1.1727966E0,0E0,7.115126E-2,1.3226686E-1,1.7763549E-1,0E0,0E0,7.57125E-3,1.1369888E-2,2.5072843E-3,5.063176E-3,0E0,1.4185458E-3,2.4736915E-3,4.9311295E-4,0E0,0E0,0E0,0E0,0E0,0E0,0E0,0E0,0E0,0E0],"parents":[2147483647,0,0,1,1,2,2,4,4,5,5,6,6,9,9,10,10,11,11,12,12,14,14,15,15,16,16],"right_children":[2,4,6,-1,8,10,12,-1,-1,14,16,18,20,-1,22,24,26,-1,-1,-1,-1,-1,-1,-1,-1,-1,-1],"split_conditions":[-4.561877E-1,-2.0402842E0,7.786609E-1,-2.9082624E-2,-1.0820148E0,2.9868588E-1,1.3859761E0,-1.6593298E-2,-1.0940039E-2,-3.9035928E-2,4.7728205E-1,9.66499E-1,1.7630222E0,-6.007297E-3,3.3341408E-2,3.2832623E-1,7.091788E-1,3.2589037E-3,5.7401652E-3,8.803706E-3,1.526874E-2,-1.3402109E-3,-3.9306376E-3,7.5871276E-4,-1.3015837E-3,5.9626106E-4,1.6140819E-3],"split_indices":[0,0,0,0,0,0,0,0,0,0,0,0,0,0,0,0,0,0,0,0,0,0,0,0,0,0,0],"split_type":[0,0,0,0,0,0,0,0,0,0,0,0,0,0,0,0,0,0,0,0,0,0,0,0,0,0,0],"sum_hessian":[1.34E2,5.1E1,8.3E1,7E0,4.4E1,5.3E1,3E1,2E1,2.4E1,3.3E1,2E1,1.6E1,1.4E1,2.1E1,1.2E1,1.2E1,8E0,8E0,8E0,7E0,7E0,2E0,1E1,1E0,1.1E1,4E0,4E0],"tree_param":{"num_deleted":"0","num_feature":"1","num_nodes":"27","size_leaf_vector":"0"}},{"base_weights":[-1.0770369E-1,-2.8446808E-1,4.1851647E-2,-4.7852996E-1,-2.2321635E-1,-2.5811967E-2,2.1385087E-1,-2.6903778E-1,-1.4930978E-1,-7.831859E-2,3.3745877E-2,1.5391076E-1,2.9201472E-1,-9.124927E-2,-4.4625357E-2,-1.4679382E-3,5.9667207E-2,1.6845368E-2,-9.444081E-3,3.0990362E-2,6.727784E-2],"categories":[],"categories_nodes":[],"categories_segments":[],"categories_sizes":[],"default_left":[1,1,1,0,1,1,1,0,0,1,1,0,0,0,0,1,1,0,0,0,0],"id":35,"left_children":[1,3,5,-1,7,9,11,-1,-1,13,15,-1,-1,-1,-1,17,19,-1,-1,-1,-1],"loss_changes":[3.5807729E0,6.3015556E-1,8.667385E-1,0E0,1.257689E-1,1.7151071E-1,5.344385E-2,0E0,0E0,8.56258E-3,2.3820095E-2,0E0,0E0,0E0,0E0,1.9119236E-3,1.1887737E-3,0E0,0E0,0E0,0E0],"parents":[2147483647,0,0,1,1,2,2,4,4,5,5,6,6,9,9,10,10,15,15,16,16],"right_children":[2,4,6,-1,8,10,12,-1,-1,14,16,-1,-1,-1,-1,18,20,-1,-1,-1,-1],"split_conditions":[-1.418565E-1,-1.5469434E0,1.1932963E0,-2.3926498E-2,-7.217313E-1,4.084033E-1,1.7630222E0,-1.3451889E-2,-7.465489E-3,1.19781554E-1,7.091788E-1,7.695538E-3,1.4600736E-2,-4.5624636E-3,-2.231268E-3,4.140984E-1,7.786609E-1,8.422684E-4,-4.7220406E-4,1.5495181E-3,3.3638922E-3],"split_indices":[0,0,0,0,0,0,0,0,0,0,0,0,0,0,0,0,0,0,0,0,0],"split_type":[0,0,0,0,0,0,0,0,0,0,0,0,0,0,0,0,0,0,0,0,0],"sum_hessian":[1.34E2,6.1E1,7.3E1,1.3E1,4.8E1,5.3E1,2E1,2.8E1,2E1,2.8E1,2.5E1,1.3E1,7E0,1.9E1,9E0,1.1E1,1.4E1,3E0,8E0,4E0,1E1],"tree_param":{"num_deleted":"0","num_feature":"1","num_nodes":"21","size_leaf_vector":"0"}},{"base_weights":[-1.0249672E-1,-2.986936E-1,2.017869E-2,-5.352695E-1,-2.4999803E-1,-6.111163E-2,1.6113026E-1,-2.8565934E-1,-1.8063606E-1,-9.558697E-2,-2.3843362E-3,8.635457E-2,2.3513402E-1,-1.0518179E-1,-5.7247825E-2,-2.1670224E-2,2.0997163E-2,5.929115E-2,1.03823036E-1,1.6163725E-1,2.7923906E-1,-4.6013296E-4,-6.4288765E-2,1.5910536E-2,-2.653307E-2,5.775474E-3,2.6695678E-2],"categories":[],"categories_nodes":[],"categories_segments":[],"categories_sizes":[],"default_left":[1,1,1,0,1,1,1,0,0,1,1,1,1,0,1,1,1,0,0,0,0,0,0,0,0,0,0],"id":36,"left_children":[1,3,5,-1,7,9,11,-1,-1,13,15,17,19,-1,21,23,25,-1,-1,-1,-1,-1,-1,-1,-1,-1,-1],"loss_changes":[3.255279E0,4.652338E-1,9.7231877E-1,0E0,5.9709072E-2,1.09102815E-1,1.5123928E-1,0E0,0E0,6.4857304E-3,9.924606E-3,1.8810779E-3,3.4882426E-3,0E0,3.5689715E-3,2.6151487E-3,7.132301E-4,0E0,0E0,0E0,0E0,0E0,0E0,0E0,0E0,0E0,0E0],"parents":[2147483647,0,0,1,1,2,2,4,4,5,5,6,6,9,9,10,10,11,11,12,12,14,14,15,15,16,16],"right_children":[2,4,6,-1,8,10,12,-1,-1,14,16,18,20,-1,22,24,26,-1,-1,-1,-1,-1,-1,-1,-1,-1,-1],"split_conditions":[-4.561877E-1,-2.0402842E0,7.786609E-1,-2.6763475E-2,-8.565159E-1,2.9868588E-1,1.3859761E0,-1.4282967E-2,-9.031803E-3,7.9494745E-2,4.3530273E-1,9.66499E-1,1.7630222E0,-5.2590896E-3,8.981553E-2,3.2832623E-1,5.707228E-1,2.9645576E-3,5.191152E-3,8.081863E-3,1.3961953E-2,-2.3006649E-5,-3.2144382E-3,7.9552684E-4,-1.3266535E-3,2.887737E-4,1.334784E-3],"split_indices":[0,0,0,0,0,0,0,0,0,0,0,0,0,0,0,0,0,0,0,0,0,0,0,0,0,0,0],"split_type":[0,0,0,0,0,0,0,0,0,0,0,0,0,0,0,0,0,0,0,0,0,0,0,0,0,0,0],"sum_hessian":[1.34E2,5.1E1,8.3E1,7E0,4.4E1,5.3E1,3E1,2.7E1,1.7E1,3.3E1,2E1,1.6E1,1.4E1,2.5E1,8E0,1.1E1,9E0,8E0,8E0,7E0,7E0,1E0,7E0,1E0,1E1,3E0,6E0],"tree_param":{"num_deleted":"0","num_feature":"1","num_nodes":"27","size_leaf_vector":"0"}},{"base_weights":[-9.757399E-2,-2.5840157E-1,3.8492028E-2,-5.1185143E-1,-2.1683793E-1,-2.3236236E-2,1.9538888E-1,-2.5950855E-1,-1.353946E-1,-7.098445E-2,3.0915095E-2,1.4049913E-1,2.6702237E-1,-8.0494426E-2,-3.5958987E-2,-9.950399E-4,5.4382198E-2,6.1226636E-3,-4.2845316E-2,1.720865E-2,-8.975009E-3,2.8682899E-2,6.111986E-2],"categories":[],"categories_nodes":[],"categories_segments":[],"categories_sizes":[],"default_left":[1,1,1,0,1,1,1,0,0,1,1,0,0,0,1,1,1,0,0,0,0,0,0],"id":37,"left_children":[1,3,5,-1,7,9,11,-1,-1,13,15,-1,-1,-1,17,19,21,-1,-1,-1,-1,-1,-1],"loss_changes":[2.9641743E0,5.421376E-1,7.21228E-1,0E0,1.5600204E-1,1.418185E-1,4.5054436E-2,0E0,0E0,6.765142E-3,1.9523907E-2,0E0,0E0,0E0,2.5806325E-3,1.8976264E-3,8.4420666E-4,0E0,0E0,0E0,0E0,0E0,0E0],"parents":[2147483647,0,0,1,1,2,2,4,4,5,5,6,6,9,9,10,10,14,14,15,15,16,16],"right_children":[2,4,6,-1,8,10,12,-1,-1,14,16,-1,-1,-1,18,20,22,-1,-1,-1,-1,-1,-1],"split_conditions":[-1.418565E-1,-2.0402842E0,1.1932963E0,-2.5592571E-2,-7.217313E-1,4.084033E-1,1.7630222E0,-1.2975427E-2,-6.7697302E-3,1.8306853E-1,7.091788E-1,7.0249564E-3,1.3351119E-2,-4.024721E-3,2.4610913E-1,4.140984E-1,7.786609E-1,3.0613318E-4,-2.142266E-3,8.6043257E-4,-4.4875048E-4,1.4341449E-3,3.055993E-3],"split_indices":[0,0,0,0,0,0,0,0,0,0,0,0,0,0,0,0,0,0,0,0,0,0,0],"split_type":[0,0,0,0,0,0,0,0,0,0,0,0,0,0,0,0,0,0,0,0,0,0,0],"sum_hessian":[1.34E2,6.1E1,7.3E1,7E0,5.4E1,5.3E1,2E1,3.4E1,2E1,2.8E1,2.5E1,1.3E1,7E0,2.1E1,7E0,1.1E1,1.4E1,1E0,6E0,3E0,8E0,4E0,1E1],"tree_param":{"num_deleted":"0","num_feature":"1","num_nodes":"23","size_leaf_vector":"0"}},{"base_weights":[-9.288729E-2,-2.71491E-1,1.8782714E-2,-4.8945796E-1,-2.2670819E-1,-5.522953E-2,1.4710137E-1,-2.7429837E-1,-1.776641E-1,-8.652656E-2,-1.9281663E-3,7.82395E-2,2.1533807E-1,-9.862752E-2,-5.9392117E-2,-1.9841274E-2,1.976038E-2,5.3939555E-2,9.384617E-2,1.484187E-1,2.5534016E-1,-1.6679898E-2,-6.564162E-2,1.658392E-2,-2.4660284E-2,5.895458E-3,2.486028E-2],"categories":[],"categories_nodes":[],"categories_segments":[],"categories_sizes":[],"default_left":[1,1,1,0,1,1,1,0,0,1,1,1,1,0,1,1,1,0,0,0,0,0,0,0,0,0,0],"id":38,"left_children":[1,3,5,-1,7,9,11,-1,-1,13,15,17,19,-1,21,23,25,-1,-1,-1,-1,-1,-1,-1,-1,-1,-1],"loss_changes":[2.697631E0,3.966167E-1,8.05885E-1,0E0,5.629778E-2,8.991459E-2,1.2881821E-1,0E0,0E0,5.3063035E-3,8.550765E-3,1.3850778E-3,2.2565126E-3,0E0,2.3752004E-3,2.515365E-3,5.605342E-4,0E0,0E0,0E0,0E0,0E0,0E0,0E0,0E0,0E0,0E0],"parents":[2147483647,0,0,1,1,2,2,4,4,5,5,6,6,9,9,10,10,11,11,12,12,14,14,15,15,16,16],"right_children":[2,4,6,-1,8,10,12,-1,-1,14,16,18,20,-1,22,24,26,-1,-1,-1,-1,-1,-1,-1,-1,-1,-1],"split_conditions":[-4.561877E-1,-2.0402842E0,7.786609E-1,-2.4472898E-2,-1.0820148E0,2.9868588E-1,1.3859761E0,-1.3714919E-2,-8.883205E-3,-3.9035928E-2,4.3530273E-1,9.66499E-1,1.7630222E0,-4.9313763E-3,3.3341408E-2,3.2832623E-1,5.707228E-1,2.6969777E-3,4.6923086E-3,7.4209347E-3,1.27670085E-2,-8.339949E-4,-3.282081E-3,8.29196E-4,-1.2330142E-3,2.947729E-4,1.243014E-3],"split_indices":[0,0,0,0,0,0,0,0,0,0,0,0,0,0,0,0,0,0,0,0,0,0,0,0,0,0,0],"split_type":[0,0,0,0,0,0,0,0,0,0,0,0,0,0,0,0,0,0,0,0,0,0,0,0,0,0,0],"sum_hessian":[1.34E2,5.1E1,8.3E1,7E0,4.4E1,5.3E1,3E1,2E1,2.4E1,3.3E1,2E1,1.6E1,1.4E1,2.1E1,1.2E1,1.1E1,9E0,8E0,8E0,7E0,7E0,2E0,1E1,1E0,1E1,3E0,6E0],"tree_param":{"num_deleted":"0","num_feature":"1","num_nodes":"27","size_leaf_vector":"0"}},{"base_weights":[-8.844594E-2,-2.39248E-1,3.1772085E-2,-4.6804413E-1,-2.0019862E-1,-2.3825658E-2,1.7851977E-1,-2.3551346E-1,-1.24608174E-1,-6.680119E-2,2.833077E-2,1.2825446E-1,2.4416909E-1,-8.151315E-2,-4.3114293E-2,-5.7531893E-4,4.956692E-2,-1.17865205E-2,-8.49214E-2,3.2047704E-3,-4.692382E-2,1.7488092E-2,-8.539577E-3,2.6541185E-2,5.552708E-2],"categories":[],"categories_nodes":[],"categories_segments":[],"categories_sizes":[],"default_left":[1,1,1,0,1,1,1,0,0,1,1,0,0,1,1,1,1,0,0,0,0,0,0,0,0],"id":39,"left_children":[1,3,5,-1,7,9,11,-1,-1,13,15,-1,-1,17,19,21,23,-1,-1,-1,-1,-1,-1,-1,-1],"loss_changes":[2.4550333E0,4.423592E-1,6.243252E-1,0E0,1.1213446E-1,1.2741375E-1,3.798175E-2,0E0,0E0,7.2885305E-3,1.5988722E-2,0E0,0E0,3.2766908E-3,2.6207305E-3,1.8756811E-3,5.847998E-4,0E0,0E0,0E0,0E0,0E0,0E0,0E0,0E0],"parents":[2147483647,0,0,1,1,2,2,4,4,5,5,6,6,9,9,10,10,13,13,14,14,15,15,16,16],"right_children":[2,4,6,-1,8,10,12,-1,-1,14,16,-1,-1,18,20,22,24,-1,-1,-1,-1,-1,-1,-1,-1],"split_conditions":[-3.1170824E-1,-2.0402842E0,1.1932963E0,-2.3402207E-2,-7.217313E-1,4.084033E-1,1.7630222E0,-1.1775673E-2,-6.230409E-3,7.9494745E-2,7.091788E-1,6.412723E-3,1.2208454E-2,-2.2341454E-1,8.981553E-2,4.140984E-1,7.786609E-1,-5.89326E-4,-4.24607E-3,1.6023852E-4,-2.346191E-3,8.744046E-4,-4.2697886E-4,1.3270592E-3,2.776354E-3],"split_indices":[0,0,0,0,0,0,0,0,0,0,0,0,0,0,0,0,0,0,0,0,0,0,0,0,0],"split_type":[0,0,0,0,0,0,0,0,0,0,0,0,0,0,0,0,0,0,0,0,0,0,0,0,0],"sum_hessian":[1.34E2,5.9E1,7.5E1,7E0,5.2E1,5.5E1,2E1,3.4E1,1.8E1,3E1,2.5E1,1.3E1,7E0,1.7E1,1.3E1,1.1E1,1.4E1,1E0,1.6E1,1E0,1.2E1,3E0,8E0,4E0,1E1],"tree_param":{"num_deleted":"0","num_feature":"1","num_nodes":"25","size_leaf_vector":"0"}},{"base_weights":[-8.421072E-2,-2.4677372E-1,1.7426014E-2,-4.475672E-1,-2.0559323E-1,-4.998777E-2,1.3429435E-1,-2.5002158E-1,-1.6004969E-1,-7.8506544E-2,-1.4341559E-3,7.086572E-2,1.9722717E-1,-8.634693E-2,-4.713357E-2,-1.8017141E-2,1.8608842E-2,4.9074385E-2,8.478309E-2,1.3631426E-1,2.3348668E-1,3.1246543E-3,-5.380643E-2,1.7342418E-2,-2.280823E-2,5.9946403E-3,2.315855E-2],"categories":[],"categories_nodes":[],"categories_segments":[],"categories_sizes":[],"default_left":[1,1,1,0,1,1,1,0,0,1,1,1,1,0,1,1,1,0,0,0,0,0,0,0,0,0,0],"id":40,"left_children":[1,3,5,-1,7,9,11,-1,-1,13,15,17,19,-1,21,23,25,-1,-1,-1,-1,-1,-1,-1,-1,-1,-1],"loss_changes":[2.2348204E0,3.3795953E-1,6.685102E-1,0E0,5.1038265E-2,7.4660644E-2,1.0976738E-1,0E0,0E0,4.2933524E-3,7.315105E-3,9.950399E-4,1.3025403E-3,0E0,3.1864196E-3,2.4284788E-3,4.3508224E-4,0E0,0E0,0E0,0E0,0E0,0E0,0E0,0E0,0E0,0E0],"parents":[2147483647,0,0,1,1,2,2,4,4,5,5,6,6,9,9,10,10,11,11,12,12,14,14,15,15,16,16],"right_children":[2,4,6,-1,8,10,12,-1,-1,14,16,18,20,-1,22,24,26,-1,-1,-1,-1,-1,-1,-1,-1,-1,-1],"split_conditions":[-4.561877E-1,-2.0402842E0,7.786609E-1,-2.237836E-2,-1.0820148E0,2.9868588E-1,1.3859761E0,-1.2501079E-2,-8.002485E-3,7.9494745E-2,4.3530273E-1,9.66499E-1,1.7630222E0,-4.3173465E-3,8.981553E-2,3.2832623E-1,5.707228E-1,2.4537193E-3,4.2391545E-3,6.815713E-3,1.1674334E-2,1.5623272E-4,-2.6903215E-3,8.671209E-4,-1.1404115E-3,2.9973203E-4,1.1579276E-3],"split_indices":[0,0,0,0,0,0,0,0,0,0,0,0,0,0,0,0,0,0,0,0,0,0,0,0,0,0,0],"split_type":[0,0,0,0,0,0,0,0,0,0,0,0,0,0,0,0,0,0,0,0,0,0,0,0,0,0,0],"sum_hessian":[1.34E2,5.1E1,8.3E1,7E0,4.4E1,5.3E1,3E1,2E1,2.4E1,3.3E1,2E1,1.6E1,1.4E1,2.5E1,8E0,1.1E1,9E0,8E0,8E0,7E0,7E0,1E0,7E0,1E0,1E1,3E0,6E0],"tree_param":{"num_deleted":"0","num_feature":"1","num_nodes":"27","size_leaf_vector":"0"}},{"base_weights":[-8.017327E-2,-2.1345153E-1,3.2575727E-2,-3.670434E-1,-1.6521199E-1,-1.8789288E-2,1.6310596E-1,-1.975345E-1,-1.0846764E-1,-5.827E-2,2.5969557E-2,1.0877335E-1,2.1199451E-1,-6.7721315E-2,-3.3540364E-2,-2.0697464E-4,4.517948E-2,1.7687604E-2,-8.137124E-3,2.4553204E-2,5.0447833E-2],"categories":[],"categories_nodes":[],"categories_segments":[],"categories_sizes":[],"default_left":[1,1,1,0,1,1,1,0,0,1,1,0,0,0,0,1,1,0,0,0,0],"id":41,"left_children":[1,3,5,-1,7,9,11,-1,-1,13,15,-1,-1,-1,-1,17,19,-1,-1,-1,-1],"loss_changes":[2.0355968E0,3.9873075E-1,4.9921152E-1,0E0,6.84458E-2,9.693724E-2,3.2721758E-2,0E0,0E0,4.506707E-3,1.3083428E-2,0E0,0E0,0E0,0E0,1.8468063E-3,3.913436E-4,0E0,0E0,0E0,0E0],"parents":[2147483647,0,0,1,1,2,2,4,4,5,5,6,6,9,9,10,10,15,15,16,16],"right_children":[2,4,6,-1,8,10,12,-1,-1,14,16,-1,-1,-1,-1,18,20,-1,-1,-1,-1],"split_conditions":[-1.418565E-1,-1.5469434E0,1.1932963E0,-1.8352171E-2,-6.663734E-1,4.084033E-1,1.5332572E0,-9.876725E-3,-5.423382E-3,1.19781554E-1,7.091788E-1,5.4386677E-3,1.0599726E-2,-3.3860658E-3,-1.6770182E-3,4.140984E-1,7.786609E-1,8.843802E-4,-4.0685618E-4,1.2276602E-3,2.5223917E-3],"split_indices":[0,0,0,0,0,0,0,0,0,0,0,0,0,0,0,0,0,0,0,0,0],"split_type":[0,0,0,0,0,0,0,0,0,0,0,0,0,0,0,0,0,0,0,0,0],"sum_hessian":[1.34E2,6.1E1,7.3E1,1.3E1,4.8E1,5.3E1,2E1,2.9E1,1.9E1,2.8E1,2.5E1,1.1E1,9E0,1.9E1,9E0,1.1E1,1.4E1,3E0,8E0,4E0,1E1],"tree_param":{"num_deleted":"0","num_feature":"1","num_nodes":"21","size_leaf_vector":"0"}},{"base_weights":[-7.630127E-2,-2.242248E-1,1.6178785E-2,-4.1192803E-1,-1.8587257E-1,-4.5197897E-2,1.2257111E-1,-2.3051228E-1,-1.4757526E-1,-7.1098104E-2,-1.1119545E-3,6.43128E-2,1.804258E-1,-8.103255E-2,-4.8816875E-2,-1.6559683E-2,1.7536515E-2,4.4651136E-2,7.68286E-2,1.2430143E-1,2.1399692E-1,-8.157578E-3,-5.5467878E-2,1.7747357E-2,-2.12919E-2,6.07498E-3,2.1580746E-2,5.7687297E-2,2.8518507E-2,8.8648975E-2,3.9890885E-2],"categories":[],"categories_nodes":[],"categories_segments":[],"categories_sizes":[],"default_left":[1,1,1,0,1,1,1,0,0,1,1,1,1,0,1,1,1,1,1,0,0,0,0,0,0,0,0,0,0,0,0],"id":42,"left_children":[1,3,5,-1,7,9,11,-1,-1,13,15,17,19,-1,21,23,25,27,29,-1,-1,-1,-1,-1,-1,-1,-1,-1,-1,-1,-1],"loss_changes":[1.8504244E0,2.977736E-1,5.5406064E-1,0E0,4.29132E-2,6.158004E-2,9.2882305E-2,0E0,0E0,3.570199E-3,6.3400054E-3,7.528886E-4,1.6622543E-3,0E0,3.0630417E-3,2.3260557E-3,3.3242838E-4,2.476126E-4,3.9327517E-4,0E0,0E0,0E0,0E0,0E0,0E0,0E0,0E0,0E0,0E0,0E0,0E0],"parents":[2147483647,0,0,1,1,2,2,4,4,5,5,6,6,9,9,10,10,11,11,12,12,14,14,15,15,16,16,17,17,18,18],"right_children":[2,4,6,-1,8,10,12,-1,-1,14,16,18,20,-1,22,24,26,28,30,-1,-1,-1,-1,-1,-1,-1,-1,-1,-1,-1,-1],"split_conditions":[-4.561877E-1,-2.0402842E0,7.786609E-1,-2.0596402E-2,-1.2186474E0,2.9868588E-1,1.3859761E0,-1.1525614E-2,-7.378763E-3,-3.9035928E-2,4.3530273E-1,9.66499E-1,1.7630222E0,-4.0516276E-3,3.3341408E-2,3.2832623E-1,5.707228E-1,7.9053557E-1,1.3188915E0,6.215072E-3,1.0699846E-2,-4.0787892E-4,-2.7733939E-3,8.873679E-4,-1.0645951E-3,3.03749E-4,1.0790373E-3,2.884365E-3,1.4259254E-3,4.4324487E-3,1.9945444E-3],"split_indices":[0,0,0,0,0,0,0,0,0,0,0,0,0,0,0,0,0,0,0,0,0,0,0,0,0,0,0,0,0,0,0],"split_type":[0,0,0,0,0,0,0,0,0,0,0,0,0,0,0,0,0,0,0,0,0,0,0,0,0,0,0,0,0,0,0],"sum_hessian":[1.34E2,5.1E1,8.3E1,7E0,4.4E1,5.3E1,3E1,1.8E1,2.6E1,3.3E1,2E1,1.6E1,1.4E1,2.1E1,1.2E1,1.1E1,9E0,8E0,8E0,7E0,7E0,2E0,1E1,1E0,1E1,3E0,6E0,3E0,5E0,5E0,3E0],"tree_param":{"num_deleted":"0","num_feature":"1","num_nodes":"31","size_leaf_vector":"0"}},{"base_weights":[-7.2618626E-2,-1.9390239E-1,2.9978836E-2,-3.9390618E-1,-1.6128543E-1,-1.6923757E-2,1.4915794E-1,-2.0395096E-1,-1.128597E-1,-5.2893553E-2,2.3847312E-2,1.0680289E-1,2.0463453E-1,-1.336416E-1,-8.8920675E-2,-6.1403353E-2,-3.0584592E-2,1.1969606E-4,4.1239582E-2,-1.5708946E-2,-3.4715734E-2,1.7822765E-2,-7.761634E-3,2.2707844E-2,4.591405E-2],"categories":[],"categories_nodes":[],"categories_segments":[],"categories_sizes":[],"default_left":[1,1,1,0,1,1,1,0,1,1,1,0,0,0,0,0,1,1,1,0,0,0,0,0,0],"id":43,"left_children":[1,3,5,-1,7,9,11,-1,13,15,17,-1,-1,-1,-1,-1,19,21,23,-1,-1,-1,-1,-1,-1],"loss_changes":[1.685673E0,3.409264E-1,4.1617018E-1,0E0,9.061825E-2,8.045382E-2,2.748844E-2,0E0,2.0464659E-3,3.6275089E-3,1.072467E-2,0E0,0E0,0E0,0E0,0E0,6.918609E-5,1.8126185E-3,2.5677867E-4,0E0,0E0,0E0,0E0,0E0,0E0],"parents":[2147483647,0,0,1,1,2,2,4,4,5,5,6,6,8,8,9,9,10,10,16,16,17,17,18,18],"right_children":[2,4,6,-1,8,10,12,-1,14,16,18,-1,-1,-1,-1,-1,20,22,24,-1,-1,-1,-1,-1,-1],"split_conditions":[-1.418565E-1,-2.0402842E0,1.1932963E0,-1.969531E-2,-8.565159E-1,4.084033E-1,1.7630222E0,-1.0197548E-2,-5.5509216E-1,1.19781554E-1,7.091788E-1,5.3401445E-3,1.0231727E-2,-6.68208E-3,-4.446034E-3,-3.0701677E-3,2.4610913E-1,4.140984E-1,7.786609E-1,-7.854473E-4,-1.7357868E-3,8.911383E-4,-3.880817E-4,1.1353922E-3,2.2957025E-3],"split_indices":[0,0,0,0,0,0,0,0,0,0,0,0,0,0,0,0,0,0,0,0,0,0,0,0,0],"split_type":[0,0,0,0,0,0,0,0,0,0,0,0,0,0,0,0,0,0,0,0,0,0,0,0,0],"sum_hessian":[1.34E2,6.1E1,7.3E1,7E0,5.4E1,5.3E1,2E1,2.7E1,2.7E1,2.8E1,2.5E1,1.3E1,7E0,1.2E1,1.5E1,1.9E1,9E0,1.1E1,1.4E1,3E0,6E0,3E0,8E0,4E0,1E1],"tree_param":{"num_deleted":"0","num_feature":"1","num_nodes":"25","size_leaf_vector":"0"}},{"base_weights":[-6.918848E-2,-2.0385751E-1,1.5001734E-2,-3.766728E-1,-1.6860463E-1,-3.5472963E-2,1.2287324E-1,-2.0993245E-1,-1.3327746E-1,-6.281624E-2,8.867519E-3,6.450755E-2,1.6526528E-1,-7.1157776E-2,-3.7389323E-2,-1.0422477E-2,2.4507705E-2,1.1419064E-1,1.9568177E-1,7.66135E-3,-4.2660527E-2,2.8800443E-2,-1.7224813E-2,3.1501304E-2,-2.970773E-2],"categories":[],"categories_nodes":[],"categories_segments":[],"categories_sizes":[],"default_left":[1,1,1,0,1,1,1,0,0,1,1,0,1,0,1,1,1,0,0,0,0,0,0,0,0],"id":44,"left_children":[1,3,5,-1,7,9,11,-1,-1,13,15,-1,17,-1,19,21,23,-1,-1,-1,-1,-1,-1,-1,-1],"loss_changes":[1.5336633E0,2.5328755E-1,4.6172032E-1,0E0,3.772056E-2,7.087705E-2,5.614367E-2,0E0,0E0,4.975036E-3,7.1945107E-3,0E0,9.57638E-4,0E0,2.9390212E-3,3.4309644E-3,5.8649234E-3,0E0,0E0,0E0,0E0,0E0,0E0,0E0,0E0],"parents":[2147483647,0,0,1,1,2,2,4,4,5,5,6,6,9,9,10,10,12,12,14,14,15,15,16,16],"right_children":[2,4,6,-1,8,10,12,-1,-1,14,16,-1,18,-1,20,22,24,-1,-1,-1,-1,-1,-1,-1,-1],"split_conditions":[-4.561877E-1,-2.0402842E0,8.1294334E-1,-1.8833641E-2,-1.2186474E0,3.6210552E-1,1.3859761E0,-1.0496623E-2,-6.6638733E-3,7.9494745E-2,4.7728205E-1,3.2253775E-3,1.7630222E0,-3.5578888E-3,8.981553E-2,3.97822E-1,7.9053557E-1,5.709532E-3,9.7840885E-3,3.830675E-4,-2.1330265E-3,1.4400221E-3,-8.6124067E-4,1.5750652E-3,-1.4853865E-3],"split_indices":[0,0,0,0,0,0,0,0,0,0,0,0,0,0,0,0,0,0,0,0,0,0,0,0,0],"split_type":[0,0,0,0,0,0,0,0,0,0,0,0,0,0,0,0,0,0,0,0,0,0,0,0,0],"sum_hessian":[1.34E2,5.1E1,8.3E1,7E0,4.4E1,5.7E1,2.6E1,1.8E1,2.6E1,3.5E1,2.2E1,1.2E1,1.4E1,2.5E1,1E1,1E1,1.2E1,7E0,7E0,1E0,9E0,1E0,9E0,1.1E1,1E0],"tree_param":{"num_deleted":"0","num_feature":"1","num_nodes":"25","size_leaf_vector":"0"}},{"base_weights":[-6.5891385E-2,-2.0521525E-1,8.424482E-3,-3.6019337E-1,-1.6908923E-1,-4.3613434E-2,1.07192636E-1,-1.9998829E-1,-1.347178E-1,-6.550667E-2,-8.777465E-4,5.6026343E-2,1.5803492E-1,-7.430087E-2,-4.220281E-2,-1.4339338E-2,1.5363937E-2,4.177325E-2,7.04203E-2,1.091948E-1,1.8712068E-1,-3.4669538E-3,-4.893052E-2,1.923807E-2,-1.9140745E-2,5.566016E-3,1.8767903E-2,9.1264576E-2,3.1970948E-2],"categories":[],"categories_nodes":[],"categories_segments":[],"categories_sizes":[],"default_left":[1,1,1,0,1,1,1,0,0,1,1,1,1,0,1,1,1,0,1,0,0,0,0,0,0,0,0,0,0],"id":45,"left_children":[1,3,5,-1,7,9,11,-1,-1,13,15,17,19,-1,21,23,25,-1,27,-1,-1,-1,-1,-1,-1,-1,-1,-1,-1],"loss_changes":[1.3995152E0,2.0223618E-1,4.6210736E-1,0E0,1.5539765E-2,5.5144213E-2,7.178962E-2,0E0,0E0,4.8569143E-3,4.8117256E-3,5.4600835E-4,8.7565184E-4,0E0,3.2182056E-3,2.3028569E-3,2.290553E-4,0E0,2.692327E-3,0E0,0E0,0E0,0E0,0E0,0E0,0E0,0E0,0E0,0E0],"parents":[2147483647,0,0,1,1,2,2,4,4,5,5,6,6,9,9,10,10,11,11,12,12,14,14,15,15,16,16,18,18],"right_children":[2,4,6,-1,8,10,12,-1,-1,14,16,18,20,-1,22,24,26,-1,28,-1,-1,-1,-1,-1,-1,-1,-1,-1,-1],"split_conditions":[-5.5509216E-1,-2.0402842E0,7.786609E-1,-1.8009668E-2,-1.2186474E0,2.9868588E-1,1.3859761E0,-9.999415E-3,-6.7358906E-3,-3.9035928E-2,4.3530273E-1,1.1932963E0,1.7630222E0,-3.7150437E-3,3.3341408E-2,3.2832623E-1,5.707228E-1,2.0886625E-3,1.3188915E0,5.4597403E-3,9.356034E-3,-1.733477E-4,-2.446526E-3,9.619035E-4,-9.5703726E-4,2.783008E-4,9.3839515E-4,4.5632287E-3,1.5985474E-3],"split_indices":[0,0,0,0,0,0,0,0,0,0,0,0,0,0,0,0,0,0,0,0,0,0,0,0,0,0,0,0,0],"split_type":[0,0,0,0,0,0,0,0,0,0,0,0,0,0,0,0,0,0,0,0,0,0,0,0,0,0,0,0,0],"sum_hessian":[1.34E2,4.6E1,8.8E1,7E0,3.9E1,5.8E1,3E1,1.8E1,2.1E1,3.8E1,2E1,1.6E1,1.4E1,2.6E1,1.2E1,1.1E1,9E0,1E1,6E0,7E0,7E0,2E0,1E1,1E0,1E1,3E0,6E0,3E0,3E0],"tree_param":{"num_deleted":"0","num_feature":"1","num_nodes":"29","size_leaf_vector":"0"}},{"base_weights":[-6.2721215E-2,-1.6821004E-1,2.6508905E-2,-2.933407E-1,-1.2902558E-1,-1.4437239E-2,1.3053666E-1,-3.4443492E-1,-1.9304149E-1,-1.544837E-1,-8.438709E-2,-4.5579318E-2,2.0853434E-2,8.6889446E-2,1.6985965E-1,-5.5584185E-2,-3.0889519E-2,3.8554272E-4,3.583752E-2,8.69308E-3,-3.4603033E-2,1.8518105E-2,-7.716212E-3,1.9788742E-2,3.987446E-2],"categories":[],"categories_nodes":[],"categories_segments":[],"categories_sizes":[],"default_left":[1,1,1,1,1,1,1,0,0,0,0,1,1,0,0,0,1,1,1,0,0,0,0,0,0],"id":46,"left_children":[1,3,5,7,9,11,13,-1,-1,-1,-1,15,17,-1,-1,-1,19,21,23,-1,-1,-1,-1,-1,-1],"loss_changes":[1.2751845E0,2.661487E-1,3.170902E-1,5.2558184E-3,4.264772E-2,6.0297832E-2,2.1284133E-2,0E0,0E0,0E0,0E0,2.5451481E-3,7.960191E-3,0E0,0E0,0E0,2.358674E-3,1.9057565E-3,1.8275529E-4,0E0,0E0,0E0,0E0,0E0,0E0],"parents":[2147483647,0,0,1,1,2,2,3,3,4,4,5,5,6,6,11,11,12,12,16,16,17,17,18,18],"right_children":[2,4,6,8,10,12,14,-1,-1,-1,-1,16,18,-1,-1,-1,20,22,24,-1,-1,-1,-1,-1,-1],"split_conditions":[-1.418565E-1,-1.5469434E0,1.1932963E0,-2.0402842E0,-6.663734E-1,4.084033E-1,1.5332572E0,-1.7221747E-2,-9.652074E-3,-7.7241855E-3,-4.2193546E-3,7.9494745E-2,7.091788E-1,4.344472E-3,8.492983E-3,-2.7792093E-3,8.981553E-2,4.140984E-1,7.786609E-1,4.3465404E-4,-1.7301517E-3,9.2590525E-4,-3.858106E-4,9.894371E-4,1.993723E-3],"split_indices":[0,0,0,0,0,0,0,0,0,0,0,0,0,0,0,0,0,0,0,0,0,0,0,0,0],"split_type":[0,0,0,0,0,0,0,0,0,0,0,0,0,0,0,0,0,0,0,0,0,0,0,0,0],"sum_hessian":[1.34E2,6.1E1,7.3E1,1.3E1,4.8E1,5.3E1,2E1,7E0,6E0,2.9E1,1.9E1,2.8E1,2.5E1,1.1E1,9E0,1.5E1,1.3E1,1.1E1,1.4E1,1E0,1.2E1,3E0,8E0,4E0,1E1],"tree_param":{"num_deleted":"0","num_feature":"1","num_nodes":"25","size_leaf_vector":"0"}},{"base_weights":[-5.978169E-2,-1.8677159E-1,7.952092E-3,-3.2936597E-1,-1.5358342E-1,-3.9457455E-2,9.792665E-2,-1.8258876E-1,-1.2155229E-1,-5.940262E-2,-5.37509E-4,5.1004216E-2,1.4457695E-1,-6.724707E-2,-3.854087E-2,-1.3036087E-2,1.4514536E-2,2.7244855E-2,5.6219034E-2,9.957896E-2,1.7150283E-1,-1.4985824E-3,-4.5139596E-2,1.9622192E-2,-1.7788857E-2,5.646661E-3,1.7508388E-2,4.9559176E-2,-3.1006217E-2,6.207928E-2,2.7513653E-2],"categories":[],"categories_nodes":[],"categories_segments":[],"categories_sizes":[],"default_left":[1,1,1,0,1,1,1,0,0,1,1,1,1,0,1,1,1,1,1,0,0,0,0,0,0,0,0,0,0,0,0],"id":47,"left_children":[1,3,5,-1,7,9,11,-1,-1,13,15,17,19,-1,21,23,25,27,29,-1,-1,-1,-1,-1,-1,-1,-1,-1,-1,-1,-1],"loss_changes":[1.1626885E0,1.7183983E-1,3.83507E-1,0E0,1.4968872E-2,4.576768E-2,6.0483307E-2,0E0,0E0,3.7905425E-3,4.139925E-3,5.746335E-4,1.0960698E-3,0E0,3.109971E-3,2.2116636E-3,1.6662711E-4,8.035809E-3,4.7884136E-4,0E0,0E0,0E0,0E0,0E0,0E0,0E0,0E0,0E0,0E0,0E0,0E0],"parents":[2147483647,0,0,1,1,2,2,4,4,5,5,6,6,9,9,10,10,11,11,12,12,14,14,15,15,16,16,17,17,18,18],"right_children":[2,4,6,-1,8,10,12,-1,-1,14,16,18,20,-1,22,24,26,28,30,-1,-1,-1,-1,-1,-1,-1,-1,-1,-1,-1,-1],"split_conditions":[-5.5509216E-1,-2.0402842E0,7.786609E-1,-1.64683E-2,-1.2186474E0,2.9868588E-1,1.3859761E0,-9.129438E-3,-6.0776146E-3,-3.9035928E-2,4.3530273E-1,8.1294334E-1,1.7630222E0,-3.3623537E-3,3.3341408E-2,3.2832623E-1,5.707228E-1,7.9053557E-1,1.3188915E0,4.9789483E-3,8.575141E-3,-7.492912E-5,-2.25698E-3,9.811096E-4,-8.8944286E-4,2.8233306E-4,8.754194E-4,2.4779588E-3,-1.5503109E-3,3.103964E-3,1.3756827E-3],"split_indices":[0,0,0,0,0,0,0,0,0,0,0,0,0,0,0,0,0,0,0,0,0,0,0,0,0,0,0,0,0,0,0],"split_type":[0,0,0,0,0,0,0,0,0,0,0,0,0,0,0,0,0,0,0,0,0,0,0,0,0,0,0,0,0,0,0],"sum_hessian":[1.34E2,4.6E1,8.8E1,7E0,3.9E1,5.8E1,3E1,1.8E1,2.1E1,3.8E1,2E1,1.6E1,1.4E1,2.6E1,1.2E1,1.1E1,9E0,4E0,1.2E1,7E0,7E0,2E0,1E1,1E0,1E1,3E0,6E0,3E0,1E0,9E0,3E0],"tree_param":{"num_deleted":"0","num_feature":"1","num_nodes":"31","size_leaf_vector":"0"}},{"base_weights":[-5.691971E-2,-1.5595914E-1,2.2018265E-2,-2.6844653E-1,-1.1913399E-1,-1.4916774E-2,1.1946321E-1,-3.149562E-1,-1.7694314E-1,-1.4098501E-1,-7.951221E-2,-4.2860396E-2,1.8974345E-2,8.548074E-2,1.6399963E-1,5.0546527E-3,-4.4626053E-2,6.395181E-4,3.237725E-2,-5.5722825E-2,-2.7963828E-2,1.8490769E-2,-7.365429E-3,1.8296862E-2,3.583404E-2],"categories":[],"categories_nodes":[],"categories_segments":[],"categories_sizes":[],"default_left":[1,1,1,1,1,1,1,0,0,0,0,1,1,0,0,0,1,1,1,0,0,0,0,0,0],"id":48,"left_children":[1,3,5,7,9,11,13,-1,-1,-1,-1,15,17,-1,-1,-1,19,21,23,-1,-1,-1,-1,-1,-1],"loss_changes":[1.0588602E0,2.1656084E-1,2.753161E-1,3.8517714E-3,2.948147E-2,5.384753E-2,1.7763823E-2,0E0,0E0,0E0,0E0,2.8482154E-3,6.3685337E-3,0E0,0E0,0E0,3.9886795E-3,1.8509722E-3,7.444434E-5,0E0,0E0,0E0,0E0,0E0,0E0],"parents":[2147483647,0,0,1,1,2,2,3,3,4,4,5,5,6,6,11,11,12,12,16,16,17,17,18,18],"right_children":[2,4,6,8,10,12,14,-1,-1,-1,-1,16,18,-1,-1,-1,20,22,24,-1,-1,-1,-1,-1,-1],"split_conditions":[-3.1170824E-1,-1.5469434E0,1.1932963E0,-2.0402842E0,-7.217313E-1,4.084033E-1,1.7630222E0,-1.574781E-2,-8.8471575E-3,-7.049251E-3,-3.9756107E-3,-2.2341454E-1,7.091788E-1,4.274037E-3,8.199981E-3,2.5273263E-4,7.9494745E-2,4.140984E-1,7.786609E-1,-2.7861414E-3,-1.3981914E-3,9.245385E-4,-3.6827146E-4,9.148431E-4,1.791702E-3],"split_indices":[0,0,0,0,0,0,0,0,0,0,0,0,0,0,0,0,0,0,0,0,0,0,0,0,0],"split_type":[0,0,0,0,0,0,0,0,0,0,0,0,0,0,0,0,0,0,0,0,0,0,0,0,0],"sum_hessian":[1.34E2,5.9E1,7.5E1,1.3E1,4.6E1,5.5E1,2E1,7E0,6E0,2.8E1,1.8E1,3E1,2.5E1,1.3E1,7E0,1E0,2.9E1,1.1E1,1.4E1,1.6E1,1.3E1,3E0,8E0,4E0,1E1],"tree_param":{"num_deleted":"0","num_feature":"1","num_nodes":"25","size_leaf_vector":"0"}},{"base_weights":[-5.425013E-2,-1.7000966E-1,7.490855E-3,-3.011769E-1,-1.3952596E-1,-3.5683677E-2,8.94201E-2,-1.6669388E-1,-1.0972067E-1,-5.252463E-2,2.5354153E-3,4.620966E-2,1.324306E-1,-5.8957797E-2,-2.9619839E-2,-8.905491E-3,1.372278E-2,3.1808734E-2,5.5476174E-2,9.148267E-2,1.568247E-1,1.0303341E-2,-3.464249E-2,3.0567855E-2,-1.6687848E-2,5.711116E-3,1.6340477E-2,4.635693E-2,1.680848E-2,6.769667E-2,2.3276389E-2],"categories":[],"categories_nodes":[],"categories_segments":[],"categories_sizes":[],"default_left":[1,1,1,0,1,1,1,0,0,1,1,1,1,0,1,1,1,1,1,0,0,0,0,0,0,0,0,0,0,0,0],"id":49,"left_children":[1,3,5,-1,7,9,11,-1,-1,13,15,17,19,-1,21,23,25,27,29,-1,-1,-1,-1,-1,-1,-1,-1,-1,-1,-1,-1],"loss_changes":[9.6613294E-1,1.4590573E-1,3.1800672E-1,0E0,1.4100194E-2,3.810828E-2,5.1494002E-2,0E0,0E0,4.2950436E-3,2.5540863E-3,5.03961E-4,6.365776E-4,0E0,2.5626551E-3,3.582068E-3,1.1639891E-4,1.18485E-3,1.9657444E-3,0E0,0E0,0E0,0E0,0E0,0E0,0E0,0E0,0E0,0E0,0E0,0E0],"parents":[2147483647,0,0,1,1,2,2,4,4,5,5,6,6,9,9,10,10,11,11,12,12,14,14,15,15,16,16,17,17,18,18],"right_children":[2,4,6,-1,8,10,12,-1,-1,14,16,18,20,-1,22,24,26,28,30,-1,-1,-1,-1,-1,-1,-1,-1,-1,-1,-1,-1],"split_conditions":[-5.5509216E-1,-2.0402842E0,7.786609E-1,-1.5058845E-2,-1.2186474E0,3.6210552E-1,1.3859761E0,-8.334694E-3,-5.4860334E-3,7.9494745E-2,4.3530273E-1,9.66499E-1,1.7630222E0,-2.94789E-3,8.981553E-2,3.97822E-1,5.707228E-1,7.9053557E-1,1.3188915E0,4.5741335E-3,7.841235E-3,5.151671E-4,-1.7321246E-3,1.5283928E-3,-8.343924E-4,2.855558E-4,8.1702386E-4,2.3178465E-3,8.4042404E-4,3.3848335E-3,1.1638195E-3],"split_indices":[0,0,0,0,0,0,0,0,0,0,0,0,0,0,0,0,0,0,0,0,0,0,0,0,0,0,0,0,0,0,0],"split_type":[0,0,0,0,0,0,0,0,0,0,0,0,0,0,0,0,0,0,0,0,0,0,0,0,0,0,0,0,0,0,0],"sum_hessian":[1.34E2,4.6E1,8.8E1,7E0,3.9E1,5.8E1,3E1,1.8E1,2.1E1,4E1,1.8E1,1.6E1,1.4E1,3E1,1E1,9E0,9E0,8E0,8E0,7E0,7E0,1E0,9E0,1E0,8E0,3E0,6E0,3E0,5E0,5E0,3E0],"tree_param":{"num_deleted":"0","num_feature":"1","num_nodes":"31","size_leaf_vector":"0"}},{"base_weights":[-5.1620044E-2,-1.393398E-1,2.257246E-2,-2.456796E-1,-1.0611334E-1,-1.1571293E-2,1.0929581E-1,-2.8800038E-1,-1.6221592E-1,-1.2676689E-1,-6.982735E-2,-3.7175905E-2,1.7432747E-2,7.275165E-2,1.4221922E-1,-2.884394E-2,-7.277862E-2,-4.3052606E-2,-2.1704908E-2,8.635521E-4,2.9525919E-2,-6.3471086E-3,-2.7380094E-2,1.8423177E-2,-7.036676E-3,1.6911363E-2,3.2575633E-2],"categories":[],"categories_nodes":[],"categories_segments":[],"categories_sizes":[],"default_left":[1,1,1,1,1,1,1,0,0,0,1,1,1,0,0,0,0,0,1,1,1,0,0,0,0,0,0],"id":50,"left_children":[1,3,5,7,9,11,13,-1,-1,-1,15,17,19,-1,-1,-1,-1,-1,21,23,25,-1,-1,-1,-1,-1,-1],"loss_changes":[8.8174546E-1,1.9299436E-1,2.2038315E-1,2.7332306E-3,2.7870536E-2,4.075049E-2,1.4919639E-2,0E0,0E0,0E0,3.1984597E-4,1.702182E-3,5.1842304E-3,0E0,0E0,0E0,0E0,0E0,6.9779856E-4,1.7943386E-3,2.6163645E-5,0E0,0E0,0E0,0E0,0E0,0E0],"parents":[2147483647,0,0,1,1,2,2,3,3,4,4,5,5,6,6,10,10,11,11,12,12,18,18,19,19,20,20],"right_children":[2,4,6,8,10,12,14,-1,-1,-1,16,18,20,-1,-1,-1,-1,-1,22,24,26,-1,-1,-1,-1,-1,-1],"split_conditions":[-1.418565E-1,-1.5469434E0,1.1932963E0,-2.0402842E0,-6.663734E-1,4.084033E-1,1.5332572E0,-1.4400019E-2,-8.110796E-3,-6.3383444E-3,-6.2722826E-1,1.19781554E-1,7.091788E-1,3.6375825E-3,7.110961E-3,-1.442197E-3,-3.638931E-3,-2.1526304E-3,2.4610913E-1,4.140984E-1,7.786609E-1,-3.1735544E-4,-1.3690047E-3,9.211589E-4,-3.5183382E-4,8.455682E-4,1.6287817E-3],"split_indices":[0,0,0,0,0,0,0,0,0,0,0,0,0,0,0,0,0,0,0,0,0,0,0,0,0,0,0],"split_type":[0,0,0,0,0,0,0,0,0,0,0,0,0,0,0,0,0,0,0,0,0,0,0,0,0,0,0],"sum_hessian":[1.34E2,6.1E1,7.3E1,1.3E1,4.8E1,5.3E1,2E1,7E0,6E0,2.9E1,1.9E1,2.8E1,2.5E1,1.1E1,9E0,2E0,1.7E1,1.9E1,9E0,1.1E1,1.4E1,3E0,6E0,3E0,8E0,4E0,1E1],"tree_param":{"num_deleted":"0","num_feature":"1","num_nodes":"27","size_leaf_vector":"0"}},{"base_weights":[-4.9216643E-2,-1.5481643E-1,7.1025346E-3,-2.7540037E-1,-1.2682924E-1,-2.844848E-2,8.979184E-2,-1.5223345E-1,-9.9124275E-2,-4.7547713E-2,6.834871E-3,4.6693467E-2,1.21157646E-1,-5.5128805E-2,-3.07319E-2,-7.074191E-3,1.8078318E-2,5.283137E-2,1.9675344E-2,8.342905E-2,1.4374153E-1,3.8091454E-3,-3.6338918E-2,3.0488163E-2,-1.3879242E-2,2.497843E-2,-3.2361507E-2,3.331136E-2,7.378355E-2],"categories":[],"categories_nodes":[],"categories_segments":[],"categories_sizes":[],"default_left":[1,1,1,0,1,1,1,0,0,1,1,1,1,0,1,1,1,1,0,0,0,0,0,0,0,0,0,0,0],"id":51,"left_children":[1,3,5,-1,7,9,11,-1,-1,13,15,17,19,-1,21,23,25,27,-1,-1,-1,-1,-1,-1,-1,-1,-1,-1,-1],"loss_changes":[8.0398417E-1,1.2368703E-1,2.6418674E-1,0E0,1.3062835E-2,4.277973E-2,3.0841738E-2,0E0,0E0,3.5325587E-3,3.7247632E-3,1.1163726E-3,7.8864396E-4,0E0,3.0435035E-3,3.234904E-3,5.332865E-3,1.6320385E-3,0E0,0E0,0E0,0E0,0E0,0E0,0E0,0E0,0E0,0E0,0E0],"parents":[2147483647,0,0,1,1,2,2,4,4,5,5,6,6,9,9,10,10,11,11,12,12,14,14,15,15,16,16,17,17],"right_children":[2,4,6,-1,8,10,12,-1,-1,14,16,18,20,-1,22,24,26,28,-1,-1,-1,-1,-1,-1,-1,-1,-1,-1,-1],"split_conditions":[-5.5509216E-1,-2.0402842E0,8.1294334E-1,-1.3770019E-2,-1.2186474E0,3.6210552E-1,1.3859761E0,-7.611673E-3,-4.9562138E-3,-3.9035928E-2,4.7728205E-1,1.3188915E0,1.7630222E0,-2.7564403E-3,3.3341408E-2,3.97822E-1,7.9053557E-1,1.1932963E0,9.837672E-4,4.171453E-3,7.187077E-3,1.9045727E-4,-1.816946E-3,1.5244082E-3,-6.9396215E-4,1.2489215E-3,-1.6180754E-3,1.665568E-3,3.6891773E-3],"split_indices":[0,0,0,0,0,0,0,0,0,0,0,0,0,0,0,0,0,0,0,0,0,0,0,0,0,0,0,0,0],"split_type":[0,0,0,0,0,0,0,0,0,0,0,0,0,0,0,0,0,0,0,0,0,0,0,0,0,0,0,0,0],"sum_hessian":[1.34E2,4.6E1,8.8E1,7E0,3.9E1,6.2E1,2.6E1,1.8E1,2.1E1,4E1,2.2E1,1.2E1,1.4E1,2.6E1,1.4E1,1E1,1.2E1,9E0,3E0,7E0,7E0,2E0,1.2E1,1E0,9E0,1.1E1,1E0,6E0,3E0],"tree_param":{"num_deleted":"0","num_feature":"1","num_nodes":"29","size_leaf_vector":"0"}},{"base_weights":[-4.684888E-2,-1.399472E-1,1.1341142E-2,-2.6335162E-1,-1.148987E-1,-2.3589678E-2,8.5957676E-2,-1.4240578E-1,-8.71968E-2,-4.2166803E-2,6.5132016E-3,4.4846375E-2,1.1585696E-1,-4.765768E-2,-2.5355024E-2,-6.644975E-3,1.7146029E-2,5.0725263E-2,1.8937558E-2,7.9779E-2,1.374528E-1,1.2030542E-2,-3.0296635E-2,2.9725954E-2,-1.3254663E-2,2.3833608E-2,-3.1552464E-2,3.188371E-2,7.101667E-2],"categories":[],"categories_nodes":[],"categories_segments":[],"categories_sizes":[],"default_left":[1,1,1,0,1,1,1,0,0,1,1,1,1,0,1,1,1,1,0,0,0,0,0,0,0,0,0,0,0],"id":52,"left_children":[1,3,5,-1,7,9,11,-1,-1,13,15,17,19,-1,21,23,25,27,-1,-1,-1,-1,-1,-1,-1,-1,-1,-1,-1],"loss_changes":[7.3293525E-1,1.3047814E-1,2.2096671E-1,0E0,2.187258E-2,3.270969E-2,2.7992591E-2,0E0,0E0,2.1148473E-3,3.3318328E-3,1.0194834E-3,7.211566E-4,0E0,2.3966786E-3,3.0384131E-3,4.9857846E-3,1.5589409E-3,0E0,0E0,0E0,0E0,0E0,0E0,0E0,0E0,0E0,0E0,0E0],"parents":[2147483647,0,0,1,1,2,2,4,4,5,5,6,6,9,9,10,10,11,11,12,12,14,14,15,15,16,16,17,17],"right_children":[2,4,6,-1,8,10,12,-1,-1,14,16,18,20,-1,22,24,26,28,-1,-1,-1,-1,-1,-1,-1,-1,-1,-1,-1],"split_conditions":[-4.561877E-1,-2.0402842E0,8.1294334E-1,-1.31675815E-2,-1.0820148E0,3.6210552E-1,1.3859761E0,-7.120289E-3,-4.35984E-3,7.9494745E-2,4.7728205E-1,1.3188915E0,1.7630222E0,-2.382884E-3,8.981553E-2,3.97822E-1,7.9053557E-1,1.1932963E0,9.4687793E-4,3.98895E-3,6.87264E-3,6.015271E-4,-1.5148318E-3,1.4862977E-3,-6.6273316E-4,1.1916804E-3,-1.5776232E-3,1.5941855E-3,3.5508336E-3],"split_indices":[0,0,0,0,0,0,0,0,0,0,0,0,0,0,0,0,0,0,0,0,0,0,0,0,0,0,0,0,0],"split_type":[0,0,0,0,0,0,0,0,0,0,0,0,0,0,0,0,0,0,0,0,0,0,0,0,0,0,0,0,0],"sum_hessian":[1.34E2,5.1E1,8.3E1,7E0,4.4E1,5.7E1,2.6E1,2E1,2.4E1,3.5E1,2.2E1,1.2E1,1.4E1,2.5E1,1E1,1E1,1.2E1,9E0,3E0,7E0,7E0,1E0,9E0,1E0,9E0,1.1E1,1E0,6E0,3E0],"tree_param":{"num_deleted":"0","num_feature":"1","num_nodes":"29","size_leaf_vector":"0"}},{"base_weights":[-4.458461E-2,-1.408825E-1,6.7702867E-3,-2.5182998E-1,-1.1517095E-1,-2.9219504E-2,7.504859E-2,-1.3827693E-1,-8.9980744E-2,-4.4120163E-2,-1.5544749E-4,3.909902E-2,1.107882E-1,-4.981372E-2,-2.890122E-2,-9.578556E-3,1.1167827E-2,2.8941793E-2,4.9474802E-2,7.628864E-2,1.3143922E-1,5.270763E-3,-3.5593465E-2,2.3047179E-2,-1.463973E-2,4.8797205E-3,1.3165628E-2,4.156655E-2,1.9011691E-2,6.8353504E-2,1.8227398E-2],"categories":[],"categories_nodes":[],"categories_segments":[],"categories_sizes":[],"default_left":[1,1,1,0,1,1,1,0,0,1,1,1,1,0,1,1,1,1,1,0,0,0,0,0,0,0,0,0,0,0,0],"id":53,"left_children":[1,3,5,-1,7,9,11,-1,-1,13,15,17,19,-1,21,23,25,27,29,-1,-1,-1,-1,-1,-1,-1,-1,-1,-1,-1,-1],"loss_changes":[6.685785E-1,1.05070114E-1,2.2089453E-1,0E0,1.0839522E-2,2.5544483E-2,3.5497814E-2,0E0,0E0,1.9396767E-3,2.347681E-3,3.5972707E-4,6.594509E-4,0E0,3.160541E-3,2.3188987E-3,6.137928E-5,5.8876537E-4,2.883466E-3,0E0,0E0,0E0,0E0,0E0,0E0,0E0,0E0,0E0,0E0,0E0,0E0],"parents":[2147483647,0,0,1,1,2,2,4,4,5,5,6,6,9,9,10,10,11,11,12,12,14,14,15,15,16,16,17,17,18,18],"right_children":[2,4,6,-1,8,10,12,-1,-1,14,16,18,20,-1,22,24,26,28,30,-1,-1,-1,-1,-1,-1,-1,-1,-1,-1,-1,-1],"split_conditions":[-5.5509216E-1,-2.0402842E0,7.786609E-1,-1.2591499E-2,-1.2186474E0,2.9868588E-1,1.3859761E0,-6.913847E-3,-4.4990373E-3,-3.9035928E-2,4.3530273E-1,1.1932963E0,1.7630222E0,-2.490686E-3,3.3341408E-2,3.2832623E-1,5.707228E-1,7.9053557E-1,1.3188915E0,3.814432E-3,6.571961E-3,2.6353815E-4,-1.7796733E-3,1.152359E-3,-7.319865E-4,2.4398603E-4,6.582814E-4,2.0783276E-3,9.505846E-4,3.4176752E-3,9.113699E-4],"split_indices":[0,0,0,0,0,0,0,0,0,0,0,0,0,0,0,0,0,0,0,0,0,0,0,0,0,0,0,0,0,0,0],"split_type":[0,0,0,0,0,0,0,0,0,0,0,0,0,0,0,0,0,0,0,0,0,0,0,0,0,0,0,0,0,0,0],"sum_hessian":[1.34E2,4.6E1,8.8E1,7E0,3.9E1,5.8E1,3E1,1.8E1,2.1E1,3.8E1,2E1,1.6E1,1.4E1,2.6E1,1.2E1,1.1E1,9E0,1E1,6E0,7E0,7E0,2E0,1E1,1E0,1E1,3E0,6E0,3E0,7E0,3E0,3E0],"tree_param":{"num_deleted":"0","num_feature":"1","num_nodes":"31","size_leaf_vector":"0"}},{"base_weights":[-4.242163E-2,-1.15399115E-1,1.9294929E-2,-2.0596226E-1,-8.716885E-2,-9.159802E-3,9.1545425E-2,-2.4081242E-1,-1.367103E-1,-1.1033491E-1,-6.420632E-2,-3.0392112E-2,1.487469E-2,6.549602E-2,1.2568872E-1,-3.4263514E-2,-1.5946744E-2,1.041005E-3,2.4949992E-2,2.1309718E-2,-2.4313342E-2,1.929883E-2,-7.1892506E-3,1.3755846E-2,2.777006E-2],"categories":[],"categories_nodes":[],"categories_segments":[],"categories_sizes":[],"default_left":[1,1,1,1,1,1,1,0,0,0,0,1,1,0,0,0,1,1,1,0,0,0,0,0,0],"id":54,"left_children":[1,3,5,7,9,11,13,-1,-1,-1,-1,15,17,-1,-1,-1,19,21,23,-1,-1,-1,-1,-1,-1],"loss_changes":[6.102557E-1,1.4055711E-1,1.5297282E-1,8.6659193E-4,1.8981427E-2,2.8008696E-2,1.044555E-2,0E0,0E0,0E0,0E0,1.0753982E-3,3.5978686E-3,0E0,0E0,0E0,3.011789E-3,1.9419428E-3,9.152293E-5,0E0,0E0,0E0,0E0,0E0,0E0],"parents":[2147483647,0,0,1,1,2,2,3,3,4,4,5,5,6,6,11,11,12,12,16,16,17,17,18,18],"right_children":[2,4,6,8,10,12,14,-1,-1,-1,-1,16,18,-1,-1,-1,20,22,24,-1,-1,-1,-1,-1,-1],"split_conditions":[-1.418565E-1,-1.5469434E0,1.1932963E0,-2.0402842E0,-8.3440995E-1,4.084033E-1,1.7630222E0,-1.2040622E-2,-6.835515E-3,-5.5167456E-3,-3.210316E-3,1.8306853E-1,7.091788E-1,3.274801E-3,6.2844357E-3,-1.7131757E-3,2.4610913E-1,4.140984E-1,7.786609E-1,1.065486E-3,-1.2156671E-3,9.6494146E-4,-3.5946255E-4,6.877923E-4,1.388503E-3],"split_indices":[0,0,0,0,0,0,0,0,0,0,0,0,0,0,0,0,0,0,0,0,0,0,0,0,0],"split_type":[0,0,0,0,0,0,0,0,0,0,0,0,0,0,0,0,0,0,0,0,0,0,0,0,0],"sum_hessian":[1.34E2,6.1E1,7.3E1,1.3E1,4.8E1,5.3E1,2E1,7E0,6E0,2.2E1,2.6E1,2.8E1,2.5E1,1.3E1,7E0,2.1E1,7E0,1.1E1,1.4E1,1E0,6E0,3E0,8E0,4E0,1E1],"tree_param":{"num_deleted":"0","num_feature":"1","num_nodes":"25","size_leaf_vector":"0"}},{"base_weights":[-4.042815E-2,-1.2834954E-1,6.4564985E-3,-2.3027688E-1,-1.04755335E-1,-2.3188068E-2,7.538802E-2,-1.2608407E-1,-8.157345E-2,-3.886934E-2,5.773683E-3,3.948261E-2,1.0148018E-1,-4.3691847E-2,-2.1745067E-2,8.9391405E-3,-3.193319E-2,4.5292277E-2,1.5087783E-2,7.008554E-2,1.201898E-1,-2.3787212E-2,-4.5759674E-2,1.3476204E-2,-2.6614815E-2,-1.6821802E-3,2.7736723E-2,2.8512333E-2,6.333411E-2],"categories":[],"categories_nodes":[],"categories_segments":[],"categories_sizes":[],"default_left":[1,1,1,0,1,1,1,0,0,1,1,1,1,1,1,1,0,1,0,0,0,0,0,0,0,0,0,0,0],"id":55,"left_children":[1,3,5,-1,7,9,11,-1,-1,13,15,17,19,21,23,25,-1,27,-1,-1,-1,-1,-1,-1,-1,-1,-1,-1,-1],"loss_changes":[5.573208E-1,8.89073E-2,1.8361472E-1,0E0,9.4925165E-3,2.8836321E-2,2.1288231E-2,0E0,0E0,2.4357736E-3,3.0307234E-3,1.1590775E-3,3.8716197E-4,1.874417E-4,2.2453722E-3,4.4390713E-3,0E0,1.2216046E-3,0E0,0E0,0E0,0E0,0E0,0E0,0E0,0E0,0E0,0E0,0E0],"parents":[2147483647,0,0,1,1,2,2,4,4,5,5,6,6,9,9,10,10,11,11,12,12,13,13,14,14,15,15,17,17],"right_children":[2,4,6,-1,8,10,12,-1,-1,14,16,18,20,22,24,26,-1,28,-1,-1,-1,-1,-1,-1,-1,-1,-1,-1,-1],"split_conditions":[-5.5509216E-1,-2.0402842E0,8.1294334E-1,-1.1513844E-2,-1.2186474E0,3.6210552E-1,1.3859761E0,-6.304204E-3,-4.0786727E-3,7.9494745E-2,7.9053557E-1,1.3188915E0,1.7630222E0,-4.8767215E-1,8.981553E-2,7.091788E-1,-1.5966594E-3,1.1932963E0,7.5438916E-4,3.504277E-3,6.00949E-3,-1.1893606E-3,-2.2879837E-3,6.738102E-4,-1.3307407E-3,-8.4109015E-5,1.3868362E-3,1.4256167E-3,3.1667054E-3],"split_indices":[0,0,0,0,0,0,0,0,0,0,0,0,0,0,0,0,0,0,0,0,0,0,0,0,0,0,0,0,0],"split_type":[0,0,0,0,0,0,0,0,0,0,0,0,0,0,0,0,0,0,0,0,0,0,0,0,0,0,0,0,0],"sum_hessian":[1.34E2,4.6E1,8.8E1,7E0,3.9E1,6.2E1,2.6E1,1.8E1,2.1E1,4E1,2.2E1,1.2E1,1.4E1,3E1,1E1,2.1E1,1E0,9E0,3E0,7E0,7E0,4E0,2.6E1,1E0,9E0,1.4E1,7E0,6E0,3E0],"tree_param":{"num_deleted":"0","num_feature":"1","num_nodes":"29","size_leaf_vector":"0"}},{"base_weights":[-3.849166E-2,-1.1603299E-1,9.968349E-3,-2.2020218E-1,-9.4935514E-2,-1.9159006E-2,7.216902E-2,-1.1784707E-1,-7.189238E-2,-3.436343E-2,5.472221E-3,3.7919775E-2,9.704044E-2,-3.881502E-2,-2.0717533E-2,8.551398E-3,-3.1134844E-2,4.34869E-2,1.4522016E-2,7.437971E-2,1.2748595E-1,1.31393E-2,-2.5417147E-2,1.9171347E-3,3.79263E-2,2.729037E-2,6.09591E-2],"categories":[],"categories_nodes":[],"categories_segments":[],"categories_sizes":[],"default_left":[1,1,1,0,1,1,1,0,0,1,1,1,1,0,1,1,0,1,0,0,0,0,0,0,0,0,0],"id":56,"left_children":[1,3,5,-1,7,9,11,-1,-1,13,15,17,19,-1,21,23,-1,25,-1,-1,-1,-1,-1,-1,-1,-1,-1],"loss_changes":[5.084399E-1,9.337574E-2,1.5356894E-1,0E0,1.5285641E-2,2.1909254E-2,1.9319594E-2,0E0,0E0,1.3827011E-3,2.8587985E-3,1.0618418E-3,8.663684E-4,0E0,2.084218E-3,4.214669E-3,0E0,1.1662934E-3,0E0,0E0,0E0,0E0,0E0,0E0,0E0,0E0,0E0],"parents":[2147483647,0,0,1,1,2,2,4,4,5,5,6,6,9,9,10,10,11,11,12,12,14,14,15,15,17,17],"right_children":[2,4,6,-1,8,10,12,-1,-1,14,16,18,20,-1,22,24,-1,26,-1,-1,-1,-1,-1,-1,-1,-1,-1],"split_conditions":[-4.561877E-1,-2.0402842E0,8.1294334E-1,-1.1010109E-2,-1.0820148E0,3.6210552E-1,1.3859761E0,-5.8923536E-3,-3.594619E-3,7.9494745E-2,7.9053557E-1,1.3188915E0,1.9542284E0,-1.9407511E-3,8.981553E-2,7.786609E-1,-1.5567422E-3,1.1932963E0,7.261008E-4,3.7189857E-3,6.374297E-3,6.56965E-4,-1.2708574E-3,9.585674E-5,1.8963151E-3,1.3645185E-3,3.047955E-3],"split_indices":[0,0,0,0,0,0,0,0,0,0,0,0,0,0,0,0,0,0,0,0,0,0,0,0,0,0,0],"split_type":[0,0,0,0,0,0,0,0,0,0,0,0,0,0,0,0,0,0,0,0,0,0,0,0,0,0,0],"sum_hessian":[1.34E2,5.1E1,8.3E1,7E0,4.4E1,5.7E1,2.6E1,2E1,2.4E1,3.5E1,2.2E1,1.2E1,1.4E1,2.5E1,1E1,2.1E1,1E0,9E0,3E0,1E1,4E0,1E0,9E0,1.8E1,3E0,6E0,3E0],"tree_param":{"num_deleted":"0","num_feature":"1","num_nodes":"27","size_leaf_vector":"0"}},{"base_weights":[-3.662176E-2,-1.0023167E-1,1.7167915E-2,-1.805233E-1,-7.5245656E-2,-7.649935E-3,8.0167726E-2,-9.515856E-2,-5.5495933E-2,-2.2322826E-2,1.8410122E-2,5.3117383E-2,1.0461136E-1,-2.8411796E-2,-8.284654E-3,1.00053605E-2,2.4377167E-2,6.0012247E-2,2.4324596E-2,-1.3323004E-2,-2.9932909E-2,2.4379626E-2,-1.34704625E-2,4.957542E-3,1.1460491E-2,3.650406E-2,1.5266575E-2,4.1514616E-2,8.3169304E-2],"categories":[],"categories_nodes":[],"categories_segments":[],"categories_sizes":[],"default_left":[1,1,1,0,1,1,1,0,0,1,1,1,0,1,1,1,1,1,0,0,0,0,0,0,0,0,0,0,0],"id":57,"left_children":[1,3,5,-1,7,9,11,-1,-1,13,15,17,-1,19,21,23,25,27,-1,-1,-1,-1,-1,-1,-1,-1,-1,-1,-1],"loss_changes":[4.6363086E-1,1.10798895E-1,1.16313756E-1,0E0,1.3989508E-2,2.1059291E-2,8.328691E-3,0E0,0E0,2.7563479E-3,7.591294E-4,9.2249364E-4,0E0,1.5204586E-4,2.3610936E-3,1.6636448E-5,6.580227E-4,4.024133E-4,0E0,0E0,0E0,0E0,0E0,0E0,0E0,0E0,0E0,0E0,0E0],"parents":[2147483647,0,0,1,1,2,2,4,4,5,5,6,6,9,9,10,10,11,11,13,13,14,14,15,15,16,16,17,17],"right_children":[2,4,6,-1,8,10,12,-1,-1,14,16,18,-1,20,22,24,26,28,-1,-1,-1,-1,-1,-1,-1,-1,-1,-1,-1],"split_conditions":[-1.418565E-1,-1.5469434E0,1.1932963E0,-9.026165E-3,-8.3440995E-1,